{"learner":{"attributes":{"scikit_learn":"{\"_estimator_type\": \"classifier\"}"},"feature_names":["price_vs_ema_20","bb_position","bb_lower","taker_buy_sell_ratio","is_shooting_star","bb_mid","return_3","low","price_vs_vwap","hl_range","price_vs_resistance_20","resistance_20","price_momentum_5","vwap_bar","macd","stoch_k","price_vs_support_20","quote_asset_volume","vwap","atr_14","adl","ema_20","volatility_10","vpt","garman_klass_vol","support_50","return_1","price_vs_resistance_50","volume_ratio_5","ema_50"],"feature_types":["float","float","float","float","int","float","float","float","float","float","float","float","float","float","float","float","float","float","float","float","float","float","float","float","float","float","float","float","float","float"],"gradient_booster":{"model":{"gbtree_model_param":{"num_parallel_tree":"1","num_trees":"61"},"iteration_indptr":[0,1,2,3,4,5,6,7,8,9,10,11,12,13,14,15,16,17,18,19,20,21,22,23,24,25,26,27,28,29,30,31,32,33,34,35,36,37,38,39,40,41,42,43,44,45,46,47,48,49,50,51,52,53,54,55,56,57,58,59,60,61],"tree_info":[0,0,0,0,0,0,0,0,0,0,0,0,0,0,0,0,0,0,0,0,0,0,0,0,0,0,0,0,0,0,0,0,0,0,0,0,0,0,0,0,0,0,0,0,0,0,0,0,0,0,0,0,0,0,0,0,0,0,0,0,0],"trees":[{"base_weights":[9.2515686E-5,9.73348E-2,-1.3088444E-1,1.8359755E-1,4.5217156E-2,-7.5718164E-2,-1.9920051E-1,1.4694601E-2,7.174619E-3,3.676519E-3,-1.50551E-3,2.728828E-4,-5.669281E-3,-3.7977675E-3,-1.0842422E-2],"categories":[],"categories_nodes":[],"categories_segments":[],"categories_sizes":[],"default_left":[0,0,0,0,0,0,0,0,0,0,0,0,0,0,0],"id":0,"left_children":[1,3,5,7,9,11,13,-1,-1,-1,-1,-1,-1,-1,-1],"loss_changes":[4.314097E2,8.724213E1,5.4166733E1,3.0780106E1,2.828305E1,2.6805115E1,1.8637451E1,0E0,0E0,0E0,0E0,0E0,0E0,0E0,0E0],"parents":[2147483647,0,0,1,1,2,2,3,3,4,4,5,5,6,6],"right_children":[2,4,6,8,10,12,14,-1,-1,-1,-1,-1,-1,-1,-1],"split_conditions":[5.921474E-1,2.313508E-1,8.103939E-1,9.012189E0,1.224041E-3,-1.05077885E-2,-4.9227476E-4,1.4694601E-2,7.174619E-3,3.676519E-3,-1.50551E-3,2.728828E-4,-5.669281E-3,-3.7977675E-3,-1.0842422E-2],"split_indices":[1,1,1,15,6,27,26,0,0,0,0,0,0,0,0],"split_type":[0,0,0,0,0,0,0,0,0,0,0,0,0,0,0],"sum_hessian":[3.3869016E4,1.9440969E4,1.4428049E4,7.3149644E3,1.2126004E4,7.9903457E3,6.437703E3,1.6788721E3,5.6360923E3,8.663502E3,3.462502E3,2.6779773E3,5.3123687E3,1.0810917E3,5.3566113E3],"tree_param":{"num_deleted":"0","num_feature":"30","num_nodes":"15","size_leaf_vector":"1"}},{"base_weights":[-6.8288343E-3,8.432878E-2,-1.299869E-1,1.6438302E-1,2.8502256E-2,-3.0768953E-2,-1.6076405E-1,1.0909652E-2,5.8659543E-3,2.699369E-3,-2.8517214E-3,6.4257733E-3,-2.6524167E-3,-4.6692593E-3,-9.291073E-3],"categories":[],"categories_nodes":[],"categories_segments":[],"categories_sizes":[],"default_left":[0,0,0,0,0,0,0,0,0,0,0,0,0,0,0],"id":1,"left_children":[1,3,5,7,9,11,13,-1,-1,-1,-1,-1,-1,-1,-1],"loss_changes":[3.8192255E2,8.720894E1,4.4052383E1,2.0804596E1,2.7282682E1,1.3355011E1,2.1644073E1,0E0,0E0,0E0,0E0,0E0,0E0,0E0,0E0],"parents":[2147483647,0,0,1,1,2,2,3,3,4,4,5,5,6,6],"right_children":[2,4,6,8,10,12,14,-1,-1,-1,-1,-1,-1,-1,-1],"split_conditions":[5.921474E-1,2.5131574E-1,-6.686449E-4,-1.4813542E-3,1.716733E-3,-3.3943057E-3,-4.070868E-3,1.0909652E-2,5.8659543E-3,2.699369E-3,-2.8517214E-3,6.4257733E-3,-2.6524167E-3,-4.6692593E-3,-9.291073E-3],"split_indices":[1,1,26,26,6,6,10,0,0,0,0,0,0,0,0],"split_type":[0,0,0,0,0,0,0,0,0,0,0,0,0,0,0],"sum_hessian":[3.4011547E4,1.9542305E4,1.446924E4,8.0221978E3,1.1520107E4,3.4318936E3,1.1037347E4,3.3467563E3,4.6754414E3,8.79486E3,2.725247E3,4.3337994E2,2.9985134E3,3.5683303E3,7.4690166E3],"tree_param":{"num_deleted":"0","num_feature":"30","num_nodes":"15","size_leaf_vector":"1"}},{"base_weights":[-3.7027497E-4,1.0752655E-1,-9.423591E-2,1.8226615E-1,6.8878375E-2,-5.979823E-3,-1.4007388E-1,1.3521825E-2,6.929981E-3,4.327234E-3,-8.2326034E-5,5.027518E-3,-2.0271381E-3,-4.695371E-3,-9.678278E-3],"categories":[],"categories_nodes":[],"categories_segments":[],"categories_sizes":[],"default_left":[0,0,0,0,0,0,0,0,0,0,0,0,0,0,0],"id":2,"left_children":[1,3,5,7,9,11,13,-1,-1,-1,-1,-1,-1,-1,-1],"loss_changes":[3.4477142E2,4.554265E1,7.356311E1,2.0125122E1,1.5023144E1,2.4413889E1,3.0564835E1,0E0,0E0,0E0,0E0,0E0,0E0,0E0,0E0],"parents":[2147483647,0,0,1,1,2,2,3,3,4,4,5,5,6,6],"right_children":[2,4,6,8,10,12,14,-1,-1,-1,-1,-1,-1,-1,-1],"split_conditions":[-1.1618654E-4,1.6683461E-1,2.9671192E-4,1.789377E3,1.3312101E-3,-1.649797E-3,8.302478E1,1.3521825E-2,6.929981E-3,4.327234E-3,-8.2326034E-5,5.027518E-3,-2.0271381E-3,-4.695371E-3,-9.678278E-3],"split_indices":[0,1,6,5,6,12,15,0,0,0,0,0,0,0,0],"split_type":[0,0,0,0,0,0,0,0,0,0,0,0,0,0,0],"sum_hessian":[3.403829E4,1.5832132E4,1.8206156E4,5.3875728E3,1.044456E4,6.229342E3,1.1976814E4,1.5557406E3,3.831832E3,8.118514E3,2.3260452E3,1.5281096E3,4.7012324E3,6.9351787E3,5.0416357E3],"tree_param":{"num_deleted":"0","num_feature":"30","num_nodes":"15","size_leaf_vector":"1"}},{"base_weights":[-6.543754E-4,1.0015265E-1,-1.08190976E-1,1.6576618E-1,3.9829604E-2,-5.6535017E-2,-1.7572117E-1,1.2269996E-2,6.5388083E-3,3.474976E-3,-2.2505429E-3,6.217076E-4,-4.863646E-3,-3.4274734E-3,-1.00505315E-2],"categories":[],"categories_nodes":[],"categories_segments":[],"categories_sizes":[],"default_left":[0,0,0,0,0,0,0,0,0,0,0,0,0,0,0],"id":3,"left_children":[1,3,5,7,9,11,13,-1,-1,-1,-1,-1,-1,-1,-1],"loss_changes":[3.6778674E2,6.914548E1,5.7096466E1,2.2300095E1,2.50404E1,2.8276447E1,2.3240067E1,0E0,0E0,0E0,0E0,0E0,0E0,0E0,0E0],"parents":[2147483647,0,0,1,1,2,2,3,3,4,4,5,5,6,6],"right_children":[2,4,6,8,10,12,14,-1,-1,-1,-1,-1,-1,-1,-1],"split_conditions":[2.8546443E-4,3.0056028E1,7.916722E-1,7.8939235E6,1.2594461E-3,-1.4865398E-4,-3.982923E-3,1.2269996E-2,6.5388083E-3,3.474976E-3,-2.2505429E-3,6.217076E-4,-4.863646E-3,-3.4274734E-3,-1.00505315E-2],"split_indices":[0,15,1,20,6,6,10,0,0,0,0,0,0,0,0],"split_type":[0,0,0,0,0,0,0,0,0,0,0,0,0,0,0],"sum_hessian":[3.3922133E4,1.750581E4,1.6416322E4,8.377983E3,9.127827E3,9.309387E3,7.1069346E3,2.1900466E3,6.1879365E3,6.675041E3,2.4527861E3,3.5931711E3,5.7162163E3,1.6415819E3,5.4653525E3],"tree_param":{"num_deleted":"0","num_feature":"30","num_nodes":"15","size_leaf_vector":"1"}},{"base_weights":[2.7803052E-3,8.462173E-2,-1.0142323E-1,1.5494865E-1,3.6788847E-2,-1.9679662E-2,-1.5000008E-1,1.3050906E-2,6.0298196E-3,2.5428494E-3,-3.6607701E-3,8.46429E-3,-1.8155812E-3,-1.527796E-2,-6.8409485E-3],"categories":[],"categories_nodes":[],"categories_segments":[],"categories_sizes":[],"default_left":[0,0,0,0,0,0,0,0,0,0,0,0,0,0,0],"id":4,"left_children":[1,3,5,7,9,11,13,-1,-1,-1,-1,-1,-1,-1,-1],"loss_changes":[2.8948706E2,6.3830475E1,5.916284E1,2.6570358E1,1.9843079E1,1.9109348E1,1.3513748E1,0E0,0E0,0E0,0E0,0E0,0E0,0E0,0E0],"parents":[2147483647,0,0,1,1,2,2,3,3,4,4,5,5,6,6],"right_children":[2,4,6,8,10,12,14,-1,-1,-1,-1,-1,-1,-1,-1],"split_conditions":[6.3853967E-4,-1.8177629E-3,-5.0544133E-3,9.5132475E0,2.724886E-3,-4.809141E-3,1.9828578E0,1.3050906E-2,6.0298196E-3,2.5428494E-3,-3.6607701E-3,8.46429E-3,-1.8155812E-3,-1.527796E-2,-6.8409485E-3],"split_indices":[0,6,10,15,12,6,19,0,0,0,0,0,0,0,0],"split_type":[0,0,0,0,0,0,0,0,0,0,0,0,0,0,0],"sum_hessian":[3.3941465E4,1.9014383E4,1.4927081E4,7.6895815E3,1.1324801E4,5.5703735E3,9.356708E3,1.6224218E3,6.06716E3,9.947944E3,1.3768566E3,4.6149374E2,5.10888E3,4.7761908E2,8.879089E3],"tree_param":{"num_deleted":"0","num_feature":"30","num_nodes":"15","size_leaf_vector":"1"}},{"base_weights":[2.6548328E-3,8.666566E-2,-8.747769E-2,1.5615432E-1,5.235212E-2,-1.881147E-2,-1.3963012E-1,1.2217731E-2,5.6955777E-3,3.5041783E-3,-5.8366434E-4,1.1630871E-3,-4.5024874E-3,-3.843831E-3,-8.775008E-3],"categories":[],"categories_nodes":[],"categories_segments":[],"categories_sizes":[],"default_left":[0,0,0,0,0,0,0,0,0,0,0,0,0,0,0],"id":5,"left_children":[1,3,5,7,9,11,13,-1,-1,-1,-1,-1,-1,-1,-1],"loss_changes":[2.5727106E2,4.178195E1,5.857286E1,2.1220474E1,1.5111008E1,2.2462711E1,2.296492E1,0E0,0E0,0E0,0E0,0E0,0E0,0E0,0E0],"parents":[2147483647,0,0,1,1,2,2,3,3,4,4,5,5,6,6],"right_children":[2,4,6,8,10,12,14,-1,-1,-1,-1,-1,-1,-1,-1],"split_conditions":[2.8546443E-4,1.8045567E-1,-4.4541867E-3,1.7838151E3,1.224041E-3,2.2559166E-3,7.990712E-1,1.2217731E-2,5.6955777E-3,3.5041783E-3,-5.8366434E-4,1.1630871E-3,-4.5024874E-3,-3.843831E-3,-8.775008E-3],"split_indices":[0,1,10,21,6,6,1,0,0,0,0,0,0,0,0],"split_type":[0,0,0,0,0,0,0,0,0,0,0,0,0,0,0],"sum_hessian":[3.3971566E4,1.7586746E4,1.6384818E4,5.804464E3,1.1782282E4,7.079513E3,9.305306E3,1.6661124E3,4.138351E3,9.012035E3,2.7702463E3,4.4808306E3,2.5986829E3,3.7823337E3,5.5229717E3],"tree_param":{"num_deleted":"0","num_feature":"30","num_nodes":"15","size_leaf_vector":"1"}},{"base_weights":[9.874857E-4,1.0608958E-1,-6.478879E-2,2.0336276E-1,7.995479E-2,-3.616304E-2,-1.5966727E-1,1.5396297E-2,7.204997E-3,4.2893826E-3,-3.925526E-3,-2.0904756E-4,-5.1932367E-3,2.3585465E-2,-8.0210585E-3],"categories":[],"categories_nodes":[],"categories_segments":[],"categories_sizes":[],"default_left":[0,0,0,0,0,0,0,0,0,0,0,0,0,0,0],"id":6,"left_children":[1,3,5,7,9,11,13,-1,-1,-1,-1,-1,-1,-1,-1],"loss_changes":[2.3471707E2,3.3004517E1,5.655638E1,1.6846107E1,1.4022568E1,3.6144444E1,1.7543106E1,0E0,0E0,0E0,0E0,0E0,0E0,0E0,0E0],"parents":[2147483647,0,0,1,1,2,2,3,3,4,4,5,5,6,6],"right_children":[2,4,6,8,10,12,14,-1,-1,-1,-1,-1,-1,-1,-1],"split_conditions":[-7.985959E-4,1.2900595E1,8.4757225E1,1.8732E3,-6.7561255E-3,-5.244538E-3,-1.7322898E-3,1.5396297E-2,7.204997E-3,4.2893826E-3,-3.925526E-3,-2.0904756E-4,-5.1932367E-3,2.3585465E-2,-8.0210585E-3],"split_indices":[0,15,15,11,27,27,6,0,0,0,0,0,0,0,0],"split_type":[0,0,0,0,0,0,0,0,0,0,0,0,0,0,0],"sum_hessian":[3.394329E4,1.3069141E4,2.0874148E4,2.7590024E3,1.0310138E4,1.6043794E4,4.8303555E3,8.8946594E2,1.8695364E3,9.801016E3,5.0912173E2,1.1076242E4,4.9675513E3,3.9017673E1,4.791338E3],"tree_param":{"num_deleted":"0","num_feature":"30","num_nodes":"15","size_leaf_vector":"1"}},{"base_weights":[-5.809701E-3,5.6991957E-2,-1.0953155E-1,1.3565226E-1,1.36798145E-2,-3.0046916E-2,-1.3687775E-1,1.1417113E-2,5.0623813E-3,2.3791043E-3,-1.6589616E-3,6.863025E-3,-2.391728E-3,-3.7715135E-3,-7.756603E-3],"categories":[],"categories_nodes":[],"categories_segments":[],"categories_sizes":[],"default_left":[0,0,0,0,0,0,0,0,0,0,0,0,0,0,0],"id":7,"left_children":[1,3,5,7,9,11,13,-1,-1,-1,-1,-1,-1,-1,-1],"loss_changes":[2.2139485E2,7.199711E1,2.7745102E1,2.3154587E1,2.3120386E1,1.0813232E1,1.2764465E1,0E0,0E0,0E0,0E0,0E0,0E0,0E0,0E0],"parents":[2147483647,0,0,1,1,2,2,3,3,4,4,5,5,6,6],"right_children":[2,4,6,8,10,12,14,-1,-1,-1,-1,-1,-1,-1,-1],"split_conditions":[6.375549E-1,2.6800537E1,-4.9227476E-4,7.7214555E6,1.0514475E0,-3.3943057E-3,7.4810034E-1,1.1417113E-2,5.0623813E-3,2.3791043E-3,-1.6589616E-3,6.863025E-3,-2.391728E-3,-3.7715135E-3,-7.756603E-3],"split_indices":[1,15,26,20,3,6,1,0,0,0,0,0,0,0,0],"split_type":[0,0,0,0,0,0,0,0,0,0,0,0,0,0,0],"sum_hessian":[3.3978133E4,2.1160492E4,1.281764E4,7.5068394E3,1.3653653E4,3.2884807E3,9.529158E3,1.7870525E3,5.7197866E3,7.8617954E3,5.791858E3,3.267992E2,2.9616816E3,2.676196E3,6.8529624E3],"tree_param":{"num_deleted":"0","num_feature":"30","num_nodes":"15","size_leaf_vector":"1"}},{"base_weights":[-5.362675E-3,1.030149E-1,-5.961233E-2,1.6609944E-1,7.3824644E-2,-2.0058958E-2,-1.23040095E-1,1.6493501E-2,6.02239E-3,3.2999879E-3,1.568046E-2,1.655572E-3,-2.2404834E-3,-7.2906357E-3,-1.671658E-3],"categories":[],"categories_nodes":[],"categories_segments":[],"categories_sizes":[],"default_left":[0,0,0,0,0,0,0,0,0,0,0,0,0,0,0],"id":8,"left_children":[1,3,5,7,9,11,13,-1,-1,-1,-1,-1,-1,-1,-1],"loss_changes":[1.9991699E2,2.0694847E1,5.6766273E1,2.5707932E1,1.0952881E1,1.9775589E1,2.0831223E1,0E0,0E0,0E0,0E0,0E0,0E0,0E0,0E0],"parents":[2147483647,0,0,1,1,2,2,3,3,4,4,5,5,6,6],"right_children":[2,4,6,8,10,12,14,-1,-1,-1,-1,-1,-1,-1,-1],"split_conditions":[-1.2902742E-3,2.8246047E-3,7.4810034E-1,1.64053E3,6.728288E0,-5.8722496E-4,-3.616034E4,1.6493501E-2,6.02239E-3,3.2999879E-3,1.568046E-2,1.655572E-3,-2.2404834E-3,-7.2906357E-3,-1.671658E-3],"split_indices":[0,16,1,7,14,26,23,0,0,0,0,0,0,0,0],"split_type":[0,0,0,0,0,0,0,0,0,0,0,0,0,0,0],"sum_hessian":[3.400284E4,1.1337984E4,2.2664855E4,3.5760154E3,7.7619683E3,1.3967989E4,8.696867E3,6.895724E2,2.886443E3,7.5904424E3,1.71526E2,4.5343374E3,9.433651E3,6.646665E3,2.0502021E3],"tree_param":{"num_deleted":"0","num_feature":"30","num_nodes":"15","size_leaf_vector":"1"}},{"base_weights":[-2.7251674E-3,5.909453E-2,-8.0306314E-2,1.2005805E-1,1.7731952E-2,-4.103326E-2,-1.3331039E-1,9.778661E-3,4.2410344E-3,2.6586044E-3,-1.3311022E-3,-1.1439594E-3,-9.775499E-3,-3.037417E-3,-7.512738E-3],"categories":[],"categories_nodes":[],"categories_segments":[],"categories_sizes":[],"default_left":[0,0,0,0,0,0,0,0,0,0,0,0,0,0,0],"id":9,"left_children":[1,3,5,7,9,11,13,-1,-1,-1,-1,-1,-1,-1,-1],"loss_changes":[1.6294986E2,4.7567917E1,3.1242996E1,2.0076447E1,1.8884327E1,2.4113625E1,9.577637E0,0E0,0E0,0E0,0E0,0E0,0E0,0E0,0E0],"parents":[2147483647,0,0,1,1,2,2,3,3,4,4,5,5,6,6],"right_children":[2,4,6,8,10,12,14,-1,-1,-1,-1,-1,-1,-1,-1],"split_conditions":[5.798342E1,-8.8596344E-4,-5.588256E-3,7.8939235E6,-1.0780288E-2,9.222135E1,-2.9164553E-4,9.778661E-3,4.2410344E-3,2.6586044E-3,-1.3311022E-3,-1.1439594E-3,-9.775499E-3,-3.037417E-3,-7.512738E-3],"split_indices":[15,26,27,20,27,15,26,0,0,0,0,0,0,0,0],"split_type":[0,0,0,0,0,0,0,0,0,0,0,0,0,0,0],"sum_hessian":[3.3968332E4,1.8900037E4,1.5068293E4,7.6315547E3,1.1268482E4,8.664809E3,6.403485E3,2.1747727E3,5.4567817E3,6.1975786E3,5.0709043E3,7.8205024E3,8.44306E2,1.5029083E3,4.9005767E3],"tree_param":{"num_deleted":"0","num_feature":"30","num_nodes":"15","size_leaf_vector":"1"}},{"base_weights":[-2.2111705E-3,8.328125E-2,-5.66639E-2,2.1179762E-1,6.27305E-2,-2.9815352E-2,-1.4497328E-1,1.6706545E-2,7.3912875E-3,4.5256508E-3,9.6397195E-4,1.4661105E-3,-2.7730183E-3,-9.829516E-3,-4.8949006E-3],"categories":[],"categories_nodes":[],"categories_segments":[],"categories_sizes":[],"default_left":[0,0,0,0,0,0,0,0,0,0,0,0,0,0,0],"id":10,"left_children":[1,3,5,7,9,11,13,-1,-1,-1,-1,-1,-1,-1,-1],"loss_changes":[1.581828E2,3.4697098E1,4.9106857E1,1.3865471E1,1.4845894E1,2.6161032E1,1.2030617E1,0E0,0E0,0E0,0E0,0E0,0E0,0E0,0E0],"parents":[2147483647,0,0,1,1,2,2,3,3,4,4,5,5,6,6],"right_children":[2,4,6,8,10,12,14,-1,-1,-1,-1,-1,-1,-1,-1],"split_conditions":[-7.6269085E-4,9.012189E0,8.4757225E1,1.8500488E3,1.1190709E1,-6.477237E-4,2.1143489E3,1.6706545E-2,7.3912875E-3,4.5256508E-3,9.6397195E-4,1.4661105E-3,-2.7730183E-3,-9.829516E-3,-4.8949006E-3],"split_indices":[0,15,15,21,19,26,5,0,0,0,0,0,0,0,0],"split_type":[0,0,0,0,0,0,0,0,0,0,0,0,0,0,0],"sum_hessian":[3.3978223E4,1.321572E4,2.0762502E4,1.814512E3,1.1401208E4,1.5929972E4,4.832531E3,5.5528876E2,1.2592231E3,6.647679E3,4.7535293E3,4.976078E3,1.0953894E4,2.0855046E3,2.747026E3],"tree_param":{"num_deleted":"0","num_feature":"30","num_nodes":"15","size_leaf_vector":"1"}},{"base_weights":[3.432382E-3,8.93002E-2,-5.140441E-2,2.3186132E-1,7.022244E-2,-1.4486075E-2,-1.07509285E-1,1.7249456E-2,8.518483E-3,5.0625335E-3,1.5305125E-3,1.0150888E-3,-2.8951794E-3,-6.1919666E-3,7.2887965E-4],"categories":[],"categories_nodes":[],"categories_segments":[],"categories_sizes":[],"default_left":[0,0,0,0,0,0,0,0,0,0,0,0,0,0,0],"id":11,"left_children":[1,3,5,7,9,11,13,-1,-1,-1,-1,-1,-1,-1,-1],"loss_changes":[1.5956882E2,3.568875E1,4.273519E1,1.031971E1,1.5282375E1,1.9987705E1,2.0261559E1,0E0,0E0,0E0,0E0,0E0,0E0,0E0,0E0],"parents":[2147483647,0,0,1,1,2,2,3,3,4,4,5,5,6,6],"right_children":[2,4,6,8,10,12,14,-1,-1,-1,-1,-1,-1,-1,-1],"split_conditions":[-7.6269085E-4,7.9539332E0,7.58592E-1,1.8500835E3,-3.091693E-4,1.0586697E0,7.1434765E-3,1.7249456E-2,8.518483E-3,5.0625335E-3,1.5305125E-3,1.0150888E-3,-2.8951794E-3,-6.1919666E-3,7.2887965E-4],"split_indices":[0,15,1,5,26,3,22,0,0,0,0,0,0,0,0],"split_type":[0,0,0,0,0,0,0,0,0,0,0,0,0,0,0],"sum_hessian":[3.3878035E4,1.3207432E4,2.0670604E4,1.5516638E3,1.1655768E4,1.2475917E4,8.194687E3,4.7807565E2,1.0735881E3,6.183036E3,5.4727314E3,6.9869263E3,5.48899E3,7.0447095E3,1.1499768E3],"tree_param":{"num_deleted":"0","num_feature":"30","num_nodes":"15","size_leaf_vector":"1"}},{"base_weights":[-1.3936176E-4,7.213395E-2,-5.785192E-2,4.9715247E-2,1.517207E-1,8.078769E-3,-9.4117604E-2,3.7240547E-3,6.023406E-4,1.5809411E-2,5.673274E-3,6.582866E-3,-4.326033E-4,-6.9774464E-3,-2.7635016E-3],"categories":[],"categories_nodes":[],"categories_segments":[],"categories_sizes":[],"default_left":[0,0,0,0,0,0,0,0,0,0,0,0,0,0,0],"id":12,"left_children":[1,3,5,7,9,11,13,-1,-1,-1,-1,-1,-1,-1,-1],"loss_changes":[1.4172366E2,2.6757957E1,4.5245083E1,1.181304E1,1.9654655E1,1.46173115E1,2.2369202E1,0E0,0E0,0E0,0E0,0E0,0E0,0E0,0E0],"parents":[2147483647,0,0,1,1,2,2,3,3,4,4,5,5,6,6],"right_children":[2,4,6,8,10,12,14,-1,-1,-1,-1,-1,-1,-1,-1],"split_conditions":[-3.0066806E-4,1.2827718E0,2.9671192E-4,-2.0322062E-3,7.2645445E6,-2.4142861E-3,1.969532E3,3.7240547E-3,6.023406E-4,1.5809411E-2,5.673274E-3,6.582866E-3,-4.326033E-4,-6.9774464E-3,-2.7635016E-3],"split_indices":[0,28,6,0,20,26,2,0,0,0,0,0,0,0,0],"split_type":[0,0,0,0,0,0,0,0,0,0,0,0,0,0,0],"sum_hessian":[3.3975324E4,1.5079373E4,1.8895951E4,1.1774694E4,3.3046787E3,6.699614E3,1.2196339E4,6.8156816E3,4.9590127E3,5.4423535E2,2.7604434E3,7.901814E2,5.909432E3,5.209494E3,6.9868447E3],"tree_param":{"num_deleted":"0","num_feature":"30","num_nodes":"15","size_leaf_vector":"1"}},{"base_weights":[-6.003606E-4,9.846185E-2,-4.2254906E-2,2.505607E-1,8.558797E-2,-1.0261236E-2,-1.0992634E-1,1.4016318E-2,-5.4692253E-3,4.7005783E-3,-0E0,3.3584563E-4,-5.3030187E-3,-8.441356E-3,-3.5249693E-3],"categories":[],"categories_nodes":[],"categories_segments":[],"categories_sizes":[],"default_left":[0,0,0,0,0,0,0,0,0,0,0,0,0,0,0],"id":13,"left_children":[1,3,5,7,9,11,13,-1,-1,-1,-1,-1,-1,-1,-1],"loss_changes":[1.3983784E2,1.9365852E1,5.1593388E1,1.1005638E1,8.994064E0,2.7659311E1,1.8082428E1,0E0,0E0,0E0,0E0,0E0,0E0,0E0,0E0],"parents":[2147483647,0,0,1,1,2,2,3,3,4,4,5,5,6,6],"right_children":[2,4,6,8,10,12,14,-1,-1,-1,-1,-1,-1,-1,-1],"split_conditions":[-1.7337503E-3,3.722168E0,2.1579266E-3,7.2193146E-4,2.456665E-3,-3.3565618E-3,1.93461E3,1.4016318E-2,-5.4692253E-3,4.7005783E-3,-0E0,3.3584563E-4,-5.3030187E-3,-8.441356E-3,-3.5249693E-3],"split_indices":[0,19,6,26,26,27,7,0,0,0,0,0,0,0,0],"split_type":[0,0,0,0,0,0,0,0,0,0,0,0,0,0,0],"sum_hessian":[3.3893023E4,1.0027253E4,2.3865771E4,7.751139E2,9.252139E3,1.6213059E4,7.6527124E3,7.032949E2,7.181899E1,8.1806157E3,1.071523E3,1.3811898E4,2.4011602E3,2.8064705E3,4.846242E3],"tree_param":{"num_deleted":"0","num_feature":"30","num_nodes":"15","size_leaf_vector":"1"}},{"base_weights":[7.5667445E-4,5.6409635E-2,-6.8996064E-2,1.1752189E-1,2.9922666E-2,-5.1411692E-2,-1.5258195E-1,8.460449E-3,3.5705718E-3,1.7871588E-3,-7.008516E-3,-1.5256653E-3,-6.0610296E-3,-8.649046E-3,1.1597894E-3],"categories":[],"categories_nodes":[],"categories_segments":[],"categories_sizes":[],"default_left":[0,0,0,0,0,0,0,0,0,0,0,0,0,0,0],"id":14,"left_children":[1,3,5,7,9,11,13,-1,-1,-1,-1,-1,-1,-1,-1],"loss_changes":[1.3198813E2,3.0516281E1,2.2017632E1,1.4068596E1,1.5847538E1,1.819373E1,1.1949039E1,0E0,0E0,0E0,0E0,0E0,0E0,0E0,0E0],"parents":[2147483647,0,0,1,1,2,2,3,3,4,4,5,5,6,6],"right_children":[2,4,6,8,10,12,14,-1,-1,-1,-1,-1,-1,-1,-1],"split_conditions":[5.798342E1,-1.4813542E-3,9.098248E1,1.0028573E1,2.7060744E-3,-3.5634418E-3,1.9822859E1,8.460449E-3,3.5705718E-3,1.7871588E-3,-7.008516E-3,-1.5256653E-3,-6.0610296E-3,-8.649046E-3,1.1597894E-3],"split_indices":[15,26,15,19,0,27,19,0,0,0,0,0,0,0,0],"split_type":[0,0,0,0,0,0,0,0,0,0,0,0,0,0,0],"sum_hessian":[3.3998E4,1.8915797E4,1.5082204E4,5.7094834E3,1.32063125E4,1.24704375E4,2.6117664E3,2.4799597E3,3.2295237E3,1.2708511E4,4.9780142E2,9.815551E3,2.6548865E3,2.283527E3,3.2823926E2],"tree_param":{"num_deleted":"0","num_feature":"30","num_nodes":"15","size_leaf_vector":"1"}},{"base_weights":[5.559352E-3,1.0119965E-1,-3.4713235E-2,1.4567545E-1,4.113102E-2,1.3805106E-2,-7.0624374E-2,1.1371819E-2,5.3117867E-3,4.9339207E-3,3.070089E-4,3.3823557E-3,-6.1580143E-4,-2.2513259E-3,-5.8552627E-3],"categories":[],"categories_nodes":[],"categories_segments":[],"categories_sizes":[],"default_left":[0,0,0,0,0,0,0,0,0,0,0,0,0,0,0],"id":15,"left_children":[1,3,5,7,9,11,13,-1,-1,-1,-1,-1,-1,-1,-1],"loss_changes":[1.307552E2,2.6739708E1,4.1639946E1,1.824961E1,8.96618E0,1.5071672E1,1.6521332E1,0E0,0E0,0E0,0E0,0E0,0E0,0E0,0E0],"parents":[2147483647,0,0,1,1,2,2,3,3,4,4,5,5,6,6],"right_children":[2,4,6,8,10,12,14,-1,-1,-1,-1,-1,-1,-1,-1],"split_conditions":[-1.7337503E-3,5.6021633E-3,2.9671192E-4,8.2977625E6,7.945963E6,-1.5082955E-3,8.4757225E1,1.1371819E-2,5.3117867E-3,4.9339207E-3,3.070089E-4,3.3823557E-3,-6.1580143E-4,-2.2513259E-3,-5.8552627E-3],"split_indices":[0,16,6,20,20,12,15,0,0,0,0,0,0,0,0],"split_type":[0,0,0,0,0,0,0,0,0,0,0,0,0,0,0],"sum_hessian":[3.393165E4,1.0058189E4,2.387346E4,5.770929E3,4.2872603E3,1.0147056E4,1.3726405E4,1.6642815E3,4.1066475E3,1.5563026E3,2.7309578E3,3.2698442E3,6.8772114E3,9.260363E3,4.466042E3],"tree_param":{"num_deleted":"0","num_feature":"30","num_nodes":"15","size_leaf_vector":"1"}},{"base_weights":[1.1804468E-3,7.59942E-2,-3.728373E-2,1.04464315E-1,2.4337867E-2,1.2567047E-2,-7.1507476E-2,7.707574E-3,3.5008818E-3,-1.6773116E-3,3.09086E-3,2.4694407E-3,-2.0009177E-3,-5.4425336E-3,-1.9720183E-3],"categories":[],"categories_nodes":[],"categories_segments":[],"categories_sizes":[],"default_left":[0,0,0,0,0,0,0,0,0,0,0,0,0,0,0],"id":16,"left_children":[1,3,5,7,9,11,13,-1,-1,-1,-1,-1,-1,-1,-1],"loss_changes":[9.7664345E1,1.686084E1,3.8262646E1,1.2862724E1,9.546013E0,1.8802094E1,1.6567223E1,0E0,0E0,0E0,0E0,0E0,0E0,0E0,0E0],"parents":[2147483647,0,0,1,1,2,2,3,3,4,4,5,5,6,6],"right_children":[2,4,6,8,10,12,14,-1,-1,-1,-1,-1,-1,-1,-1],"split_conditions":[-1.2505065E-3,6.4957906E-3,2.9671192E-4,1.8984277E3,-5.828983E-3,-6.5476475E-3,1.969532E3,7.707574E-3,3.5008818E-3,-1.6773116E-3,3.09086E-3,2.4694407E-3,-2.0009177E-3,-5.4425336E-3,-1.9720183E-3],"split_indices":[0,16,6,2,0,27,2,0,0,0,0,0,0,0,0],"split_type":[0,0,0,0,0,0,0,0,0,0,0,0,0,0,0],"sum_hessian":[3.3925383E4,1.152465E4,2.2400734E4,7.419952E3,4.104698E3,9.111244E3,1.3289489E4,2.7550945E3,4.6648574E3,1.637471E3,2.4672275E3,5.328338E3,3.782907E3,5.723846E3,7.565643E3],"tree_param":{"num_deleted":"0","num_feature":"30","num_nodes":"15","size_leaf_vector":"1"}},{"base_weights":[-1.20931E-3,3.5033517E-2,-7.708689E-2,7.702016E-2,5.0585507E-3,-9.206385E-2,2.8196525E-2,6.91061E-3,2.4213097E-3,4.7237612E-4,-1.0424483E-2,-2.3033356E-3,-6.0157967E-3,2.5040344E-3,-1.258593E-2],"categories":[],"categories_nodes":[],"categories_segments":[],"categories_sizes":[],"default_left":[0,0,0,0,0,0,0,0,0,0,0,0,0,0,0],"id":17,"left_children":[1,3,5,7,9,11,13,-1,-1,-1,-1,-1,-1,-1,-1],"loss_changes":[9.319399E1,2.8792202E1,1.732582E1,1.6772823E1,1.3631761E1,1.3531738E1,9.052811E0,0E0,0E0,0E0,0E0,0E0,0E0,0E0,0E0],"parents":[2147483647,0,0,1,1,2,2,3,3,4,4,5,5,6,6],"right_children":[2,4,6,8,10,12,14,-1,-1,-1,-1,-1,-1,-1,-1],"split_conditions":[6.8499696E-1,-1.4916062E-3,1.95E1,1.7940286E3,8.581807E1,8.026873E-1,2.8025411E-2,6.91061E-3,2.4213097E-3,4.7237612E-4,-1.0424483E-2,-2.3033356E-3,-6.0157967E-3,2.5040344E-3,-1.258593E-2],"split_indices":[1,6,9,13,15,1,0,0,0,0,0,0,0,0,0],"split_type":[0,0,0,0,0,0,0,0,0,0,0,0,0,0,0],"sum_hessian":[3.387374E4,2.2919008E4,1.0954731E4,9.53596E3,1.3383048E4,9.5962295E3,1.358502E3,2.7855093E3,6.75045E3,1.3109501E4,2.735469E2,4.0134988E3,5.582731E3,1.2601501E3,9.835179E1],"tree_param":{"num_deleted":"0","num_feature":"30","num_nodes":"15","size_leaf_vector":"1"}},{"base_weights":[1.8148728E-3,4.6907417E-2,-5.595496E-2,1.07099004E-1,2.3610674E-2,5.084323E-2,-7.0666574E-2,5.37653E-3,-2.4942692E-2,2.7488684E-3,-6.0054124E-4,1.2900151E-3,2.058169E-2,-1.2088077E-3,-4.3656914E-3],"categories":[],"categories_nodes":[],"categories_segments":[],"categories_sizes":[],"default_left":[0,0,0,0,0,0,0,0,0,0,0,0,0,0,0],"id":18,"left_children":[1,3,5,7,9,11,13,-1,-1,-1,-1,-1,-1,-1,-1],"loss_changes":[8.8308136E1,2.661562E1,2.3361973E1,1.2059544E1,1.6369926E1,1.5925083E1,1.1455215E1,0E0,0E0,0E0,0E0,0E0,0E0,0E0,0E0],"parents":[2147483647,0,0,1,1,2,2,3,3,4,4,5,5,6,6],"right_children":[2,4,6,8,10,12,14,-1,-1,-1,-1,-1,-1,-1,-1],"split_conditions":[6.3853967E-4,7.571217E-1,-1.6914606E-3,8.544773E1,-1.7337503E-3,8.095888E1,-5.2628E-3,5.37653E-3,-2.4942692E-2,2.7488684E-3,-6.0054124E-4,1.2900151E-3,2.058169E-2,-1.2088077E-3,-4.3656914E-3],"split_indices":[0,3,6,15,0,15,10,0,0,0,0,0,0,0,0],"split_type":[0,0,0,0,0,0,0,0,0,0,0,0,0,0,0],"sum_hessian":[3.389726E4,1.9044166E4,1.4853093E4,5.3038325E3,1.3740334E4,1.79216E3,1.3060934E4,5.275386E3,2.844627E1,7.1725874E3,6.5677466E3,1.6868151E3,1.0534495E2,3.8867502E3,9.174183E3],"tree_param":{"num_deleted":"0","num_feature":"30","num_nodes":"15","size_leaf_vector":"1"}},{"base_weights":[3.224703E-3,6.718864E-2,-3.7047938E-2,1.0557973E-1,2.3049884E-2,4.010198E-3,-6.3241616E-2,1.039947E-2,3.8919789E-3,2.0344846E-3,-4.5754495E-3,4.360825E-3,-4.350534E-4,-8.674991E-4,-3.9587603E-3],"categories":[],"categories_nodes":[],"categories_segments":[],"categories_sizes":[],"default_left":[0,0,0,0,0,0,0,0,0,0,0,0,0,0,0],"id":19,"left_children":[1,3,5,7,9,11,13,-1,-1,-1,-1,-1,-1,-1,-1],"loss_changes":[8.7189964E1,2.2074162E1,2.2365433E1,1.9041382E1,1.3476469E1,9.054614E0,1.048325E1,0E0,0E0,0E0,0E0,0E0,0E0,0E0,0E0],"parents":[2147483647,0,0,1,1,2,2,3,3,4,4,5,5,6,6],"right_children":[2,4,6,8,10,12,14,-1,-1,-1,-1,-1,-1,-1,-1],"split_conditions":[-9.960532E-4,9.154455E-1,5.921474E-1,7.403316E6,-6.9051273E-3,6.648158E-1,-2.9164553E-4,1.039947E-2,3.8919789E-3,2.0344846E-3,-4.5754495E-3,4.360825E-3,-4.350534E-4,-8.674991E-4,-3.9587603E-3],"split_indices":[12,3,1,20,27,3,26,0,0,0,0,0,0,0,0],"split_type":[0,0,0,0,0,0,0,0,0,0,0,0,0,0,0],"sum_hessian":[3.3834734E4,1.3078091E4,2.0756645E4,6.9846704E3,6.0934204E3,8.0753286E3,1.2681315E4,1.3133358E3,5.6713345E3,5.255171E3,8.382495E2,1.0651132E3,7.0102153E3,3.6626396E3,9.018676E3],"tree_param":{"num_deleted":"0","num_feature":"30","num_nodes":"15","size_leaf_vector":"1"}},{"base_weights":[5.317104E-3,4.5424543E-2,-5.4141868E-2,8.79142E-2,2.4283793E-2,1.0491415E-2,-7.6396465E-2,5.842316E-3,-2.3419136E-6,1.6287483E-3,-2.6163089E-3,6.2906262E-3,-1.9854382E-3,-5.4968954E-3,-2.2303725E-3],"categories":[],"categories_nodes":[],"categories_segments":[],"categories_sizes":[],"default_left":[0,0,0,0,0,0,0,0,0,0,0,0,0,0,0],"id":20,"left_children":[1,3,5,7,9,11,13,-1,-1,-1,-1,-1,-1,-1,-1],"loss_changes":[8.088404E1,1.81217E1,1.9689651E1,1.9283623E1,9.821122E0,2.1461746E1,1.1294243E1,0E0,0E0,0E0,0E0,0E0,0E0,0E0,0E0],"parents":[2147483647,0,0,1,1,2,2,3,3,4,4,5,5,6,6],"right_children":[2,4,6,8,10,12,14,-1,-1,-1,-1,-1,-1,-1,-1],"split_conditions":[9.4007014E-4,-3.3031106E-3,4.4703484E-5,3.2281876E-4,1.0709132E7,-1.05077885E-2,2.08799E3,5.842316E-3,-2.3419136E-6,1.6287483E-3,-2.6163089E-3,6.2906262E-3,-1.9854382E-3,-5.4968954E-3,-2.2303725E-3],"split_indices":[0,12,6,26,17,27,25,0,0,0,0,0,0,0,0],"split_type":[0,0,0,0,0,0,0,0,0,0,0,0,0,0,0],"sum_hessian":[3.391494E4,2.0260287E4,1.3654653E4,6.718461E3,1.3541826E4,3.4900405E3,1.0164612E4,4.911407E3,1.8070541E3,1.211389E4,1.4279368E3,1.0547781E3,2.4352625E3,4.582606E3,5.582007E3],"tree_param":{"num_deleted":"0","num_feature":"30","num_nodes":"15","size_leaf_vector":"1"}},{"base_weights":[-7.6814694E-4,5.982603E-2,-3.7260886E-2,1.2528937E-2,7.927534E-2,-1.2835344E-2,-7.8396305E-2,1.1696414E-3,-1.2427567E-2,5.462633E-3,2.0687792E-3,1.3077513E-3,-2.378321E-3,-4.1895392E-3,5.3103045E-3],"categories":[],"categories_nodes":[],"categories_segments":[],"categories_sizes":[],"default_left":[0,0,0,0,0,0,0,0,0,0,0,0,0,0,0],"id":21,"left_children":[1,3,5,7,9,11,13,-1,-1,-1,-1,-1,-1,-1,-1],"loss_changes":[7.498079E1,1.1657368E1,2.121208E1,1.1444243E1,1.0889023E1,1.9158388E1,1.1758076E1,0E0,0E0,0E0,0E0,0E0,0E0,0E0,0E0],"parents":[2147483647,0,0,1,1,2,2,3,3,4,4,5,5,6,6],"right_children":[2,4,6,8,10,12,14,-1,-1,-1,-1,-1,-1,-1,-1],"split_conditions":[-1.1177063E-3,7.357512E-1,2.1579266E-3,4.0381367E3,-5.18441E4,2.8384128E-1,4.11094E7,1.1696414E-3,-1.2427567E-2,5.462633E-3,2.0687792E-3,1.3077513E-3,-2.378321E-3,-4.1895392E-3,5.3103045E-3],"split_indices":[12,28,6,29,23,14,17,0,0,0,0,0,0,0,0],"split_type":[0,0,0,0,0,0,0,0,0,0,0,0,0,0,0],"sum_hessian":[3.3910918E4,1.2738937E4,2.1171982E4,3.7230745E3,9.015862E3,1.3296143E4,7.8758403E3,3.5736812E3,1.4939319E2,4.7114365E3,4.3044263E3,6.323808E3,6.9723345E3,7.560957E3,3.1488318E2],"tree_param":{"num_deleted":"0","num_feature":"30","num_nodes":"15","size_leaf_vector":"1"}},{"base_weights":[-5.3749215E-3,2.6967937E-2,-6.527966E-2,1.1677117E-1,1.312544E-2,-7.891969E-2,3.295972E-2,1.15954885E-2,4.000845E-3,1.0589532E-3,-4.4880915E-3,2.7635538E-3,-4.1905018E-3,4.4826646E-3,-4.0967846E-3],"categories":[],"categories_nodes":[],"categories_segments":[],"categories_sizes":[],"default_left":[0,0,0,0,0,0,0,0,0,0,0,0,0,0,0],"id":22,"left_children":[1,3,5,7,9,11,13,-1,-1,-1,-1,-1,-1,-1,-1],"loss_changes":[6.566531E1,2.7250536E1,1.5962807E1,1.2031269E1,1.7470821E1,1.0584541E1,1.010036E1,0E0,0E0,0E0,0E0,0E0,0E0,0E0,0E0],"parents":[2147483647,0,0,1,1,2,2,3,3,4,4,5,5,6,6],"right_children":[2,4,6,8,10,12,14,-1,-1,-1,-1,-1,-1,-1,-1],"split_conditions":[6.599117E-1,1.2900595E1,6.871446E-3,4.327846E0,4.238248E-3,6.7106256E-4,9.062125E1,1.15954885E-2,4.000845E-3,1.0589532E-3,-4.4880915E-3,2.7635538E-3,-4.1905018E-3,4.4826646E-3,-4.0967846E-3],"split_indices":[1,15,22,19,6,0,15,0,0,0,0,0,0,0,0],"split_type":[0,0,0,0,0,0,0,0,0,0,0,0,0,0,0],"sum_hessian":[3.3874375E4,2.199134E4,1.1883034E4,2.9283562E3,1.9062982E4,1.0440624E4,1.4424104E3,6.348931E2,2.2934631E3,1.762011E4,1.4428738E3,5.364441E2,9.90418E3,9.617441E2,4.8066632E2],"tree_param":{"num_deleted":"0","num_feature":"30","num_nodes":"15","size_leaf_vector":"1"}},{"base_weights":[5.6445604E-4,5.6715656E-2,-2.8316423E-2,1.3618587E-1,3.415858E-2,1.7581426E-2,-5.3387497E-2,9.903755E-3,9.073357E-4,1.2028834E-3,9.681136E-3,1.411587E-3,-3.6435416E-3,-4.8020864E-3,-1.8736384E-3],"categories":[],"categories_nodes":[],"categories_segments":[],"categories_sizes":[],"default_left":[0,0,0,0,0,0,0,0,0,0,0,0,0,0,0],"id":23,"left_children":[1,3,5,7,9,11,13,-1,-1,-1,-1,-1,-1,-1,-1],"loss_changes":[5.503317E1,2.054486E1,2.5794916E1,2.0123608E1,1.3768148E1,8.403279E0,9.658974E0,0E0,0E0,0E0,0E0,0E0,0E0,0E0,0E0],"parents":[2147483647,0,0,1,1,2,2,3,3,4,4,5,5,6,6],"right_children":[2,4,6,8,10,12,14,-1,-1,-1,-1,-1,-1,-1,-1],"split_conditions":[-1.5082955E-3,1.6470558E3,2.8546443E-4,-7.003546E-5,1.3992486E7,1.3347454E-2,9.198189E-4,9.903755E-3,9.073357E-4,1.2028834E-3,9.681136E-3,1.411587E-3,-3.6435416E-3,-4.8020864E-3,-1.8736384E-3],"split_indices":[12,13,0,26,20,16,12,0,0,0,0,0,0,0,0],"split_type":[0,0,0,0,0,0,0,0,0,0,0,0,0,0,0],"sum_hessian":[3.3919305E4,1.1527633E4,2.2391672E4,2.5395295E3,8.988103E3,7.901159E3,1.4490514E4,1.604647E3,9.348826E2,8.512432E3,4.7567157E2,7.0360986E3,8.650606E2,3.5335557E3,1.0956958E4],"tree_param":{"num_deleted":"0","num_feature":"30","num_nodes":"15","size_leaf_vector":"1"}},{"base_weights":[-2.0812838E-3,6.042858E-2,-2.5734374E-2,1.6909954E-1,3.7113227E-2,4.067725E-3,-5.8278136E-2,-2.1218795E-2,8.712301E-3,1.4193864E-3,1.2541779E-2,6.020981E-3,-4.0635618E-4,6.2792767E-3,-3.0883264E-3],"categories":[],"categories_nodes":[],"categories_segments":[],"categories_sizes":[],"default_left":[0,0,0,0,0,0,0,0,0,0,0,0,0,0,0],"id":24,"left_children":[1,3,5,7,9,11,13,-1,-1,-1,-1,-1,-1,-1,-1],"loss_changes":[5.0215336E1,2.3462189E1,2.3951794E1,1.0400806E1,1.3160005E1,1.9285648E1,1.1856682E1,0E0,0E0,0E0,0E0,0E0,0E0,0E0,0E0],"parents":[2147483647,0,0,1,1,2,2,3,3,4,4,5,5,6,6],"right_children":[2,4,6,8,10,12,14,-1,-1,-1,-1,-1,-1,-1,-1],"split_conditions":[-2.0322062E-3,1.9006087E-3,1.0621794E0,-2.8516542E-2,4.532088E0,-3.3943057E-3,5.337392E-4,-2.1218795E-2,8.712301E-3,1.4193864E-3,1.2541779E-2,6.020981E-3,-4.0635618E-4,6.2792767E-3,-3.0883264E-3],"split_indices":[0,24,3,27,14,6,22,0,0,0,0,0,0,0,0],"split_type":[0,0,0,0,0,0,0,0,0,0,0,0,0,0,0],"sum_hessian":[3.3973332E4,9.317517E3,2.4655814E4,1.638337E3,7.6791797E3,1.2860441E4,1.1795373E4,2.5051216E1,1.6132858E3,7.4212E3,2.5797958E2,1.2110784E3,1.1649362E4,3.229273E2,1.1472446E4],"tree_param":{"num_deleted":"0","num_feature":"30","num_nodes":"15","size_leaf_vector":"1"}},{"base_weights":[-4.6738046E-3,2.8826183E-2,-5.5528324E-2,7.9772286E-2,1.04287155E-2,-2.2329947E-3,-7.669311E-2,4.7473353E-3,1.7469576E-5,5.7138386E-4,-3.1840008E-2,2.454862E-3,-3.0482293E-3,-4.555811E-4,-4.5904187E-3],"categories":[],"categories_nodes":[],"categories_segments":[],"categories_sizes":[],"default_left":[0,0,0,0,0,0,0,0,0,0,0,0,0,0,0],"id":25,"left_children":[1,3,5,7,9,11,13,-1,-1,-1,-1,-1,-1,-1,-1],"loss_changes":[5.7821407E1,1.9103178E1,1.51551895E1,7.7010117E0,1.308301E1,1.2315998E1,1.1547947E1,0E0,0E0,0E0,0E0,0E0,0E0,0E0,0E0],"parents":[2147483647,0,0,1,1,2,2,3,3,4,4,5,5,6,6],"right_children":[2,4,6,8,10,12,14,-1,-1,-1,-1,-1,-1,-1,-1],"split_conditions":[6.152106E-1,1.6683461E-1,-9.678844E-3,2.1889893E1,9.349271E1,2.1579266E-3,-6.686449E-4,4.7473353E-3,1.7469576E-5,5.7138386E-4,-3.1840008E-2,2.454862E-3,-3.0482293E-3,-4.555811E-4,-4.5904187E-3],"split_indices":[1,1,27,9,15,6,26,0,0,0,0,0,0,0,0],"split_type":[0,0,0,0,0,0,0,0,0,0,0,0,0,0,0],"sum_hessian":[3.3925285E4,2.044516E4,1.3480126E4,5.412649E3,1.5032511E4,3.8412827E3,9.638843E3,4.402502E3,1.01014716E3,1.5005485E4,2.7025442E1,2.0464487E3,1.7948339E3,2.034021E3,7.6048223E3],"tree_param":{"num_deleted":"0","num_feature":"30","num_nodes":"15","size_leaf_vector":"1"}},{"base_weights":[-4.7099176E-3,4.8048202E-2,-3.1982735E-2,1.072126E-1,2.225992E-2,3.20369E-3,-5.776892E-2,7.093309E-3,-4.4127755E-4,-1.8375097E-2,1.2821335E-3,8.872662E-4,-3.7278782E-3,-3.4103825E-4,-4.0001175E-3],"categories":[],"categories_nodes":[],"categories_segments":[],"categories_sizes":[],"default_left":[0,0,0,0,0,0,0,0,0,0,0,0,0,0,0],"id":26,"left_children":[1,3,5,7,9,11,13,-1,-1,-1,-1,-1,-1,-1,-1],"loss_changes":[4.8834446E1,1.754644E1,2.0348612E1,1.5959629E1,1.3242511E1,1.1380397E1,1.6121643E1,0E0,0E0,0E0,0E0,0E0,0E0,0E0,0E0],"parents":[2147483647,0,0,1,1,2,2,3,3,4,4,5,5,6,6],"right_children":[2,4,6,8,10,12,14,-1,-1,-1,-1,-1,-1,-1,-1],"split_conditions":[-1.5082955E-3,8.067043E6,1.7023822E-2,7.840395E-4,1.49895E3,1.0709132E7,-4.0090084E-4,7.093309E-3,-4.4127755E-4,-1.8375097E-2,1.2821335E-3,8.872662E-4,-3.7278782E-3,-3.4103825E-4,-4.0001175E-3],"split_indices":[12,20,14,26,25,17,26,0,0,0,0,0,0,0,0],"split_type":[0,0,0,0,0,0,0,0,0,0,0,0,0,0,0],"sum_hessian":[3.3942215E4,1.1557876E4,2.238434E4,3.4984692E3,8.0594067E3,9.456628E3,1.2927712E4,2.624351E3,8.741181E2,7.901737E1,7.980389E3,7.9656157E3,1.4910128E3,4.2384214E3,8.689291E3],"tree_param":{"num_deleted":"0","num_feature":"30","num_nodes":"15","size_leaf_vector":"1"}},{"base_weights":[9.294883E-4,6.4709306E-2,-2.1298623E-2,1.21152684E-1,4.1330393E-2,-1.3196781E-2,-1.064117E-1,7.3901485E-3,-6.9997174E-4,2.8652526E-3,-2.7231066E-3,-7.743855E-4,9.734459E-3,-6.371433E-3,3.074784E-3],"categories":[],"categories_nodes":[],"categories_segments":[],"categories_sizes":[],"default_left":[0,0,0,0,0,0,0,0,0,0,0,0,0,0,0],"id":27,"left_children":[1,3,5,7,9,11,13,-1,-1,-1,-1,-1,-1,-1,-1],"loss_changes":[4.8150845E1,1.1466671E1,1.7269379E1,1.0914501E1,1.0748859E1,1.3457323E1,9.275234E0,0E0,0E0,0E0,0E0,0E0,0E0,0E0,0E0],"parents":[2147483647,0,0,1,1,2,2,3,3,4,4,5,5,6,6],"right_children":[2,4,6,8,10,12,14,-1,-1,-1,-1,-1,-1,-1,-1],"split_conditions":[3.0056028E1,1.789377E3,9.222135E1,5.246401E-4,6.302793E-3,4.4148548E7,1.9822859E1,7.3901485E-3,-6.9997174E-4,2.8652526E-3,-2.7231066E-3,-7.743855E-4,9.734459E-3,-6.371433E-3,3.074784E-3],"split_indices":[15,5,15,26,22,17,19,0,0,0,0,0,0,0,0],"split_type":[0,0,0,0,0,0,0,0,0,0,0,0,0,0,0],"sum_hessian":[3.3939023E4,8.777858E3,2.5161162E4,2.5597532E3,6.2181055E3,2.298384E4,2.177324E3,2.085347E3,4.7440634E2,5.2680737E3,9.5003217E2,2.2695934E4,2.8790482E2,1.9027993E3,2.745248E2],"tree_param":{"num_deleted":"0","num_feature":"30","num_nodes":"15","size_leaf_vector":"1"}},{"base_weights":[1.6145384E-3,2.2987965E-2,-5.991137E-2,5.478671E-2,-1.1362393E-2,2.1824986E-2,-8.12739E-2,4.111451E-3,1.1975579E-3,4.5308634E-3,-1.1063998E-3,9.153999E-5,1.6157823E-2,-1.0786722E-3,-5.301161E-3],"categories":[],"categories_nodes":[],"categories_segments":[],"categories_sizes":[],"default_left":[0,0,0,0,0,0,0,0,0,0,0,0,0,0,0],"id":28,"left_children":[1,3,5,7,9,11,13,-1,-1,-1,-1,-1,-1,-1,-1],"loss_changes":[4.4559044E1,2.7523571E1,1.5292416E1,1.1714626E1,1.4443379E1,1.0973921E1,1.1353474E1,0E0,0E0,0E0,0E0,0E0,0E0,0E0,0E0],"parents":[2147483647,0,0,1,1,2,2,3,3,4,4,5,5,6,6],"right_children":[2,4,6,8,10,12,14,-1,-1,-1,-1,-1,-1,-1,-1],"split_conditions":[2.1579266E-3,-1.0419339E-2,9.2467284E-1,1.0477147E1,1.3716179E-3,9.1237926E-1,-6.14027E4,4.111451E-3,1.1975579E-3,4.5308634E-3,-1.1063998E-3,9.153999E-5,1.6157823E-2,-1.0786722E-3,-5.301161E-3],"split_indices":[6,27,3,19,16,3,23,0,0,0,0,0,0,0,0],"split_type":[0,0,0,0,0,0,0,0,0,0,0,0,0,0,0],"sum_hessian":[3.389858E4,2.5167809E4,8.730772E3,1.307863E4,1.2089178E4,1.8026029E3,6.9281694E3,6.5441885E3,6.5344414E3,1.1829329E3,1.0906245E4,1.6982546E3,1.0434828E2,2.2360745E3,4.6920947E3],"tree_param":{"num_deleted":"0","num_feature":"30","num_nodes":"15","size_leaf_vector":"1"}},{"base_weights":[-5.8064647E-3,3.8460508E-2,-2.8663239E-2,6.282138E-2,-2.5592647E-2,3.2652577E-3,-5.3813107E-2,6.6364435E-3,1.797208E-3,-8.536026E-5,-1.00053735E-2,1.4594379E-3,-1.8554134E-3,-3.0066946E-3,4.9094833E-3],"categories":[],"categories_nodes":[],"categories_segments":[],"categories_sizes":[],"default_left":[0,0,0,0,0,0,0,0,0,0,0,0,0,0,0],"id":29,"left_children":[1,3,5,7,9,11,13,-1,-1,-1,-1,-1,-1,-1,-1],"loss_changes":[3.426731E1,1.801187E1,1.798012E1,1.5807232E1,1.3504062E1,1.0943808E1,1.5792095E1,0E0,0E0,0E0,0E0,0E0,0E0,0E0,0E0],"parents":[2147483647,0,0,1,1,2,2,3,3,4,4,5,5,6,6],"right_children":[2,4,6,8,10,12,14,-1,-1,-1,-1,-1,-1,-1,-1],"split_conditions":[-1.5082955E-3,1.0586697E0,1.5418006E-1,7.6840215E6,7.4322843E-3,5.383634E6,2.8596702E7,6.6364435E-3,1.797208E-3,-8.536026E-5,-1.00053735E-2,1.4594379E-3,-1.8554134E-3,-3.0066946E-3,4.9094833E-3],"split_indices":[12,3,14,20,22,17,17,0,0,0,0,0,0,0,0],"split_type":[0,0,0,0,0,0,0,0,0,0,0,0,0,0,0],"sum_hessian":[3.3869234E4,1.1522615E4,2.2346617E4,8.355311E3,3.167305E3,9.835627E3,1.251099E4,2.1510457E3,6.204265E3,2.8033684E3,3.6393652E2,5.9855127E3,3.8501145E3,1.1891463E4,6.195275E2],"tree_param":{"num_deleted":"0","num_feature":"30","num_nodes":"15","size_leaf_vector":"1"}},{"base_weights":[-5.3644525E-3,1.7371058E-2,-4.7588807E-2,6.8522215E-2,2.7499634E-3,-6.649174E-2,1.6597645E-2,6.8860766E-3,2.328665E-3,2.8190913E-4,-9.537427E-3,-9.590175E-4,-4.80716E-3,9.750942E-3,-6.600262E-4],"categories":[],"categories_nodes":[],"categories_segments":[],"categories_sizes":[],"default_left":[0,0,0,0,0,0,0,0,0,0,0,0,0,0,0],"id":30,"left_children":[1,3,5,7,9,11,13,-1,-1,-1,-1,-1,-1,-1,-1],"loss_changes":[3.2516205E1,1.6400635E1,1.4422617E1,7.2097626E0,1.0313202E1,1.3872002E1,1.5114848E1,0E0,0E0,0E0,0E0,0E0,0E0,0E0,0E0],"parents":[2147483647,0,0,1,1,2,2,3,3,4,4,5,5,6,6],"right_children":[2,4,6,8,10,12,14,-1,-1,-1,-1,-1,-1,-1,-1],"split_conditions":[6.599117E-1,7.2226363E-1,-3.597801E4,1.64053E3,1.0406971E-2,-6.4540117E4,-1.3819337E-3,6.8860766E-3,2.328665E-3,2.8190913E-4,-9.537427E-3,-9.590175E-4,-4.80716E-3,9.750942E-3,-6.600262E-4],"split_indices":[1,3,23,7,6,23,6,0,0,0,0,0,0,0,0],"split_type":[0,0,0,0,0,0,0,0,0,0,0,0,0,0,0],"sum_hessian":[3.3846094E4,2.199086E4,1.1855232E4,4.876541E3,1.7114318E4,9.166079E3,2.6891533E3,1.05607E3,3.8204712E3,1.6861059E4,2.5326062E2,3.77493E3,5.391149E3,3.7976276E2,2.3093904E3],"tree_param":{"num_deleted":"0","num_feature":"30","num_nodes":"15","size_leaf_vector":"1"}},{"base_weights":[9.225559E-4,2.1155866E-2,-4.342037E-2,3.6405075E-2,-3.1946268E-2,1.6201042E-2,-6.8107404E-2,6.7750495E-3,1.4711078E-3,-4.056336E-3,1.0465268E-3,1.288378E-3,-1.1735779E-2,-4.1873427E-3,1.6907101E-3],"categories":[],"categories_nodes":[],"categories_segments":[],"categories_sizes":[],"default_left":[0,0,0,0,0,0,0,0,0,0,0,0,0,0,0],"id":31,"left_children":[1,3,5,7,9,11,13,-1,-1,-1,-1,-1,-1,-1,-1],"loss_changes":[3.0383005E1,1.88531E1,1.5646782E1,1.1247704E1,1.4373309E1,8.149884E0,1.409763E1,0E0,0E0,0E0,0E0,0E0,0E0,0E0,0E0],"parents":[2147483647,0,0,1,1,2,2,3,3,4,4,5,5,6,6],"right_children":[2,4,6,8,10,12,14,-1,-1,-1,-1,-1,-1,-1,-1],"split_conditions":[-6.6189286E-3,2.1579266E-3,-3.4540892E-4,5.6735387E0,9.170561E6,4.02909E3,-3.616034E4,6.7750495E-3,1.4711078E-3,-4.056336E-3,1.0465268E-3,1.288378E-3,-1.1735779E-2,-4.1873427E-3,1.6907101E-3],"split_indices":[27,6,26,15,20,7,23,0,0,0,0,0,0,0,0],"split_type":[0,0,0,0,0,0,0,0,0,0,0,0,0,0,0],"sum_hessian":[3.3875863E4,2.3272846E4,1.0603017E4,1.8090947E4,5.181898E3,3.0971138E3,7.505903E3,9.9881396E2,1.7092133E4,2.642587E3,2.5393113E3,2.982167E3,1.1494681E2,6.3848955E3,1.1210072E3],"tree_param":{"num_deleted":"0","num_feature":"30","num_nodes":"15","size_leaf_vector":"1"}},{"base_weights":[8.878831E-4,3.0510103E-2,-3.3292364E-2,5.0047524E-2,-3.6044136E-2,-3.0666515E-2,-3.4852946E-1,5.955466E-3,1.8167807E-3,-2.1853526E-3,7.1127545E-3,7.7368016E-4,-2.2577085E-3,2.5980279E-2,-1.9616406E-2],"categories":[],"categories_nodes":[],"categories_segments":[],"categories_sizes":[],"default_left":[0,0,0,0,0,0,0,0,0,0,0,0,0,0,0],"id":32,"left_children":[1,3,5,7,9,11,13,-1,-1,-1,-1,-1,-1,-1,-1],"loss_changes":[3.4199787E1,2.3557673E1,1.2696764E1,1.2717499E1,6.684846E0,1.1515881E1,6.6798697E0,0E0,0E0,0E0,0E0,0E0,0E0,0E0,0E0],"parents":[2147483647,0,0,1,1,2,2,3,3,4,4,5,5,6,6],"right_children":[2,4,6,8,10,12,14,-1,-1,-1,-1,-1,-1,-1,-1],"split_conditions":[2.9671192E-4,-6.6189286E-3,2.9006861E-2,7.129422E6,2.2869578E-2,-2.9164553E-4,7.651525E1,5.955466E-3,1.8167807E-3,-2.1853526E-3,7.1127545E-3,7.7368016E-4,-2.2577085E-3,2.5980279E-2,-1.9616406E-2],"split_indices":[6,27,8,20,16,26,15,0,0,0,0,0,0,0,0],"split_type":[0,0,0,0,0,0,0,0,0,0,0,0,0,0,0],"sum_hessian":[3.3774902E4,1.8104426E4,1.5670478E4,1.4004012E4,4.100414E3,1.55456455E4,1.2483226E2,2.0592683E3,1.1944744E4,3.913139E3,1.8727493E2,3.936132E3,1.1609513E4,5.5085936E0,1.1932367E2],"tree_param":{"num_deleted":"0","num_feature":"30","num_nodes":"15","size_leaf_vector":"1"}},{"base_weights":[-3.144319E-3,7.879788E-3,-7.069503E-2,4.3464966E-2,-7.3580244E-3,-9.0019226E-2,3.8151845E-2,5.867537E-3,1.1007934E-3,-1.2816742E-4,-6.694862E-3,-4.70395E-3,3.7574763E-3,2.885106E-3,-2.1329146E-2],"categories":[],"categories_nodes":[],"categories_segments":[],"categories_sizes":[],"default_left":[0,0,0,0,0,0,0,0,0,0,0,0,0,0,0],"id":33,"left_children":[1,3,5,7,9,11,13,-1,-1,-1,-1,-1,-1,-1,-1],"loss_changes":[2.5261524E1,1.5807722E1,1.0054337E1,1.3965469E1,1.2454198E1,4.720932E0,7.0758905E0,0E0,0E0,0E0,0E0,0E0,0E0,0E0,0E0],"parents":[2147483647,0,0,1,1,2,2,3,3,4,4,5,5,6,6],"right_children":[2,4,6,8,10,12,14,-1,-1,-1,-1,-1,-1,-1,-1],"split_conditions":[-3.5634418E-3,-1.1833906E-3,3.546238E-3,1.6361497E3,9.438942E1,1.2751222E-2,3.2085538E-2,5.867537E-3,1.1007934E-3,-1.2816742E-4,-6.694862E-3,-4.70395E-3,3.7574763E-3,2.885106E-3,-2.1329146E-2],"split_indices":[27,26,26,13,15,12,12,0,0,0,0,0,0,0,0],"split_type":[0,0,0,0,0,0,0,0,0,0,0,0,0,0,0],"sum_hessian":[3.38623E4,2.910471E4,4.75759E3,8.737982E3,2.0366729E4,4.0458154E3,7.1177423E2,1.839279E3,6.8987036E3,1.9664047E4,7.0268085E2,3.8900178E3,1.5579768E2,6.846669E2,2.7107367E1],"tree_param":{"num_deleted":"0","num_feature":"30","num_nodes":"15","size_leaf_vector":"1"}},{"base_weights":[3.7454423E-3,2.8161975E-2,-3.250986E-2,7.504324E-2,1.1285802E-2,-7.2966167E-3,-7.342916E-2,1.7233545E-2,2.9756525E-3,8.53407E-4,-7.128504E-3,2.343512E-3,-1.610269E-3,2.285411E-2,-3.7929958E-3],"categories":[],"categories_nodes":[],"categories_segments":[],"categories_sizes":[],"default_left":[0,0,0,0,0,0,0,0,0,0,0,0,0,0,0],"id":34,"left_children":[1,3,5,7,9,11,13,-1,-1,-1,-1,-1,-1,-1,-1],"loss_changes":[3.0000042E1,1.597303E1,1.4006173E1,2.0245964E1,1.4785403E1,1.2147848E1,1.3197111E1,0E0,0E0,0E0,0E0,0E0,0E0,0E0,0E0],"parents":[2147483647,0,0,1,1,2,2,3,3,4,4,5,5,6,6],"right_children":[2,4,6,8,10,12,14,-1,-1,-1,-1,-1,-1,-1,-1],"split_conditions":[4.503727E-4,-3.3839345E-3,1.2937189E0,3.722168E0,4E3,-6.14027E4,2.1189745E6,1.7233545E-2,2.9756525E-3,8.53407E-4,-7.128504E-3,2.343512E-3,-1.610269E-3,2.285411E-2,-3.7929958E-3],"split_indices":[26,12,3,19,7,23,20,0,0,0,0,0,0,0,0],"split_type":[0,0,0,0,0,0,0,0,0,0,0,0,0,0,0],"sum_hessian":[3.3888117E4,2.0261572E4,1.3626546E4,5.350568E3,1.4911005E4,8.443117E3,5.1834287E3,2.4489983E2,5.105668E3,1.4345834E4,5.6517126E2,2.6737703E3,5.769347E3,4.152536E1,5.1419033E3],"tree_param":{"num_deleted":"0","num_feature":"30","num_nodes":"15","size_leaf_vector":"1"}},{"base_weights":[-1.9009729E-4,2.4950756E-2,-2.9227324E-2,4.068024E-2,-1.9028632E-2,1.5638564E-2,-4.5819044E-2,3.881317E-3,8.9391484E-4,-6.9609197E-4,-2.0316653E-2,5.3182114E-3,-1.1444341E-3,6.1588123E-4,-3.119035E-3],"categories":[],"categories_nodes":[],"categories_segments":[],"categories_sizes":[],"default_left":[0,0,0,0,0,0,0,0,0,0,0,0,0,0,0],"id":35,"left_children":[1,3,5,7,9,11,13,-1,-1,-1,-1,-1,-1,-1,-1],"loss_changes":[2.4686762E1,1.25441475E1,1.171083E1,1.161182E1,8.610845E0,1.565283E1,1.242882E1,0E0,0E0,0E0,0E0,0E0,0E0,0E0,0E0],"parents":[2147483647,0,0,1,1,2,2,3,3,4,4,5,5,6,6],"right_children":[2,4,6,8,10,12,14,-1,-1,-1,-1,-1,-1,-1,-1],"split_conditions":[2.9671192E-4,-7.2564287E-3,-1.60155E-2,8.3194735E6,9.2393404E-1,5.283356E6,-2.9164553E-4,3.881317E-3,8.9391484E-4,-6.9609197E-4,-2.0316653E-2,5.3182114E-3,-1.1444341E-3,6.1588123E-4,-3.119035E-3],"split_indices":[6,27,27,20,1,17,26,0,0,0,0,0,0,0,0],"split_type":[0,0,0,0,0,0,0,0,0,0,0,0,0,0,0],"sum_hessian":[3.380799E4,1.8107615E4,1.5700374E4,1.3348661E4,4.758955E3,4.227865E3,1.1472509E4,4.813236E3,8.535425E3,4.7078545E3,5.1100487E1,1.2488925E3,2.9789727E3,2.7427566E3,8.729753E3],"tree_param":{"num_deleted":"0","num_feature":"30","num_nodes":"15","size_leaf_vector":"1"}},{"base_weights":[1.5820862E-3,2.1031292E-2,-4.1307155E-2,3.2500006E-2,-5.0050948E-2,1.3891058E-2,-5.526372E-2,1.7822788E-3,-3.9229644E-3,7.3165637E-3,-3.3807657E-3,1.0904251E-3,-1.8659962E-2,-4.724203E-3,-9.920924E-4],"categories":[],"categories_nodes":[],"categories_segments":[],"categories_sizes":[],"default_left":[0,0,0,0,0,0,0,0,0,0,0,0,0,0,0],"id":36,"left_children":[1,3,5,7,9,11,13,-1,-1,-1,-1,-1,-1,-1,-1],"loss_changes":[2.8272774E1,1.901995E1,8.171389E0,9.615929E0,1.27194195E1,7.0453424E0,1.2295752E1,0E0,0E0,0E0,0E0,0E0,0E0,0E0,0E0],"parents":[2147483647,0,0,1,1,2,2,3,3,4,4,5,5,6,6],"right_children":[2,4,6,8,10,12,14,-1,-1,-1,-1,-1,-1,-1,-1],"split_conditions":[-6.6189286E-3,2.3977757E-3,3.1812552E-3,4.056E3,1.19627E3,-7.542047E-4,2.160634E3,1.7822788E-3,-3.9229644E-3,7.3165637E-3,-3.3807657E-3,1.0904251E-3,-1.8659962E-2,-4.724203E-3,-9.920924E-4],"split_indices":[27,26,16,7,25,27,18,0,0,0,0,0,0,0,0],"split_type":[0,0,0,0,0,0,0,0,0,0,0,0,0,0,0],"sum_hessian":[3.3905023E4,2.3338336E4,1.0566689E4,2.0105096E4,3.2332395E3,2.1229321E3,8.443757E3,1.9389086E4,7.1601056E2,2.833564E2,2.949883E3,2.0819587E3,4.0973473E1,3.8120857E3,4.6316714E3],"tree_param":{"num_deleted":"0","num_feature":"30","num_nodes":"15","size_leaf_vector":"1"}},{"base_weights":[-1.4545764E-3,2.3294237E-2,-2.6223086E-2,3.1465854E-2,-6.749743E-2,2.6485046E-2,-5.2359115E-2,5.064641E-3,1.1548784E-3,8.1987074E-4,-7.2404845E-3,1.0159743E-2,8.246045E-4,-2.8584467E-3,4.16588E-3],"categories":[],"categories_nodes":[],"categories_segments":[],"categories_sizes":[],"default_left":[0,0,0,0,0,0,0,0,0,0,0,0,0,0,0],"id":37,"left_children":[1,3,5,7,9,11,13,-1,-1,-1,-1,-1,-1,-1,-1],"loss_changes":[2.0742264E1,1.2527318E1,2.3334484E1,8.584902E0,9.681961E0,9.568035E0,1.0240454E1,0E0,0E0,0E0,0E0,0E0,0E0,0E0,0E0],"parents":[2147483647,0,0,1,1,2,2,3,3,4,4,5,5,6,6],"right_children":[2,4,6,8,10,12,14,-1,-1,-1,-1,-1,-1,-1,-1],"split_conditions":[-1.05077885E-2,5.964756E-3,-4.0090084E-4,2.3819888E6,2.579093E-3,6.151794E-4,2.6558854E7,5.064641E-3,1.1548784E-3,8.1987074E-4,-7.2404845E-3,1.0159743E-2,8.246045E-4,-2.8584467E-3,4.16588E-3],"split_indices":[27,6,26,17,26,16,17,0,0,0,0,0,0,0,0],"split_type":[0,0,0,0,0,0,0,0,0,0,0,0,0,0,0],"sum_hessian":[3.382997E4,1.6908373E4,1.6921594E4,1.5520314E4,1.3880582E3,5.600904E3,1.132069E4,1.465679E3,1.4054636E4,6.7974536E2,7.083129E2,2.7047202E2,5.3304316E3,1.0814501E4,5.0618967E2],"tree_param":{"num_deleted":"0","num_feature":"30","num_nodes":"15","size_leaf_vector":"1"}},{"base_weights":[-9.2395063E-4,1.9190919E-2,-4.5295678E-2,3.5124E-2,-3.1256378E-2,1.3105063E-1,-5.1555216E-2,3.3530074E-3,7.915875E-4,-3.9320076E-3,8.2212547E-4,3.851099E-2,4.56058E-3,-2.9345197E-3,3.252142E-3],"categories":[],"categories_nodes":[],"categories_segments":[],"categories_sizes":[],"default_left":[0,0,0,0,0,0,0,0,0,0,0,0,0,0,0],"id":38,"left_children":[1,3,5,7,9,11,13,-1,-1,-1,-1,-1,-1,-1,-1],"loss_changes":[3.0260218E1,1.873711E1,1.1641207E1,1.1266815E1,1.3444483E1,8.07069E0,1.0816055E1,0E0,0E0,0E0,0E0,0E0,0E0,0E0,0E0],"parents":[2147483647,0,0,1,1,2,2,3,3,4,4,5,5,6,6],"right_children":[2,4,6,8,10,12,14,-1,-1,-1,-1,-1,-1,-1,-1],"split_conditions":[-6.6189286E-3,1.9286871E-3,8.48747E-4,8.3194735E6,8.936969E6,-2.3720176E-3,1.9810059E1,3.3530074E-3,7.915875E-4,-3.9320076E-3,8.2212547E-4,3.851099E-2,4.56058E-3,-2.9345197E-3,3.252142E-3],"split_indices":[27,6,16,20,20,0,9,0,0,0,0,0,0,0,0],"split_type":[0,0,0,0,0,0,0,0,0,0,0,0,0,0,0],"sum_hessian":[3.3879797E4,2.3302514E4,1.0577284E4,1.771982E4,5.582693E3,3.5735226E2,1.0219932E4,6.2999604E3,1.141986E4,2.7524565E3,2.8302366E3,1.5467169E1,3.4188507E2,9.51124E3,7.086916E2],"tree_param":{"num_deleted":"0","num_feature":"30","num_nodes":"15","size_leaf_vector":"1"}},{"base_weights":[-2.7354164E-3,3.8905803E-2,-1.7244592E-2,9.0033405E-2,1.7874176E-2,-1.961155E-2,1.7222099E-1,6.34241E-3,-1.0542176E-3,-3.983124E-2,9.592129E-4,8.924105E-3,-1.0341508E-3,1.0829821E-2,-1.105993E-2],"categories":[],"categories_nodes":[],"categories_segments":[],"categories_sizes":[],"default_left":[0,0,0,0,0,0,0,0,0,0,0,0,0,0,0],"id":39,"left_children":[1,3,5,7,9,11,13,-1,-1,-1,-1,-1,-1,-1,-1],"loss_changes":[2.0427168E1,9.312768E0,1.1163946E1,1.1600815E1,9.34778E0,8.481754E0,6.365222E0,0E0,0E0,0E0,0E0,0E0,0E0,0E0,0E0],"parents":[2147483647,0,0,1,1,2,2,3,3,4,4,5,5,6,6],"right_children":[2,4,6,8,10,12,14,-1,-1,-1,-1,-1,-1,-1,-1],"split_conditions":[3.0056028E1,1.7838151E3,4.280005E1,2.6327804E-1,1.7596627E3,1.9189458E6,2.9533798E1,6.34241E-3,-1.0542176E-3,-3.983124E-2,9.592129E-4,8.924105E-3,-1.0341508E-3,1.0829821E-2,-1.105993E-2],"split_indices":[15,21,9,1,2,20,14,0,0,0,0,0,0,0,0],"split_type":[0,0,0,0,0,0,0,0,0,0,0,0,0,0,0],"sum_hessian":[3.3828645E4,8.728434E3,2.5100209E4,2.5325752E3,6.195859E3,2.4796027E4,3.04182E2,1.8609102E3,6.71665E2,1.089776E1,6.184961E3,2.0012425E2,2.4595902E4,2.7220435E2,3.1977665E1],"tree_param":{"num_deleted":"0","num_feature":"30","num_nodes":"15","size_leaf_vector":"1"}},{"base_weights":[-4.86137E-3,2.4550918E-2,-3.3063028E-2,3.360447E-2,-9.161377E-2,1.539246E-1,-3.706744E-2,9.38608E-3,1.404379E-3,-3.6399178E-3,-2.0864842E-2,1.7297318E-2,1.5685481E-3,1.7856322E-2,-1.8858322E-3],"categories":[],"categories_nodes":[],"categories_segments":[],"categories_sizes":[],"default_left":[0,0,0,0,0,0,0,0,0,0,0,0,0,0,0],"id":40,"left_children":[1,3,5,7,9,11,13,-1,-1,-1,-1,-1,-1,-1,-1],"loss_changes":[2.8073425E1,1.7376621E1,1.287891E1,1.1288563E1,6.2865143E0,8.566487E0,1.212759E1,0E0,0E0,0E0,0E0,0E0,0E0,0E0,0E0],"parents":[2147483647,0,0,1,1,2,2,3,3,4,4,5,5,6,6],"right_children":[2,4,6,8,10,12,14,-1,-1,-1,-1,-1,-1,-1,-1],"split_conditions":[-1.0780288E-2,8.4757225E1,5.2902714E-4,1.5492129E6,2.9006861E-2,8.88787E6,-5.5829883E-3,9.38608E-3,1.404379E-3,-3.6399178E-3,-2.0864842E-2,1.7297318E-2,1.5685481E-3,1.7856322E-2,-1.8858322E-3],"split_indices":[27,15,16,17,8,20,26,0,0,0,0,0,0,0,0],"split_type":[0,0,0,0,0,0,0,0,0,0,0,0,0,0,0],"sum_hessian":[3.3833383E4,1.6549848E4,1.7283535E4,1.5360094E4,1.1897537E3,3.5707037E2,1.6926465E4,4.2874594E2,1.4931348E4,1.1386868E3,5.106699E1,1.3022066E2,2.2684972E2,7.098094E1,1.6855484E4],"tree_param":{"num_deleted":"0","num_feature":"30","num_nodes":"15","size_leaf_vector":"1"}},{"base_weights":[1.446818E-3,1.7843578E-2,-4.3754376E-2,5.4725807E-2,4.636636E-3,2.5411738E-2,-6.033889E-2,3.633269E-3,-1.2739366E-3,-1.9222863E-2,2.9525298E-4,1.1877744E-2,2.6816587E-4,-3.7058953E-3,2.4140019E-3],"categories":[],"categories_nodes":[],"categories_segments":[],"categories_sizes":[],"default_left":[0,0,0,0,0,0,0,0,0,0,0,0,0,0,0],"id":41,"left_children":[1,3,5,7,9,11,13,-1,-1,-1,-1,-1,-1,-1,-1],"loss_changes":[2.5085573E1,1.2071627E1,1.0356344E1,1.0711668E1,1.038025E1,7.401205E0,1.286067E1,0E0,0E0,0E0,0E0,0E0,0E0,0E0,0E0],"parents":[2147483647,0,0,1,1,2,2,3,3,4,4,5,5,6,6],"right_children":[2,4,6,8,10,12,14,-1,-1,-1,-1,-1,-1,-1,-1],"split_conditions":[1.231779E0,2.313508E-1,-1.4904673E-3,6.412343E-3,2.8922682E-4,2.4500732E0,-3.4388902E4,3.633269E-3,-1.2739366E-3,-1.9222863E-2,2.9525298E-4,1.1877744E-2,2.6816587E-4,-3.7058953E-3,2.4140019E-3],"split_indices":[3,1,8,22,24,9,23,0,0,0,0,0,0,0,0],"split_type":[0,0,0,0,0,0,0,0,0,0,0,0,0,0,0],"sum_hessian":[3.3865113E4,2.4862371E4,9.002742E3,6.540242E3,1.8322127E4,1.7331837E3,7.2695586E3,5.243887E3,1.2963551E3,6.202118E1,1.8260107E4,1.3909271E2,1.594091E3,6.3513516E3,9.182067E2],"tree_param":{"num_deleted":"0","num_feature":"30","num_nodes":"15","size_leaf_vector":"1"}},{"base_weights":[-5.314195E-4,3.3343576E-2,-2.3815004E-2,7.587052E-2,1.1512665E-2,2.5690764E-2,-4.6486106E-2,1.7177096E-2,3.1979785E-3,1.3416059E-3,-3.1394546E-3,2.319162E-3,-3.1665138E-3,5.563607E-4,-2.9130299E-3],"categories":[],"categories_nodes":[],"categories_segments":[],"categories_sizes":[],"default_left":[0,0,0,0,0,0,0,0,0,0,0,0,0,0,0],"id":42,"left_children":[1,3,5,7,9,11,13,-1,-1,-1,-1,-1,-1,-1,-1],"loss_changes":[2.6758348E1,1.276245E1,2.260102E1,1.2623484E1,1.1217968E1,1.2685284E1,1.0875891E1,0E0,0E0,0E0,0E0,0E0,0E0,0E0,0E0],"parents":[2147483647,0,0,1,1,2,2,3,3,4,4,5,5,6,6],"right_children":[2,4,6,8,10,12,14,-1,-1,-1,-1,-1,-1,-1,-1],"split_conditions":[-4.0090084E-4,-3.0211806E-3,-1.4363059E-2,3.557094E0,1.3529907E1,6.6324524E-3,3.1812552E-3,1.7177096E-2,3.1979785E-3,1.3416059E-3,-3.1394546E-3,2.319162E-3,-3.1665138E-3,5.563607E-4,-2.9130299E-3],"split_indices":[26,6,27,19,9,22,16,0,0,0,0,0,0,0,0],"split_type":[0,0,0,0,0,0,0,0,0,0,0,0,0,0,0],"sum_hessian":[3.3929164E4,1.3809041E4,2.0120121E4,4.6719126E3,9.137129E3,6.3105303E3,1.3809591E4,1.5655208E2,4.5153604E3,7.5490566E3,1.5880723E3,5.083505E3,1.2270256E3,2.6070688E3,1.1202521E4],"tree_param":{"num_deleted":"0","num_feature":"30","num_nodes":"15","size_leaf_vector":"1"}},{"base_weights":[1.484925E-4,9.897831E-3,-6.098817E-2,2.0618685E-2,-4.0138043E-2,-8.126539E-2,5.9253E-2,3.151833E-3,3.3049996E-4,9.567383E-3,-2.316514E-3,-2.370781E-3,-6.3356785E-3,1.783822E-3,2.4619892E-2],"categories":[],"categories_nodes":[],"categories_segments":[],"categories_sizes":[],"default_left":[0,0,0,0,0,0,0,0,0,0,0,0,0,0,0],"id":43,"left_children":[1,3,5,7,9,11,13,-1,-1,-1,-1,-1,-1,-1,-1],"loss_changes":[2.016461E1,1.5672135E1,1.1366671E1,1.4698056E1,9.209113E0,6.234436E0,6.3264065E0,0E0,0E0,0E0,0E0,0E0,0E0,0E0,0E0],"parents":[2147483647,0,0,1,1,2,2,3,3,4,4,5,5,6,6],"right_children":[2,4,6,8,10,12,14,-1,-1,-1,-1,-1,-1,-1,-1],"split_conditions":[-3.4975575E-3,1.8452406E-3,3.662467E-3,-3.0909777E-3,1.14E3,8.754881E-1,3.99E3,3.151833E-3,3.3049996E-4,9.567383E-3,-2.316514E-3,-2.370781E-3,-6.3356785E-3,1.783822E-3,2.4619892E-2],"split_indices":[27,26,26,6,11,1,25,0,0,0,0,0,0,0,0],"split_type":[0,0,0,0,0,0,0,0,0,0,0,0,0,0,0],"sum_hessian":[3.3883086E4,2.923401E4,4.6490776E3,2.4087564E4,5.1464453E3,3.9835723E3,6.6550525E2,5.706948E3,1.8380615E4,1.5520735E2,4.991238E3,2.4144636E3,1.5691084E3,6.375061E2,2.7999184E1],"tree_param":{"num_deleted":"0","num_feature":"30","num_nodes":"15","size_leaf_vector":"1"}},{"base_weights":[9.795327E-4,1.817751E-2,-2.8776411E-2,1.6680283E-2,3.46469E-1,-2.092812E-1,-2.4053438E-2,9.0270955E-4,-1.1161981E-2,2.611935E-2,6.8534757E-3,-1.2110602E-2,2.6636334E-2,-1.6331036E-3,1.8644538E-3],"categories":[],"categories_nodes":[],"categories_segments":[],"categories_sizes":[],"default_left":[0,0,0,0,0,0,0,0,0,0,0,0,0,0,0],"id":44,"left_children":[1,3,5,7,9,11,13,-1,-1,-1,-1,-1,-1,-1,-1],"loss_changes":[1.7303864E1,1.0289365E1,1.038412E1,1.00007305E1,3.1215887E0,9.641888E0,7.238124E0,0E0,0E0,0E0,0E0,0E0,0E0,0E0,0E0],"parents":[2147483647,0,0,1,1,2,2,3,3,4,4,5,5,6,6],"right_children":[2,4,6,8,10,12,14,-1,-1,-1,-1,-1,-1,-1,-1],"split_conditions":[1.2695908E-3,6.5579834E1,2.2114258E0,-1.3851228E-3,-3.3060207E1,9.04451E6,-2.7812611E4,9.0270955E-4,-1.1161981E-2,2.611935E-2,6.8534757E-3,-1.2110602E-2,2.6636334E-2,-1.6331036E-3,1.8644538E-3],"split_indices":[0,9,19,27,14,20,23,0,0,0,0,0,0,0,0],"split_type":[0,0,0,0,0,0,0,0,0,0,0,0,0,0,0],"sum_hessian":[3.382269E4,2.144905E4,1.2373642E4,2.1356121E4,9.2930695E1,3.0935153E2,1.206429E4,2.1195773E4,1.6034612E2,4.4413906E1,4.851679E1,2.9605472E2,1.3296809E1,1.0467346E4,1.5969451E3],"tree_param":{"num_deleted":"0","num_feature":"30","num_nodes":"15","size_leaf_vector":"1"}},{"base_weights":[-9.7742295E-6,3.7953805E-2,-1.4412245E-2,2.0501678E-1,3.00844E-2,-1.9173143E-2,4.810206E-2,2.0113798E-2,6.915675E-4,-7.680555E-4,2.6286826E-3,-3.6470016E-4,-2.6900878E-3,3.8847192E-3,-6.7613786E-3],"categories":[],"categories_nodes":[],"categories_segments":[],"categories_sizes":[],"default_left":[0,0,0,0,0,0,0,0,0,0,0,0,0,0,0],"id":45,"left_children":[1,3,5,7,9,11,13,-1,-1,-1,-1,-1,-1,-1,-1],"loss_changes":[1.8510727E1,1.2064554E1,7.2976246E0,1.6264433E1,9.863691E0,9.616616E0,1.0348597E1,0E0,0E0,0E0,0E0,0E0,0E0,0E0,0E0],"parents":[2147483647,0,0,1,1,2,2,3,3,4,4,5,5,6,6],"right_children":[2,4,6,8,10,12,14,-1,-1,-1,-1,-1,-1,-1,-1],"split_conditions":[-2.0322062E-3,2.8399658E0,6.871446E-3,2.4589289E1,7.941E-1,2.6364326E-3,2.344722E-2,2.0113798E-2,6.915675E-4,-7.680555E-4,2.6286826E-3,-3.6470016E-4,-2.6900878E-3,3.8847192E-3,-6.7613786E-3],"split_indices":[0,9,22,15,28,6,8,0,0,0,0,0,0,0,0],"split_type":[0,0,0,0,0,0,0,0,0,0,0,0,0,0,0],"sum_hessian":[3.3878664E4,9.304076E3,2.4574588E4,4.1213007E2,8.891946E3,2.2846873E4,1.7277145E3,1.9346683E2,2.1866325E2,3.0505586E3,5.841387E3,1.7305094E4,5.5417793E3,1.480244E3,2.4747043E2],"tree_param":{"num_deleted":"0","num_feature":"30","num_nodes":"15","size_leaf_vector":"1"}},{"base_weights":[-5.21998E-3,2.177073E-2,-2.53411E-2,2.7594313E-2,-1.24835275E-1,1.7559043E-1,-2.8433029E-2,3.6198257E-3,8.416683E-4,1.3703877E-3,-1.1438058E-2,1.1977326E-2,-6.3119764E-3,-3.379066E-3,-6.6997355E-4],"categories":[],"categories_nodes":[],"categories_segments":[],"categories_sizes":[],"default_left":[0,0,0,0,0,0,0,0,0,0,0,0,0,0,0],"id":46,"left_children":[1,3,5,7,9,11,13,-1,-1,-1,-1,-1,-1,-1,-1],"loss_changes":[1.842066E1,1.229813E1,1.1993539E1,6.6438074E0,9.470043E0,6.504691E0,1.1485405E1,0E0,0E0,0E0,0E0,0E0,0E0,0E0,0E0],"parents":[2147483647,0,0,1,1,2,2,3,3,4,4,5,5,6,6],"right_children":[2,4,6,8,10,12,14,-1,-1,-1,-1,-1,-1,-1,-1],"split_conditions":[-3.091693E-4,4.056E3,1.14E3,1.2900595E1,-2.6320815E-3,1.3363561E1,1.693E3,3.6198257E-3,8.416683E-4,1.3703877E-3,-1.1438058E-2,1.1977326E-2,-6.3119764E-3,-3.379066E-3,-6.6997355E-4],"split_indices":[26,7,11,15,6,19,25,0,0,0,0,0,0,0,0],"split_type":[0,0,0,0,0,0,0,0,0,0,0,0,0,0,0],"sum_hessian":[3.390961E4,1.4468372E4,1.9441236E4,1.3921779E4,5.465927E2,2.8940613E2,1.915183E4,2.478066E3,1.1443713E4,2.2781949E2,3.1877322E2,2.3683124E2,5.2574898E1,5.003291E3,1.4148539E4],"tree_param":{"num_deleted":"0","num_feature":"30","num_nodes":"15","size_leaf_vector":"1"}},{"base_weights":[-8.512034E-4,1.4291321E-2,-2.3792503E-2,4.466085E-2,-5.2471674E-4,2.538815E-2,-5.405746E-2,4.917449E-3,7.586005E-5,-2.6547002E-2,6.771429E-5,3.1104E-3,-1.1986118E-3,-4.531465E-3,-5.047066E-4],"categories":[],"categories_nodes":[],"categories_segments":[],"categories_sizes":[],"default_left":[0,0,0,0,0,0,0,0,0,0,0,0,0,0,0],"id":47,"left_children":[1,3,5,7,9,11,13,-1,-1,-1,-1,-1,-1,-1,-1],"loss_changes":[1.1765197E1,9.196373E0,2.0080948E1,1.628478E1,1.4721457E1,9.971073E0,1.42673E1,0E0,0E0,0E0,0E0,0E0,0E0,0E0,0E0],"parents":[2147483647,0,0,1,1,2,2,3,3,4,4,5,5,6,6],"right_children":[2,4,6,8,10,12,14,-1,-1,-1,-1,-1,-1,-1,-1],"split_conditions":[4.6885014E-4,8.2977625E6,-6.0653914E4,-1.3819337E-3,1.5316183E3,-6.687866E-3,-3.8942004E4,4.917449E-3,7.586005E-5,-2.6547002E-2,6.771429E-5,3.1104E-3,-1.1986118E-3,-4.531465E-3,-5.047066E-4],"split_indices":[26,20,23,6,21,27,23,0,0,0,0,0,0,0,0],"split_type":[0,0,0,0,0,0,0,0,0,0,0,0,0,0,0],"sum_hessian":[3.384472E4,2.03708E4,1.3473916E4,6.6926025E3,1.3678198E4,5.1246997E3,8.349217E3,2.8828347E3,3.809768E3,4.678428E1,1.3631414E4,2.8977844E3,2.2269155E3,4.383033E3,3.9661833E3],"tree_param":{"num_deleted":"0","num_feature":"30","num_nodes":"15","size_leaf_vector":"1"}},{"base_weights":[-2.7873812E-4,4.7233913E-2,-9.394032E-3,2.073663E-1,3.0364202E-2,1.3341909E-2,-2.152103E-2,1.2621554E-2,-1.7556947E-3,1.8758036E-3,-8.9103235E-3,2.8931438E-3,-1.6463989E-4,-1.4144212E-2,-9.154123E-4],"categories":[],"categories_nodes":[],"categories_segments":[],"categories_sizes":[],"default_left":[0,0,0,0,0,0,0,0,0,0,0,0,0,0,0],"id":48,"left_children":[1,3,5,7,9,11,13,-1,-1,-1,-1,-1,-1,-1,-1],"loss_changes":[1.4628072E1,1.4508093E1,7.8363457E0,6.769867E0,8.655787E0,7.6750307E0,1.3076544E1,0E0,0E0,0E0,0E0,0E0,0E0,0E0,0E0],"parents":[2147483647,0,0,1,1,2,2,3,3,4,4,5,5,6,6],"right_children":[2,4,6,8,10,12,14,-1,-1,-1,-1,-1,-1,-1,-1],"split_conditions":[7.012924E-1,6.9657935E6,5.7113394E-3,5.158776E-3,-2.1259342E-3,-2.8175552E0,2.3242886E0,1.2621554E-2,-1.7556947E-3,1.8758036E-3,-8.9103235E-3,2.8931438E-3,-1.6463989E-4,-1.4144212E-2,-9.154123E-4],"split_indices":[3,20,16,22,27,14,19,0,0,0,0,0,0,0,0],"split_type":[0,0,0,0,0,0,0,0,0,0,0,0,0,0,0],"sum_hessian":[3.3829215E4,5.4321343E3,2.839708E4,5.1147052E2,4.9206636E3,9.858737E3,1.8538344E4,4.2254132E2,8.89292E1,4.741919E3,1.78745E2,2.6271394E3,7.231598E3,1.7572928E2,1.8362613E4],"tree_param":{"num_deleted":"0","num_feature":"30","num_nodes":"15","size_leaf_vector":"1"}},{"base_weights":[2.0925377E-3,1.7264511E-2,-2.8539045E-2,1.940234E-2,-1.0579549E-1,2.4211618E-1,-3.1402085E-2,1.9727205E-3,3.8567488E-4,-2.745516E-2,-3.2808674E-3,4.4727754E-3,2.760929E-2,-7.619748E-4,-3.7648736E-3],"categories":[],"categories_nodes":[],"categories_segments":[],"categories_sizes":[],"default_left":[0,0,0,0,0,0,0,0,0,0,0,0,0,0,0],"id":49,"left_children":[1,3,5,7,9,11,13,-1,-1,-1,-1,-1,-1,-1,-1],"loss_changes":[1.5717564E1,5.9042373E0,8.551548E0,5.386302E0,6.194644E0,5.0753717E0,7.9694643E0,0E0,0E0,0E0,0E0,0E0,0E0,0E0,0E0],"parents":[2147483647,0,0,1,1,2,2,3,3,4,4,5,5,6,6],"right_children":[2,4,6,8,10,12,14,-1,-1,-1,-1,-1,-1,-1,-1],"split_conditions":[1.151978E0,9.533219E1,2.1189745E6,8.309673E6,1.2319471E-3,1.175797E-2,4.3599606E-3,1.9727205E-3,3.8567488E-4,-2.745516E-2,-3.2808674E-3,4.4727754E-3,2.760929E-2,-7.619748E-4,-3.7648736E-3],"split_indices":[3,15,20,20,0,6,12,0,0,0,0,0,0,0,0],"split_type":[0,0,0,0,0,0,0,0,0,0,0,0,0,0,0],"sum_hessian":[3.383132E4,2.2640207E4,1.1191115E4,2.2260842E4,3.7936548E2,1.12679825E2,1.1078436E4,7.773935E3,1.4486906E4,2.527994E1,3.5408554E2,8.0681854E1,3.1997969E1,8.28098E3,2.7974553E3],"tree_param":{"num_deleted":"0","num_feature":"30","num_nodes":"15","size_leaf_vector":"1"}},{"base_weights":[-7.6749397E-4,1.1053373E-2,-3.5040785E-2,1.9365024E-2,-5.8595136E-2,2.9870534E-2,-5.2047458E-2,4.321722E-3,5.204741E-4,-1.6122265E-2,-2.3375072E-3,-8.826434E-3,2.2478774E-3,-2.805407E-3,9.91277E-3],"categories":[],"categories_nodes":[],"categories_segments":[],"categories_sizes":[],"default_left":[0,0,0,0,0,0,0,0,0,0,0,0,0,0,0],"id":50,"left_children":[1,3,5,7,9,11,13,-1,-1,-1,-1,-1,-1,-1,-1],"loss_changes":[1.3712174E1,1.451975E1,9.60484E0,1.3451614E1,7.3277254E0,6.1881695E0,1.0114082E1,0E0,0E0,0E0,0E0,0E0,0E0,0E0,0E0],"parents":[2147483647,0,0,1,1,2,2,3,3,4,4,5,5,6,6],"right_children":[2,4,6,8,10,12,14,-1,-1,-1,-1,-1,-1,-1,-1],"split_conditions":[2.1579266E-3,-3.5634418E-3,9.2467284E-1,6.858495E6,4.1003418E-1,3.2700195E0,2.6619787E0,4.321722E-3,5.204741E-4,-1.6122265E-2,-2.3375072E-3,-8.826434E-3,2.2478774E-3,-2.805407E-3,9.91277E-3],"split_indices":[6,27,3,20,9,9,28,0,0,0,0,0,0,0,0],"split_type":[0,0,0,0,0,0,0,0,0,0,0,0,0,0,0],"sum_hessian":[3.380166E4,2.5119979E4,8.681683E3,2.2451852E4,2.6681265E3,1.7938997E3,6.887783E3,2.465198E3,1.9986652E4,9.293198E1,2.5751946E3,1.24736435E2,1.6691632E3,6.7405454E3,1.4723782E2],"tree_param":{"num_deleted":"0","num_feature":"30","num_nodes":"15","size_leaf_vector":"1"}},{"base_weights":[5.356533E-3,1.5850713E-2,-3.904065E-2,2.9208941E-2,-1.7533487E-2,-1.7612576E-1,-2.4418604E-2,2.2058638E-3,2.8247366E-4,1.2863405E-3,-1.8627511E-3,-4.918244E-3,-2.5441708E-2,5.4684435E-3,-1.7081881E-3],"categories":[],"categories_nodes":[],"categories_segments":[],"categories_sizes":[],"default_left":[0,0,0,0,0,0,0,0,0,0,0,0,0,0,0],"id":51,"left_children":[1,3,5,7,9,11,13,-1,-1,-1,-1,-1,-1,-1,-1],"loss_changes":[1.5747111E1,1.2216848E1,1.2797516E1,7.401352E0,7.183886E0,1.5536383E1,8.593708E0,0E0,0E0,0E0,0E0,0E0,0E0,0E0,0E0],"parents":[2147483647,0,0,1,1,2,2,3,3,4,4,5,5,6,6],"right_children":[2,4,6,8,10,12,14,-1,-1,-1,-1,-1,-1,-1,-1],"split_conditions":[1.8452406E-3,-6.270913E-3,6.1000977E0,1.0560704E1,3.939361E-3,4.1378736E-3,1.28159E3,2.2058638E-3,2.8247366E-4,1.2863405E-3,-1.8627511E-3,-4.918244E-3,-2.5441708E-2,5.4684435E-3,-1.7081881E-3],"split_indices":[26,27,9,19,16,6,7,0,0,0,0,0,0,0,0],"split_type":[0,0,0,0,0,0,0,0,0,0,0,0,0,0,0],"sum_hessian":[3.3826094E4,2.7372496E4,6.453597E3,1.9564293E4,7.8082036E3,6.15166E2,5.838431E3,1.1525804E4,8.038489E3,2.4986777E3,5.309526E3,5.1045602E2,1.0470996E2,4.1960953E2,5.418822E3],"tree_param":{"num_deleted":"0","num_feature":"30","num_nodes":"15","size_leaf_vector":"1"}},{"base_weights":[3.6167382E-4,2.0954607E-2,-1.2598282E-2,6.109296E-2,6.2154196E-3,-2.7539414E-1,-1.0738162E-2,4.3411367E-3,-4.2771413E-3,7.973136E-3,-0E0,1.5202384E-2,-1.8598681E-2,8.488626E-3,-6.517533E-4],"categories":[],"categories_nodes":[],"categories_segments":[],"categories_sizes":[],"default_left":[0,0,0,0,0,0,0,0,0,0,0,0,0,0,0],"id":52,"left_children":[1,3,5,7,9,11,13,-1,-1,-1,-1,-1,-1,-1,-1],"loss_changes":[9.029263E0,7.692402E0,9.937537E0,1.4839558E1,9.437354E0,9.414872E0,1.0194511E1,0E0,0E0,0E0,0E0,0E0,0E0,0E0,0E0],"parents":[2147483647,0,0,1,1,2,2,3,3,4,4,5,5,6,6],"right_children":[2,4,6,8,10,12,14,-1,-1,-1,-1,-1,-1,-1,-1],"split_conditions":[5.7113394E-3,-2.7386212E0,9.3417766E-4,2.148999E1,-9.037746E-2,7.306387E-1,1.2536805E6,4.3411367E-3,-4.2771413E-3,7.973136E-3,-0E0,1.5202384E-2,-1.8598681E-2,8.488626E-3,-6.517533E-4],"split_indices":[16,14,24,9,1,1,17,0,0,0,0,0,0,0,0],"split_type":[0,0,0,0,0,0,0,0,0,0,0,0,0,0,0],"sum_hessian":[3.3806805E4,1.3077266E4,2.072954E4,3.49827E3,9.578995E3,1.4078294E2,2.0588756E4,2.9440117E3,5.542585E2,3.6094446E2,9.218051E3,2.0165506E1,1.2061743E2,2.8871378E2,2.0300043E4],"tree_param":{"num_deleted":"0","num_feature":"30","num_nodes":"15","size_leaf_vector":"1"}},{"base_weights":[2.6541345E-3,2.4105439E-1,7.542821E-4,2.7246118E-1,-5.3873724E-1,1.85097E-2,-1.7096862E-2,1.0017913E-2,3.7057515E-2,4.166159E-3,-4.205709E-2,8.138487E-3,6.633156E-4,1.2402348E-3,-1.5187752E-3],"categories":[],"categories_nodes":[],"categories_segments":[],"categories_sizes":[],"default_left":[0,0,0,0,0,0,0,0,0,0,0,0,0,0,0],"id":53,"left_children":[1,3,5,7,9,11,13,-1,-1,-1,-1,-1,-1,-1,-1],"loss_changes":[1.515997E1,6.6466656E0,1.064003E1,7.3157425E0,2.783099E0,1.2040922E1,1.0134267E1,0E0,0E0,0E0,0E0,0E0,0E0,0E0,0E0],"parents":[2147483647,0,0,1,1,2,2,3,3,4,4,5,5,6,6],"right_children":[2,4,6,8,10,12,14,-1,-1,-1,-1,-1,-1,-1,-1],"split_conditions":[1.9189458E6,5.4342536E7,1.5418006E-1,1.5014529E-2,5.5113316E-2,5.608064E-4,-1.6914606E-3,1.0017913E-2,3.7057515E-2,4.166159E-3,-4.205709E-2,8.138487E-3,6.633156E-4,1.2402348E-3,-1.5187752E-3],"split_indices":[20,17,14,6,1,22,6,0,0,0,0,0,0,0,0],"split_type":[0,0,0,0,0,0,0,0,0,0,0,0,0,0,0],"sum_hessian":[3.3824312E4,2.6234207E2,3.356197E4,2.5445868E2,7.883374E0,1.6844703E4,1.6717268E4,2.2841861E2,2.6040071E1,2.6086543E0,5.2747197E0,5.224857E2,1.6322218E4,4.1635225E3,1.2553744E4],"tree_param":{"num_deleted":"0","num_feature":"30","num_nodes":"15","size_leaf_vector":"1"}},{"base_weights":[5.906476E-3,1.4957004E-2,-2.020894E-2,1.3049903E-2,2.2674161E-1,-4.732276E-2,3.5041988E-2,-2.7202372E-4,1.3055393E-3,2.3867987E-2,3.8110425E-3,-1.0946103E-3,-6.1973925E-3,1.2475041E-2,1.0408572E-3],"categories":[],"categories_nodes":[],"categories_segments":[],"categories_sizes":[],"default_left":[0,0,0,0,0,0,0,0,0,0,0,0,0,0,0],"id":54,"left_children":[1,3,5,7,9,11,13,-1,-1,-1,-1,-1,-1,-1,-1],"loss_changes":[7.980462E0,9.973051E0,1.3007597E1,6.446441E0,8.2068205E0,1.1497196E1,8.400556E0,0E0,0E0,0E0,0E0,0E0,0E0,0E0,0E0],"parents":[2147483647,0,0,1,1,2,2,3,3,4,4,5,5,6,6],"right_children":[2,4,6,8,10,12,14,-1,-1,-1,-1,-1,-1,-1,-1],"split_conditions":[2.1579266E-3,1.2934931E-2,1.425E1,1.7903468E-3,4.9127955E-3,1.0221815E7,8.442147E0,-2.7202372E-4,1.3055393E-3,2.3867987E-2,3.8110425E-3,-1.0946103E-3,-6.1973925E-3,1.2475041E-2,1.0408572E-3],"split_indices":[6,0,9,22,24,17,19,0,0,0,0,0,0,0,0],"split_type":[0,0,0,0,0,0,0,0,0,0,0,0,0,0,0],"sum_hessian":[3.3773707E4,2.5101111E4,8.672595E3,2.488265E4,2.1846097E2,5.82593E3,2.8466643E3,1.0584133E4,1.4298518E4,7.4790276E1,1.4367068E2,4.46249E3,1.3634398E3,1.5898157E2,2.6876826E3],"tree_param":{"num_deleted":"0","num_feature":"30","num_nodes":"15","size_leaf_vector":"1"}},{"base_weights":[2.0049657E-3,6.5627214E-3,-6.457412E-2,3.603052E-2,-1.0546374E-3,-1.17541745E-1,5.721254E-2,1.1862959E-2,1.2976829E-3,-2.1954493E-4,4.3556867E-3,-7.0007755E-3,1.0710648E-3,5.3205695E-5,1.3635888E-2],"categories":[],"categories_nodes":[],"categories_segments":[],"categories_sizes":[],"default_left":[0,0,0,0,0,0,0,0,0,0,0,0,0,0,0],"id":55,"left_children":[1,3,5,7,9,11,13,-1,-1,-1,-1,-1,-1,-1,-1],"loss_changes":[1.0228589E1,7.133313E0,1.3979358E1,1.2435267E1,7.8703656E0,5.719141E0,7.999975E0,0E0,0E0,0E0,0E0,0E0,0E0,0E0,0E0],"parents":[2147483647,0,0,1,1,2,2,3,3,4,4,5,5,6,6],"right_children":[2,4,6,8,10,12,14,-1,-1,-1,-1,-1,-1,-1,-1],"split_conditions":[9.222135E1,-3.0211806E-3,3.05505E3,3.9500034E0,1.3992486E7,1.8149902E1,9.8387E-3,1.1862959E-2,1.2976829E-3,-2.1954493E-4,4.3556867E-3,-7.0007755E-3,1.0710648E-3,5.3205695E-5,1.3635888E-2],"split_indices":[15,6,7,19,20,9,6,0,0,0,0,0,0,0,0],"split_type":[0,0,0,0,0,0,0,0,0,0,0,0,0,0,0],"sum_hessian":[3.382888E4,3.1672748E4,2.1561287E3,6.5217607E3,2.5150988E4,1.5064668E3,6.4966187E2,2.7264554E2,6.249115E3,2.4234602E4,9.163858E2,1.2683192E3,2.3814757E2,5.236601E2,1.2600177E2],"tree_param":{"num_deleted":"0","num_feature":"30","num_nodes":"15","size_leaf_vector":"1"}},{"base_weights":[1.3674645E-3,2.4211719E-3,-2.6178643E-1,8.1487276E-2,-5.8311434E-4,4.263304E-2,-3.172947E-1,4.6387836E-3,-1.4997448E-2,-1.8125349E-4,4.005956E-3,1.39947515E-2,-1.9492507E-2],"categories":[],"categories_nodes":[],"categories_segments":[],"categories_sizes":[],"default_left":[0,0,0,0,0,0,0,0,0,0,0,0,0],"id":56,"left_children":[1,3,5,7,9,-1,11,-1,-1,-1,-1,-1,-1],"loss_changes":[9.204595E0,8.054281E0,8.653798E0,6.7652473E0,8.45023E0,0E0,6.91288E0,0E0,0E0,0E0,0E0,0E0,0E0],"parents":[2147483647,0,0,1,1,2,2,3,3,4,4,6,6],"right_children":[2,4,6,8,10,-1,12,-1,-1,-1,-1,-1,-1],"split_conditions":[2.9006861E-2,6.2555394E0,-3.878836E-2,2.5147038E0,1.229083E-2,4.263304E-2,2.9671192E-4,4.6387836E-3,-1.4997448E-2,-1.8125349E-4,4.005956E-3,1.39947515E-2,-1.9492507E-2],"split_indices":[8,15,10,28,0,0,6,0,0,0,0,0,0],"split_type":[0,0,0,0,0,0,0,0,0,0,0,0,0],"sum_hessian":[3.380855E4,3.3678523E4,1.3002551E2,1.2387081E3,3.2439816E4,3.878772E0,1.26146736E2,1.1988575E3,3.9850628E1,3.1264633E4,1.1751842E3,1.3778965E1,1.12367775E2],"tree_param":{"num_deleted":"0","num_feature":"30","num_nodes":"13","size_leaf_vector":"1"}},{"base_weights":[1.1352679E-3,1.587714E-2,-2.8458986E-2,1.8331842E-2,-1.2182291E-1,-1.27779795E-2,-7.6155506E-2,7.429852E-4,7.7007203E-3,-1.0002502E-2,8.609923E-3,-8.9597015E-4,5.7968404E-3,-7.820356E-3,1.3529029E-4],"categories":[],"categories_nodes":[],"categories_segments":[],"categories_sizes":[],"default_left":[0,0,0,0,0,0,0,0,0,0,0,0,0,0,0],"id":57,"left_children":[1,3,5,7,9,11,13,-1,-1,-1,-1,-1,-1,-1,-1],"loss_changes":[1.4736024E1,7.5666704E0,8.332209E0,9.284466E0,9.967112E0,6.2985754E0,1.8665953E1,0E0,0E0,0E0,0E0,0E0,0E0,0E0,0E0],"parents":[2147483647,0,0,1,1,2,2,3,3,4,4,5,5,6,6],"right_children":[2,4,6,8,10,12,14,-1,-1,-1,-1,-1,-1,-1,-1],"split_conditions":[1.151978E0,9.533219E1,4.083569E-3,1.3697318E-2,1.8669922E1,1.3992486E7,1.2419922E1,7.429852E-4,7.7007203E-3,-1.0002502E-2,8.609923E-3,-8.9597015E-4,5.7968404E-3,-7.820356E-3,1.3529029E-4],"split_indices":[3,15,0,0,9,20,9,0,0,0,0,0,0,0,0],"split_type":[0,0,0,0,0,0,0,0,0,0,0,0,0,0,0],"sum_hessian":[3.379135E4,2.2571338E4,1.1220013E4,2.2182736E4,3.8860086E2,8.456629E3,2.7633838E3,2.1722605E4,4.6013187E2,3.0548154E2,8.311931E1,8.114728E3,3.419009E2,1.3334846E3,1.4298993E3],"tree_param":{"num_deleted":"0","num_feature":"30","num_nodes":"15","size_leaf_vector":"1"}},{"base_weights":[-7.130912E-4,1.1577731E-2,-2.3847673E-2,-3.2517925E-1,1.2788041E-2,-9.668457E-2,-1.597514E-2,1.4226497E-2,-2.0305252E-2,5.531052E-4,1.45450365E-2,-4.1735987E-3,-2.7873596E-2,-9.816167E-4,9.823809E-3],"categories":[],"categories_nodes":[],"categories_segments":[],"categories_sizes":[],"default_left":[0,0,0,0,0,0,0,0,0,0,0,0,0,0,0],"id":58,"left_children":[1,3,5,7,9,11,13,-1,-1,-1,-1,-1,-1,-1,-1],"loss_changes":[9.634261E0,8.805568E0,6.667384E0,4.8227777E0,8.564462E0,5.25451E0,9.7635E0,0E0,0E0,0E0,0E0,0E0,0E0,0E0,0E0],"parents":[2147483647,0,0,1,1,2,2,3,3,4,4,5,5,6,6],"right_children":[2,4,6,8,10,12,14,-1,-1,-1,-1,-1,-1,-1,-1],"split_conditions":[1.1351166E0,2.8922682E-4,-3.8866997E-3,1.5931129E3,6.5579834E1,8.912444E-3,4.11094E7,1.4226497E-2,-2.0305252E-2,5.531052E-4,1.45450365E-2,-4.1735987E-3,-2.7873596E-2,-9.816167E-4,9.823809E-3],"split_indices":[3,24,12,13,9,6,17,0,0,0,0,0,0,0,0],"split_type":[0,0,0,0,0,0,0,0,0,0,0,0,0,0,0],"sum_hessian":[3.3849293E4,2.2087318E4,1.1761975E4,7.4903046E1,2.2012416E4,1.1364961E3,1.0625479E4,8.23062E0,6.6672424E1,2.1911035E4,1.0137953E2,1.1157002E3,2.0795897E1,1.0427546E4,1.9793265E2],"tree_param":{"num_deleted":"0","num_feature":"30","num_nodes":"15","size_leaf_vector":"1"}},{"base_weights":[-2.771489E-3,2.1105442E-2,-1.377601E-2,1.6621321E-1,1.6035123E-2,1.7830528E-1,-1.5840935E-2,1.9845845E-2,4.6559027E-3,-3.005314E-3,1.3639119E-3,1.0913346E-2,-5.7548336E-3,-1.1066519E-2,-6.805312E-4],"categories":[],"categories_nodes":[],"categories_segments":[],"categories_sizes":[],"default_left":[0,0,0,0,0,0,0,0,0,0,0,0,0,0,0],"id":59,"left_children":[1,3,5,7,9,11,13,-1,-1,-1,-1,-1,-1,-1,-1],"loss_changes":[8.900748E0,7.726009E0,9.108227E0,5.641035E0,9.695814E0,3.504478E0,8.690063E0,0E0,0E0,0E0,0E0,0E0,0E0,0E0,0E0],"parents":[2147483647,0,0,1,1,2,2,3,3,4,4,5,5,6,6],"right_children":[2,4,6,8,10,12,14,-1,-1,-1,-1,-1,-1,-1,-1],"split_conditions":[-6.4629105E4,4.3279728E-1,1.0670115E3,8.91416E6,9.015143E6,2.0439463E-2,5.899658E-1,1.9845845E-2,4.6559027E-3,-3.005314E-3,1.3639119E-3,1.0913346E-2,-5.7548336E-3,-1.1066519E-2,-6.805312E-4],"split_indices":[23,3,5,20,20,8,9,0,0,0,0,0,0,0,0],"split_type":[0,0,0,0,0,0,0,0,0,0,0,0,0,0,0],"sum_hessian":[3.3888426E4,1.0671529E4,2.3216896E4,3.53375E2,1.0318154E4,2.4140134E2,2.2975496E4,7.468137E1,2.7869363E2,1.3747526E3,8.943402E3,2.1107523E2,3.0326113E1,1.8944124E2,2.2786055E4],"tree_param":{"num_deleted":"0","num_feature":"30","num_nodes":"15","size_leaf_vector":"1"}},{"base_weights":[-1.4455311E-4,9.663572E-3,-3.4462355E-2,2.6089935E-2,-8.468309E-3,5.155882E-1,-3.660591E-2,9.5862226E-4,6.069389E-3,1.7222392E-3,-9.7650645E-4,3.2093473E-2,-4.4343295E-3,6.6468853E-4,-2.4747383E-3],"categories":[],"categories_nodes":[],"categories_segments":[],"categories_sizes":[],"default_left":[0,0,0,0,0,0,0,0,0,0,0,0,0,0,0],"id":60,"left_children":[1,3,5,7,9,11,13,-1,-1,-1,-1,-1,-1,-1,-1],"loss_changes":[1.1426327E1,7.859823E0,8.627548E0,8.579157E0,6.3995028E0,3.019764E0,5.473937E0,0E0,0E0,0E0,0E0,0E0,0E0,0E0,0E0],"parents":[2147483647,0,0,1,1,2,2,3,3,4,4,5,5,6,6],"right_children":[2,4,6,8,10,12,14,-1,-1,-1,-1,-1,-1,-1,-1],"split_conditions":[1.2937189E0,5.041565E1,4.43841E0,4.749835E1,7.608443E-1,1.3602424E7,-1.6341308E-2,9.5862226E-4,6.069389E-3,1.7222392E-3,-9.7650645E-4,3.2093473E-2,-4.4343295E-3,6.6468853E-4,-2.4747383E-3],"split_indices":[3,15,15,15,3,20,27,0,0,0,0,0,0,0,0],"split_type":[0,0,0,0,0,0,0,0,0,0,0,0,0,0,0],"sum_hessian":[3.389344E4,2.6346004E4,7.547437E3,1.3841792E4,1.2504211E4,2.5932516E1,7.5215044E3,1.3018191E4,8.2360065E2,2.607598E3,9.896613E3,2.162385E1,4.308666E0,1.6630912E3,5.8584136E3],"tree_param":{"num_deleted":"0","num_feature":"30","num_nodes":"15","size_leaf_vector":"1"}}]},"name":"gbtree"},"learner_model_param":{"base_score":"4.490435E-1","boost_from_average":"1","num_class":"0","num_feature":"30","num_target":"1"},"objective":{"name":"binary:logistic","reg_loss_param":{"scale_pos_weight":"0.80547297"}}},"version":[2,1,4]}