{"learner":{"attributes":{"scikit_learn":"{\"_estimator_type\": \"classifier\"}"},"feature_names":["price_vs_resistance_20","atr_14","support_20","ema_12","return_3","upper_shadow","price_vs_resistance_50","return_1","lower_shadow","sma_12","volume_price_trend","number_of_trades","dayofweek_cos","shadow_ratio","stoch_k","obv","taker_buy_sell_ratio","volu_ma_5","is_shooting_star","ma_5","volu_ma_50","resistance_20","vol_5","macd","volume_ratio_20","bb_upper","support_50","price_vs_ema_20","adl","price_vs_ema_50"],"feature_types":["float","float","float","float","float","float","float","float","float","float","float","int","float","float","float","float","float","float","int","float","float","float","float","float","float","float","float","float","float","float"],"gradient_booster":{"model":{"gbtree_model_param":{"num_parallel_tree":"1","num_trees":"163"},"iteration_indptr":[0,1,2,3,4,5,6,7,8,9,10,11,12,13,14,15,16,17,18,19,20,21,22,23,24,25,26,27,28,29,30,31,32,33,34,35,36,37,38,39,40,41,42,43,44,45,46,47,48,49,50,51,52,53,54,55,56,57,58,59,60,61,62,63,64,65,66,67,68,69,70,71,72,73,74,75,76,77,78,79,80,81,82,83,84,85,86,87,88,89,90,91,92,93,94,95,96,97,98,99,100,101,102,103,104,105,106,107,108,109,110,111,112,113,114,115,116,117,118,119,120,121,122,123,124,125,126,127,128,129,130,131,132,133,134,135,136,137,138,139,140,141,142,143,144,145,146,147,148,149,150,151,152,153,154,155,156,157,158,159,160,161,162,163],"tree_info":[0,0,0,0,0,0,0,0,0,0,0,0,0,0,0,0,0,0,0,0,0,0,0,0,0,0,0,0,0,0,0,0,0,0,0,0,0,0,0,0,0,0,0,0,0,0,0,0,0,0,0,0,0,0,0,0,0,0,0,0,0,0,0,0,0,0,0,0,0,0,0,0,0,0,0,0,0,0,0,0,0,0,0,0,0,0,0,0,0,0,0,0,0,0,0,0,0,0,0,0,0,0,0,0,0,0,0,0,0,0,0,0,0,0,0,0,0,0,0,0,0,0,0,0,0,0,0,0,0,0,0,0,0,0,0,0,0,0,0,0,0,0,0,0,0,0,0,0,0,0,0,0,0,0,0,0,0,0,0,0,0,0,0],"trees":[{"base_weights":[5.6998903E-4,1.0397872E-1,-1.0973844E-1,2.3954199E-1,7.080993E-2,-2.705527E-1,-4.8728857E-2,5.0967815E-3,2.5230781E-3,2.3875681E-3,5.5548694E-4,-1.0969446E-3,-6.153747E-3,1.3221066E-3,-1.1143553E-3],"categories":[],"categories_nodes":[],"categories_segments":[],"categories_sizes":[],"default_left":[0,0,0,0,0,0,0,0,0,0,0,0,0,0,0],"id":0,"left_children":[1,3,5,7,9,11,13,-1,-1,-1,-1,-1,-1,-1,-1],"loss_changes":[4.4501334E2,9.031235E1,1.8492982E2,1.8688843E1,4.109555E1,8.523529E1,2.4773212E1,0E0,0E0,0E0,0E0,0E0,0E0,0E0,0E0],"parents":[2147483647,0,0,1,1,2,2,3,3,4,4,5,5,6,6],"right_children":[2,4,6,8,10,12,14,-1,-1,-1,-1,-1,-1,-1,-1],"split_conditions":[-5.741588E-3,-5.390942E-3,5.5714196E-1,2.3644242E7,-2.5543335E-3,8.999634E-2,-1.6177297E-3,5.0967815E-3,2.5230781E-3,2.3875681E-3,5.5548694E-4,-1.0969446E-3,-6.153747E-3,1.3221066E-3,-1.1143553E-3],"split_indices":[0,4,1,15,27,8,4,0,0,0,0,0,0,0,0],"split_type":[0,0,0,0,0,0,0,0,0,0,0,0,0,0,0],"sum_hessian":[3.9009332E4,2.0137611E4,1.8871719E4,3.9522065E3,1.6185405E4,5.185526E3,1.3686192E4,2.590059E3,1.3621475E3,6.090265E3,1.0095141E4,1.4325228E3,3.753003E3,1.4380624E3,1.224813E4],"tree_param":{"num_deleted":"0","num_feature":"30","num_nodes":"15","size_leaf_vector":"1"}},{"base_weights":[-0E0,1.1772416E-1,-9.526759E-2,2.3759122E-1,8.291259E-2,-2.5490916E-1,-3.801005E-2,4.5529595E-3,1.4429741E-3,2.3368374E-3,7.578797E-4,-6.2668393E-4,-5.953784E-3,-1.5003405E-3,6.6922825E-5],"categories":[],"categories_nodes":[],"categories_segments":[],"categories_sizes":[],"default_left":[0,0,0,0,0,0,0,0,0,0,0,0,0,0,0],"id":1,"left_children":[1,3,5,7,9,11,13,-1,-1,-1,-1,-1,-1,-1,-1],"loss_changes":[4.3907843E2,7.281688E1,1.9756284E2,1.2703018E1,2.6864998E1,1.0424103E2,3.1542618E1,0E0,0E0,0E0,0E0,0E0,0E0,0E0,0E0],"parents":[2147483647,0,0,1,1,2,2,3,3,4,4,5,5,6,6],"right_children":[2,4,6,8,10,12,14,-1,-1,-1,-1,-1,-1,-1,-1],"split_conditions":[-6.885952E-3,-5.390942E-3,5.642853E-1,1.1694864E0,-2.4903768E-3,8.999634E-2,1.1571437E0,4.5529595E-3,1.4429741E-3,2.3368374E-3,7.578797E-4,-6.2668393E-4,-5.953784E-3,-1.5003405E-3,6.6922825E-5],"split_indices":[0,4,1,16,27,8,1,0,0,0,0,0,0,0,0],"split_type":[0,0,0,0,0,0,0,0,0,0,0,0,0,0,0],"sum_hessian":[3.9145684E4,1.75101E4,2.1635586E4,3.9338623E3,1.3576236E4,5.7065273E3,1.592906E4,3.4572544E3,4.7660806E2,6.0165464E3,7.5596895E3,1.5766305E3,4.129897E3,7.4837007E3,8.445358E3],"tree_param":{"num_deleted":"0","num_feature":"30","num_nodes":"15","size_leaf_vector":"1"}},{"base_weights":[-1.9996837E-3,1.0145289E-1,-1.0948362E-1,1.95052E-1,5.711215E-2,-2.577444E-1,-5.354202E-2,5.2035875E-3,2.7697298E-3,6.7066593E-4,2.7483397E-3,-7.258391E-3,-2.704917E-3,3.698234E-4,-1.360213E-3],"categories":[],"categories_nodes":[],"categories_segments":[],"categories_sizes":[],"default_left":[0,0,0,0,0,0,0,0,0,0,0,0,0,0,0],"id":2,"left_children":[1,3,5,7,9,11,13,-1,-1,-1,-1,-1,-1,-1,-1],"loss_changes":[4.3579016E2,8.267383E1,1.5920587E2,2.3900574E1,2.5370457E1,8.4224365E1,2.4790264E1,0E0,0E0,0E0,0E0,0E0,0E0,0E0,0E0],"parents":[2147483647,0,0,1,1,2,2,3,3,4,4,5,5,6,6],"right_children":[2,4,6,8,10,12,14,-1,-1,-1,-1,-1,-1,-1,-1],"split_conditions":[-5.856948E-3,-3.3997893E-3,5.5714196E-1,2.95464E-1,8.9001465E-1,9.002686E-3,6.3855456E7,5.2035875E-3,2.7697298E-3,6.7066593E-4,2.7483397E-3,-7.258391E-3,-2.704917E-3,3.698234E-4,-1.360213E-3],"split_indices":[0,4,1,13,8,5,28,0,0,0,0,0,0,0,0],"split_type":[0,0,0,0,0,0,0,0,0,0,0,0,0,0,0],"sum_hessian":[3.9187258E4,1.9964914E4,1.9222346E4,6.4106826E3,1.355423E4,5.260767E3,1.3961579E4,1.7350626E3,4.67562E3,1.1382338E4,2.1718926E3,2.1090613E3,3.1517058E3,3.3681182E3,1.0593461E4],"tree_param":{"num_deleted":"0","num_feature":"30","num_nodes":"15","size_leaf_vector":"1"}},{"base_weights":[1.7956594E-3,1.082683E-1,-9.456385E-2,1.8976213E-1,5.801231E-2,-2.1357787E-1,-1.940969E-2,7.386642E-3,3.1122004E-3,6.360261E-4,2.738519E-3,-5.058715E-4,-4.7949417E-3,1.7409138E-3,-6.6136045E-4],"categories":[],"categories_nodes":[],"categories_segments":[],"categories_sizes":[],"default_left":[0,0,0,0,0,0,0,0,0,0,0,0,0,0,0],"id":3,"left_children":[1,3,5,7,9,11,13,-1,-1,-1,-1,-1,-1,-1,-1],"loss_changes":[4.0046204E2,7.576663E1,1.8306433E2,2.0380112E1,2.4362537E1,8.614407E1,2.699796E1,0E0,0E0,0E0,0E0,0E0,0E0,0E0,0E0],"parents":[2147483647,0,0,1,1,2,2,3,3,4,4,5,5,6,6],"right_children":[2,4,6,8,10,12,14,-1,-1,-1,-1,-1,-1,-1,-1],"split_conditions":[-6.427584E-3,-2.8435588E-3,7.4285454E-1,-1.11023055E5,8.000183E-1,8.999634E-2,-1.480937E-3,7.386642E-3,3.1122004E-3,6.360261E-4,2.738519E-3,-5.058715E-4,-4.7949417E-3,1.7409138E-3,-6.6136045E-4],"split_indices":[0,4,1,10,8,8,4,0,0,0,0,0,0,0,0],"split_type":[0,0,0,0,0,0,0,0,0,0,0,0,0,0,0],"sum_hessian":[3.9027996E4,1.8544295E4,2.0483701E4,7.066521E3,1.1477773E4,7.9234834E3,1.2560218E4,3.6830508E2,6.698216E3,9.385914E3,2.0918599E3,1.9198003E3,6.003683E3,1.6663127E3,1.0893904E4],"tree_param":{"num_deleted":"0","num_feature":"30","num_nodes":"15","size_leaf_vector":"1"}},{"base_weights":[1.925861E-4,1.0931113E-1,-8.840065E-2,2.0632823E-1,7.171255E-2,-2.641612E-1,-3.8161144E-2,7.517657E-3,3.3194863E-3,2.1500073E-3,6.1888155E-4,-6.226339E-4,-6.337594E-3,-1.8366817E-3,-1.5981944E-4],"categories":[],"categories_nodes":[],"categories_segments":[],"categories_sizes":[],"default_left":[0,0,0,0,0,0,0,0,0,0,0,0,0,0,0],"id":4,"left_children":[1,3,5,7,9,11,13,-1,-1,-1,-1,-1,-1,-1,-1],"loss_changes":[3.7808502E2,6.371808E1,1.9033656E2,1.84982E1,2.3202248E1,1.05057495E2,3.2253822E1,0E0,0E0,0E0,0E0,0E0,0E0,0E0,0E0],"parents":[2147483647,0,0,1,1,2,2,3,3,4,4,5,5,6,6],"right_children":[2,4,6,8,10,12,14,-1,-1,-1,-1,-1,-1,-1,-1],"split_conditions":[-6.885952E-3,-4.4523478E-3,5.0714546E-1,-1.11023055E5,-2.5543335E-3,9.9975586E-2,8.7143165E-1,7.517657E-3,3.3194863E-3,2.1500073E-3,6.1888155E-4,-6.226339E-4,-6.337594E-3,-1.8366817E-3,-1.5981944E-4],"split_indices":[0,4,1,10,27,8,1,0,0,0,0,0,0,0,0],"split_type":[0,0,0,0,0,0,0,0,0,0,0,0,0,0,0],"sum_hessian":[3.9104945E4,1.7525902E4,2.1579041E4,4.8875757E3,1.2638326E4,4.792165E3,1.6786877E4,3.5545618E2,4.5321196E3,5.296169E3,7.342157E3,1.4200121E3,3.372153E3,5.112649E3,1.1674228E4],"tree_param":{"num_deleted":"0","num_feature":"30","num_nodes":"15","size_leaf_vector":"1"}},{"base_weights":[2.982035E-3,1.12428576E-1,-8.577382E-2,2.1768129E-1,8.157634E-2,-2.1498105E-1,-1.8742772E-2,7.328416E-3,3.4716565E-3,2.4246078E-3,9.047038E-4,-3.4056534E-3,-1.3054641E-2,1.5506542E-3,-7.616486E-4],"categories":[],"categories_nodes":[],"categories_segments":[],"categories_sizes":[],"default_left":[0,0,0,0,0,0,0,0,0,0,0,0,0,0,0],"id":5,"left_children":[1,3,5,7,9,11,13,-1,-1,-1,-1,-1,-1,-1,-1],"loss_changes":[3.7990652E2,5.6640396E1,1.8683377E2,1.5472122E1,2.2839981E1,8.2259E1,3.729054E1,0E0,0E0,0E0,0E0,0E0,0E0,0E0,0E0],"parents":[2147483647,0,0,1,1,2,2,3,3,4,4,5,5,6,6],"right_children":[2,4,6,8,10,12,14,-1,-1,-1,-1,-1,-1,-1,-1],"split_conditions":[-6.885952E-3,-5.390942E-3,6.7856926E-1,-1.11023055E5,-3.26519E-3,1E2,-1.1110902E-3,7.328416E-3,3.4716565E-3,2.4246078E-3,9.047038E-4,-3.4056534E-3,-1.3054641E-2,1.5506542E-3,-7.616486E-4],"split_indices":[0,4,1,10,27,14,4,0,0,0,0,0,0,0,0],"split_type":[0,0,0,0,0,0,0,0,0,0,0,0,0,0,0],"sum_hessian":[3.910342E4,1.7513895E4,2.1589527E4,3.96241E3,1.3551484E4,7.36963E3,1.4219896E4,3.6141028E2,3.6009995E3,4.7198784E3,8.831606E3,7.0857E3,2.8392972E2,2.6498857E3,1.1570011E4],"tree_param":{"num_deleted":"0","num_feature":"30","num_nodes":"15","size_leaf_vector":"1"}},{"base_weights":[-3.181115E-4,9.805296E-2,-1.00885406E-1,1.9347543E-1,5.8983475E-2,-2.592509E-1,-4.9758606E-2,4.7947885E-3,2.6121815E-3,3.662448E-4,1.8814151E-3,-9.0679165E-4,-6.041477E-3,-2.5642246E-3,-5.583377E-4],"categories":[],"categories_nodes":[],"categories_segments":[],"categories_sizes":[],"default_left":[0,0,0,0,0,0,0,0,0,0,0,0,0,0,0],"id":6,"left_children":[1,3,5,7,9,11,13,-1,-1,-1,-1,-1,-1,-1,-1],"loss_changes":[3.8684415E2,7.3487656E1,1.5634737E2,2.0039795E1,2.5587177E1,8.211496E1,2.5171734E1,0E0,0E0,0E0,0E0,0E0,0E0,0E0,0E0],"parents":[2147483647,0,0,1,1,2,2,3,3,4,4,5,5,6,6],"right_children":[2,4,6,8,10,12,14,-1,-1,-1,-1,-1,-1,-1,-1],"split_conditions":[-5.9259487E-3,-3.8301349E-3,5.21419E-1,3.6361113E-1,3.595E2,8.999634E-2,9.002686E-3,4.7947885E-3,2.6121815E-3,3.662448E-4,1.8814151E-3,-9.0679165E-4,-6.041477E-3,-2.5642246E-3,-5.583377E-4],"split_indices":[0,4,1,13,26,8,5,0,0,0,0,0,0,0,0],"split_type":[0,0,0,0,0,0,0,0,0,0,0,0,0,0,0],"sum_hessian":[3.9099156E4,1.9761988E4,1.9337168E4,5.733529E3,1.402846E4,4.714101E3,1.4623068E4,2.0708953E3,3.6626335E3,7.820798E3,6.207662E3,1.3622747E3,3.3518264E3,2.3035505E3,1.2319518E4],"tree_param":{"num_deleted":"0","num_feature":"30","num_nodes":"15","size_leaf_vector":"1"}},{"base_weights":[-1.985145E-3,9.081881E-2,-1.00279145E-1,1.6865456E-1,4.1828543E-2,-2.6358783E-1,-4.730039E-2,2.8653448E-3,1.06386775E-2,1.9485559E-3,2.9148586E-4,-7.3818425E-3,-2.705148E-3,-1.7321383E-3,-6.5194145E-5],"categories":[],"categories_nodes":[],"categories_segments":[],"categories_sizes":[],"default_left":[0,0,0,0,0,0,0,0,0,0,0,0,0,0,0],"id":7,"left_children":[1,3,5,7,9,11,13,-1,-1,-1,-1,-1,-1,-1,-1],"loss_changes":[3.5662262E2,7.650658E1,1.6405356E2,1.888739E1,2.1406332E1,7.910962E1,3.1914055E1,0E0,0E0,0E0,0E0,0E0,0E0,0E0,0E0],"parents":[2147483647,0,0,1,1,2,2,3,3,4,4,5,5,6,6],"right_children":[2,4,6,8,10,12,14,-1,-1,-1,-1,-1,-1,-1,-1],"split_conditions":[-5.7940753E-3,-3.26519E-3,5.21419E-1,4.2047277E-3,-2.3160577E-3,9.002686E-3,3.5656E2,2.8653448E-3,1.06386775E-2,1.9485559E-3,2.9148586E-4,-7.3818425E-3,-2.705148E-3,-1.7321383E-3,-6.5194145E-5],"split_indices":[0,27,1,29,4,5,19,0,0,0,0,0,0,0,0],"split_type":[0,0,0,0,0,0,0,0,0,0,0,0,0,0,0],"sum_hessian":[3.908996E4,2.0102986E4,1.8986975E4,7.7581826E3,1.2344805E4,4.645771E3,1.4341204E4,7.6606E3,9.758268E1,3.3019365E3,9.042868E3,1.9147645E3,2.7310063E3,6.5903545E3,7.7508496E3],"tree_param":{"num_deleted":"0","num_feature":"30","num_nodes":"15","size_leaf_vector":"1"}},{"base_weights":[-3.9702E-3,9.587273E-2,-9.291129E-2,1.6065821E-1,5.712517E-2,-2.5204077E-1,-4.408201E-2,4.2520287E-3,2.1998738E-3,1.7463233E-3,2.4778864E-4,-1.9253184E-4,-6.1569274E-3,-1.546015E-3,-7.951676E-5],"categories":[],"categories_nodes":[],"categories_segments":[],"categories_sizes":[],"default_left":[0,0,0,0,0,0,0,0,0,0,0,0,0,0,0],"id":8,"left_children":[1,3,5,7,9,11,13,-1,-1,-1,-1,-1,-1,-1,-1],"loss_changes":[3.4799274E2,4.6170715E1,1.608451E2,1.9607193E1,2.0883915E1,1.1455484E2,2.7426254E1,0E0,0E0,0E0,0E0,0E0,0E0,0E0,0E0],"parents":[2147483647,0,0,1,1,2,2,3,3,4,4,5,5,6,6],"right_children":[2,4,6,8,10,12,14,-1,-1,-1,-1,-1,-1,-1,-1],"split_conditions":[-6.4822817E-3,-2.9636025E-3,5.21419E-1,3.3329943E-1,-1.5073275E-3,8.999634E-2,3.628E2,4.2520287E-3,2.1998738E-3,1.7463233E-3,2.4778864E-4,-1.9253184E-4,-6.1569274E-3,-1.546015E-3,-7.951676E-5],"split_indices":[0,4,1,13,27,8,26,0,0,0,0,0,0,0,0],"split_type":[0,0,0,0,0,0,0,0,0,0,0,0,0,0,0],"sum_hessian":[3.918417E4,1.8457E4,2.0727174E4,6.8987456E3,1.1558253E4,4.86165E3,1.5865524E4,2.097544E3,4.8012017E3,5.831443E3,5.7268105E3,1.4067413E3,3.4549084E3,7.5209946E3,8.34453E3],"tree_param":{"num_deleted":"0","num_feature":"30","num_nodes":"15","size_leaf_vector":"1"}},{"base_weights":[1.0177044E-3,1.0340561E-1,-8.201663E-2,2.0798731E-1,7.295305E-2,-2.3965196E-1,-3.900898E-2,4.5973933E-3,1.8866285E-3,2.2350536E-3,7.050244E-4,-1.2734005E-3,-6.2474157E-3,-1.5124014E-3,2.9438635E-4],"categories":[],"categories_nodes":[],"categories_segments":[],"categories_sizes":[],"default_left":[0,0,0,0,0,0,0,0,0,0,0,0,0,0,0],"id":9,"left_children":[1,3,5,7,9,11,13,-1,-1,-1,-1,-1,-1,-1,-1],"loss_changes":[3.324221E2,5.555301E1,1.4613637E2,2.0879883E1,2.4010017E1,8.8935486E1,4.4451942E1,0E0,0E0,0E0,0E0,0E0,0E0,0E0,0E0],"parents":[2147483647,0,0,1,1,2,2,3,3,4,4,5,5,6,6],"right_children":[2,4,6,8,10,12,14,-1,-1,-1,-1,-1,-1,-1,-1],"split_conditions":[-6.885952E-3,-5.390942E-3,9.002686E-3,2.3644242E7,-3.0337095E-3,-4.9591026E1,3.5818E2,4.5973933E-3,1.8866285E-3,2.2350536E-3,7.050244E-4,-1.2734005E-3,-6.2474157E-3,-1.5124014E-3,2.9438635E-4],"split_indices":[0,4,5,15,27,10,21,0,0,0,0,0,0,0,0],"split_type":[0,0,0,0,0,0,0,0,0,0,0,0,0,0,0],"sum_hessian":[3.9095086E4,1.751073E4,2.1584355E4,3.9414082E3,1.3569323E4,4.6213154E3,1.696304E4,2.570961E3,1.3704473E3,5.120501E3,8.448821E3,1.8907191E3,2.7305962E3,9.213383E3,7.7496567E3],"tree_param":{"num_deleted":"0","num_feature":"30","num_nodes":"15","size_leaf_vector":"1"}},{"base_weights":[2.623629E-3,6.691142E-2,-1.1820161E-1,1.6027276E-1,3.1664133E-2,-2.369561E-1,-3.9220158E-2,6.9130156E-3,2.586546E-3,-1.353715E-3,9.2290924E-4,-3.4639672E-3,-1.0313225E-2,9.0501073E-4,-1.2576344E-3],"categories":[],"categories_nodes":[],"categories_segments":[],"categories_sizes":[],"default_left":[0,0,0,0,0,0,0,0,0,0,0,0,0,0,0],"id":10,"left_children":[1,3,5,7,9,11,13,-1,-1,-1,-1,-1,-1,-1,-1],"loss_changes":[3.0387183E2,8.390762E1,1.2720357E2,2.109311E1,4.1878494E1,7.51178E1,2.3899017E1,0E0,0E0,0E0,0E0,0E0,0E0,0E0,0E0],"parents":[2147483647,0,0,1,1,2,2,3,3,4,4,5,5,6,6],"right_children":[2,4,6,8,10,12,14,-1,-1,-1,-1,-1,-1,-1,-1],"split_conditions":[-6.50409E-3,-3.1125546E-3,1.211E3,-1.11023055E5,9.002686E-3,-5.293322E-4,6.343245E7,6.9130156E-3,2.586546E-3,-1.353715E-3,9.2290924E-4,-3.4639672E-3,-1.0313225E-2,9.0501073E-4,-1.2576344E-3],"split_indices":[6,4,11,10,5,0,28,0,0,0,0,0,0,0,0],"split_type":[0,0,0,0,0,0,0,0,0,0,0,0,0,0,0],"sum_hessian":[3.9121152E4,2.5539037E4,1.3582114E4,6.992223E3,1.8546814E4,5.420112E3,8.1620024E3,3.712345E2,6.620989E3,2.9740977E3,1.5572717E4,4.8666714E3,5.534402E2,2.1363413E3,6.025661E3],"tree_param":{"num_deleted":"0","num_feature":"30","num_nodes":"15","size_leaf_vector":"1"}},{"base_weights":[-3.8745493E-4,9.635453E-2,-7.939143E-2,1.4412324E-1,4.4307612E-2,-1.7858331E-1,-1.1990432E-2,4.1238475E-3,2.1184739E-3,4.1887775E-4,2.4424973E-3,-5.6476425E-3,-1.7887822E-3,1.1545753E-3,-5.8802764E-4],"categories":[],"categories_nodes":[],"categories_segments":[],"categories_sizes":[],"default_left":[0,0,0,0,0,0,0,0,0,0,0,0,0,0,0],"id":11,"left_children":[1,3,5,7,9,11,13,-1,-1,-1,-1,-1,-1,-1,-1],"loss_changes":[2.9806512E2,4.3437363E1,1.4341954E2,1.9250748E1,1.6154373E1,9.476083E1,2.12593E1,0E0,0E0,0E0,0E0,0E0,0E0,0E0,0E0],"parents":[2147483647,0,0,1,1,2,2,3,3,4,4,5,5,6,6],"right_children":[2,4,6,8,10,12,14,-1,-1,-1,-1,-1,-1,-1,-1],"split_conditions":[-6.885952E-3,-2.4903768E-3,1.27E3,8.641932E0,7.497908E7,9.002686E-3,6.0156444E7,4.1238475E-3,2.1184739E-3,4.1887775E-4,2.4424973E-3,-5.6476425E-3,-1.7887822E-3,1.1545753E-3,-5.8802764E-4],"split_indices":[0,27,11,14,28,5,28,0,0,0,0,0,0,0,0],"split_type":[0,0,0,0,0,0,0,0,0,0,0,0,0,0,0],"sum_hessian":[3.899615E4,1.752606E4,2.147009E4,9.13002E3,8.396041E3,8.6811045E3,1.2788984E4,1.8898318E3,7.240188E3,6.9075713E3,1.4884697E3,3.0388975E3,5.642207E3,2.7595857E3,1.0029398E4],"tree_param":{"num_deleted":"0","num_feature":"30","num_nodes":"15","size_leaf_vector":"1"}},{"base_weights":[-1.1266898E-3,9.487576E-2,-7.88111E-2,1.6607143E-1,5.2623738E-2,-2.2822247E-1,-2.8484462E-2,4.3561757E-3,2.3898717E-3,3.4492963E-4,1.7037374E-3,-6.6848397E-3,-2.2289085E-3,1.3948897E-3,-8.349934E-4],"categories":[],"categories_nodes":[],"categories_segments":[],"categories_sizes":[],"default_left":[0,0,0,0,0,0,0,0,0,0,0,0,0,0,0],"id":12,"left_children":[1,3,5,7,9,11,13,-1,-1,-1,-1,-1,-1,-1,-1],"loss_changes":[2.9196667E2,5.2496704E1,1.6255766E2,1.5728592E1,1.5968769E1,8.352124E1,3.310471E1,0E0,0E0,0E0,0E0,0E0,0E0,0E0,0E0],"parents":[2147483647,0,0,1,1,2,2,3,3,4,4,5,5,6,6],"right_children":[2,4,6,8,10,12,14,-1,-1,-1,-1,-1,-1,-1,-1],"split_conditions":[-6.885952E-3,-3.1125546E-3,5.499987E-1,2.999878E-1,3.803682E2,9.002686E-3,-1.480937E-3,4.3561757E-3,2.3898717E-3,3.4492963E-4,1.7037374E-3,-6.6848397E-3,-2.2289085E-3,1.3948897E-3,-8.349934E-4],"split_indices":[0,4,1,13,25,5,4,0,0,0,0,0,0,0,0],"split_type":[0,0,0,0,0,0,0,0,0,0,0,0,0,0,0],"sum_hessian":[3.914633E4,1.750474E4,2.164159E4,6.5112964E3,1.0993444E4,5.4477676E3,1.6193821E4,1.7516545E3,4.759642E3,6.303964E3,4.68948E3,2.1791963E3,3.2685715E3,2.4181597E3,1.3775662E4],"tree_param":{"num_deleted":"0","num_feature":"30","num_nodes":"15","size_leaf_vector":"1"}},{"base_weights":[5.499723E-3,8.687493E-2,-8.0464326E-2,1.9216643E-1,6.0845003E-2,-2.365813E-1,-3.6162578E-2,6.8274504E-3,3.043758E-3,9.294931E-4,4.5900554E-3,-1.23101E-3,-6.1312686E-3,2.1964724E-3,-9.491173E-4],"categories":[],"categories_nodes":[],"categories_segments":[],"categories_sizes":[],"default_left":[0,0,0,0,0,0,0,0,0,0,0,0,0,0,0],"id":13,"left_children":[1,3,5,7,9,11,13,-1,-1,-1,-1,-1,-1,-1,-1],"loss_changes":[2.7311105E2,5.4783722E1,1.3107675E2,1.4392715E1,2.555706E1,7.783066E1,4.231656E1,0E0,0E0,0E0,0E0,0E0,0E0,0E0,0E0],"parents":[2147483647,0,0,1,1,2,2,3,3,4,4,5,5,6,6],"right_children":[2,4,6,8,10,12,14,-1,-1,-1,-1,-1,-1,-1,-1],"split_conditions":[-5.7940753E-3,-5.390942E-3,9.002686E-3,-1.11023055E5,7.9406904E7,-3.1706236E1,5.532799E7,6.8274504E-3,3.043758E-3,9.294931E-4,4.5900554E-3,-1.23101E-3,-6.1312686E-3,2.1964724E-3,-9.491173E-4],"split_indices":[0,4,5,10,28,10,28,0,0,0,0,0,0,0,0],"split_type":[0,0,0,0,0,0,0,0,0,0,0,0,0,0,0],"sum_hessian":[3.9037414E4,2.005803E4,1.8979383E4,3.9681965E3,1.6089832E4,4.190079E3,1.4789305E4,3.4715332E2,3.6210432E3,1.5475697E4,6.1413513E2,1.6872788E3,2.5028003E3,1.4660952E3,1.3323209E4],"tree_param":{"num_deleted":"0","num_feature":"30","num_nodes":"15","size_leaf_vector":"1"}},{"base_weights":[2.2988776E-3,9.838412E-2,-7.448583E-2,1.6087477E-1,5.6932315E-2,-2.0429349E-1,-2.9636284E-2,6.411061E-3,2.6273578E-3,1.8549387E-3,4.0709611E-4,-4.5451074E-5,-4.9714115E-3,1.2171699E-3,-8.357985E-4],"categories":[],"categories_nodes":[],"categories_segments":[],"categories_sizes":[],"default_left":[0,0,0,0,0,0,0,0,0,0,0,0,0,0,0],"id":14,"left_children":[1,3,5,7,9,11,13,-1,-1,-1,-1,-1,-1,-1,-1],"loss_changes":[2.890523E2,4.491873E1,1.2657564E2,1.5828552E1,1.707331E1,8.800406E1,2.857423E1,0E0,0E0,0E0,0E0,0E0,0E0,0E0,0E0],"parents":[2147483647,0,0,1,1,2,2,3,3,4,4,5,5,6,6],"right_children":[2,4,6,8,10,12,14,-1,-1,-1,-1,-1,-1,-1,-1],"split_conditions":[-6.9529526E-3,-2.8435588E-3,5.5714196E-1,-1.11023055E5,-1.9591168E-2,9.9975586E-2,-1.480937E-3,6.411061E-3,2.6273578E-3,1.8549387E-3,4.0709611E-4,-4.5451074E-5,-4.9714115E-3,1.2171699E-3,-8.357985E-4],"split_indices":[0,4,1,10,6,8,4,0,0,0,0,0,0,0,0],"split_type":[0,0,0,0,0,0,0,0,0,0,0,0,0,0,0],"sum_hessian":[3.9172234E4,1.7403088E4,2.1769148E4,6.931515E3,1.0471572E4,5.5843643E3,1.6184784E4,3.6562006E2,6.565895E3,4.290162E3,6.18141E3,1.5641959E3,4.0201682E3,2.4718096E3,1.3712975E4],"tree_param":{"num_deleted":"0","num_feature":"30","num_nodes":"15","size_leaf_vector":"1"}},{"base_weights":[3.4604108E-4,8.775114E-2,-8.398884E-2,1.4120129E-1,3.8879402E-2,-2.3704973E-1,-4.120081E-2,3.2663783E-3,1.7209476E-3,1.0416727E-3,-7.9160085E-4,-9.642915E-4,-6.3774413E-3,1.0502792E-3,-1.0829988E-3],"categories":[],"categories_nodes":[],"categories_segments":[],"categories_sizes":[],"default_left":[0,0,0,0,0,0,0,0,0,0,0,0,0,0,0],"id":15,"left_children":[1,3,5,7,9,11,13,-1,-1,-1,-1,-1,-1,-1,-1],"loss_changes":[2.8794876E2,4.998517E1,1.299677E2,1.7431778E1,1.7118423E1,9.885655E1,3.1924234E1,0E0,0E0,0E0,0E0,0E0,0E0,0E0,0E0],"parents":[2147483647,0,0,1,1,2,2,3,3,4,4,5,5,6,6],"right_children":[2,4,6,8,10,12,14,-1,-1,-1,-1,-1,-1,-1,-1],"split_conditions":[-6.156119E-3,-2.5543335E-3,9.002686E-3,9.025429E-1,1.3244088E0,-3.1706236E1,9.9975586E-2,3.2663783E-3,1.7209476E-3,1.0416727E-3,-7.9160085E-4,-9.642915E-4,-6.3774413E-3,1.0502792E-3,-1.0829988E-3],"split_indices":[0,27,5,16,16,10,8,0,0,0,0,0,0,0,0],"split_type":[0,0,0,0,0,0,0,0,0,0,0,0,0,0,0],"sum_hessian":[3.9059344E4,1.9184479E4,1.9874865E4,9.154637E3,1.0029841E4,4.336777E3,1.553809E4,4.5106963E3,4.6439404E3,8.080196E3,1.9496448E3,1.7713788E3,2.565398E3,2.6022097E3,1.293588E4],"tree_param":{"num_deleted":"0","num_feature":"30","num_nodes":"15","size_leaf_vector":"1"}},{"base_weights":[-1.5616874E-3,7.557716E-2,-8.725052E-2,1.3651341E-1,3.4857757E-2,-2.3680705E-1,-3.8147584E-2,4.900404E-3,2.1213838E-3,-5.3541764E-4,1.0513135E-3,-6.8137394E-3,-2.270185E-3,-1.2753562E-3,2.7735476E-5],"categories":[],"categories_nodes":[],"categories_segments":[],"categories_sizes":[],"default_left":[0,0,0,0,0,0,0,0,0,0,0,0,0,0,0],"id":16,"left_children":[1,3,5,7,9,11,13,-1,-1,-1,-1,-1,-1,-1,-1],"loss_changes":[2.5836563E2,5.090188E1,1.3580768E2,1.8291168E1,2.0077675E1,7.373111E1,1.9077759E1,0E0,0E0,0E0,0E0,0E0,0E0,0E0,0E0],"parents":[2147483647,0,0,1,1,2,2,3,3,4,4,5,5,6,6],"right_children":[2,4,6,8,10,12,14,-1,-1,-1,-1,-1,-1,-1,-1],"split_conditions":[-5.627316E-3,-3.0337095E-3,5.21419E-1,9.9975586E-2,1.516E3,9.002686E-3,1.2142857E0,4.900404E-3,2.1213838E-3,-5.3541764E-4,1.0513135E-3,-6.8137394E-3,-2.270185E-3,-1.2753562E-3,2.7735476E-5],"split_indices":[0,27,1,8,11,5,1,0,0,0,0,0,0,0,0],"split_type":[0,0,0,0,0,0,0,0,0,0,0,0,0,0,0],"sum_hessian":[3.9082434E4,2.0563238E4,1.8519197E4,8.228337E3,1.2334901E4,4.572177E3,1.39470205E4,8.2270636E2,7.40563E3,3.3975125E3,8.937389E3,1.9033597E3,2.6688171E3,7.48864E3,6.458381E3],"tree_param":{"num_deleted":"0","num_feature":"30","num_nodes":"15","size_leaf_vector":"1"}},{"base_weights":[9.704575E-4,5.5764493E-2,-1.09451406E-1,1.2231352E-1,1.13913445E-2,-2.4763593E-1,-5.7804648E-2,4.7052163E-3,1.9119259E-3,9.902446E-4,-6.970856E-4,-3.0600138E-3,-8.07746E-3,3.7298363E-3,-1.2405921E-3],"categories":[],"categories_nodes":[],"categories_segments":[],"categories_sizes":[],"default_left":[0,0,0,0,0,0,0,0,0,0,0,0,0,0,0],"id":17,"left_children":[1,3,5,7,9,11,13,-1,-1,-1,-1,-1,-1,-1,-1],"loss_changes":[2.3613437E2,7.695584E1,9.212395E1,2.0340347E1,3.5884464E1,5.4233124E1,3.2254444E1,0E0,0E0,0E0,0E0,0E0,0E0,0E0,0E0],"parents":[2147483647,0,0,1,1,2,2,3,3,4,4,5,5,6,6],"right_children":[2,4,6,8,10,12,14,-1,-1,-1,-1,-1,-1,-1,-1],"split_conditions":[-3.7441878E-3,-1.8331409E-3,9.14E2,-6.849289E-3,-1.1361602E-2,-1.0779296E-3,4.0188484E7,4.7052163E-3,1.9119259E-3,9.902446E-4,-6.970856E-4,-3.0600138E-3,-8.07746E-3,3.7298363E-3,-1.2405921E-3],"split_indices":[0,4,11,7,6,0,28,0,0,0,0,0,0,0,0],"split_type":[0,0,0,0,0,0,0,0,0,0,0,0,0,0,0],"sum_hessian":[3.9029746E4,2.6090254E4,1.2939492E4,1.0429608E4,1.5660645E4,3.5148376E3,9.424654E3,8.8883636E2,9.540772E3,8.337014E3,7.3236313E3,2.6113596E3,9.03478E2,4.2020746E2,9.004447E3],"tree_param":{"num_deleted":"0","num_feature":"30","num_nodes":"15","size_leaf_vector":"1"}},{"base_weights":[2.4728295E-3,8.030904E-2,-7.899134E-2,1.3662888E-1,4.4164725E-2,-2.3454405E-1,-3.526856E-2,3.0494907E-3,1.5071406E-3,1.5579455E-3,1.2849015E-4,-1.2739518E-3,-6.046186E-3,-1.4010008E-3,3.1318064E-4],"categories":[],"categories_nodes":[],"categories_segments":[],"categories_sizes":[],"default_left":[0,0,0,0,0,0,0,0,0,0,0,0,0,0,0],"id":18,"left_children":[1,3,5,7,9,11,13,-1,-1,-1,-1,-1,-1,-1,-1],"loss_changes":[2.4763776E2,4.0529037E1,1.2955371E2,1.4384613E1,1.9857779E1,7.365405E1,3.5118675E1,0E0,0E0,0E0,0E0,0E0,0E0,0E0,0E0],"parents":[2147483647,0,0,1,1,2,2,3,3,4,4,5,5,6,6],"right_children":[2,4,6,8,10,12,14,-1,-1,-1,-1,-1,-1,-1,-1],"split_conditions":[-5.856948E-3,-3.26519E-3,9.002686E-3,2.3563838E7,6.457131E7,-3.1706236E1,3.5818E2,3.0494907E-3,1.5071406E-3,1.5579455E-3,1.2849015E-4,-1.2739518E-3,-6.046186E-3,-1.4010008E-3,3.1318064E-4],"split_indices":[0,27,5,15,28,10,21,0,0,0,0,0,0,0,0],"split_type":[0,0,0,0,0,0,0,0,0,0,0,0,0,0,0],"sum_hessian":[3.9050316E4,1.9974135E4,1.9076184E4,7.798446E3,1.2175688E4,4.180228E3,1.4895955E4,4.523269E3,3.2751768E3,5.5143677E3,6.6613203E3,1.6853447E3,2.494883E3,8.1200586E3,6.7758965E3],"tree_param":{"num_deleted":"0","num_feature":"30","num_nodes":"15","size_leaf_vector":"1"}},{"base_weights":[-7.546134E-4,8.3094485E-2,-8.1828564E-2,1.5488352E-1,4.7736883E-2,-2.2379044E-1,-3.714889E-2,5.531359E-3,2.3083517E-3,6.9318863E-4,4.227163E-3,-4.1314E-4,-5.3685196E-3,8.6686184E-4,-1.0059569E-3],"categories":[],"categories_nodes":[],"categories_segments":[],"categories_sizes":[],"default_left":[0,0,0,0,0,0,0,0,0,0,0,0,0,0,0],"id":19,"left_children":[1,3,5,7,9,11,13,-1,-1,-1,-1,-1,-1,-1,-1],"loss_changes":[2.65586E2,4.8586166E1,1.2581906E2,2.3523438E1,2.0455515E1,7.719298E1,2.6176151E1,0E0,0E0,0E0,0E0,0E0,0E0,0E0,0E0],"parents":[2147483647,0,0,1,1,2,2,3,3,4,4,5,5,6,6],"right_children":[2,4,6,8,10,12,14,-1,-1,-1,-1,-1,-1,-1,-1],"split_conditions":[-6.156119E-3,-3.3997893E-3,5.21419E-1,9.9990845E-2,7.9175624E7,8.999634E-2,-9.4115734E-4,5.531359E-3,2.3083517E-3,6.9318863E-4,4.227163E-3,-4.1314E-4,-5.3685196E-3,8.6686184E-4,-1.0059569E-3],"split_indices":[0,4,1,8,28,8,4,0,0,0,0,0,0,0,0],"split_type":[0,0,0,0,0,0,0,0,0,0,0,0,0,0,0],"sum_hessian":[3.90647E4,1.9199514E4,1.9865188E4,6.3271963E3,1.2872318E4,4.7499907E3,1.5115196E4,8.111272E2,5.5160693E3,1.2343649E4,5.286687E2,1.3750365E3,3.374954E3,2.8369849E3,1.2278211E4],"tree_param":{"num_deleted":"0","num_feature":"30","num_nodes":"15","size_leaf_vector":"1"}},{"base_weights":[-1.3273379E-3,6.8148434E-2,-8.594062E-2,1.338952E-1,2.9816981E-2,-2.402154E-1,-4.1723788E-2,3.9543933E-3,1.7723558E-3,1.3807925E-3,-1.3899022E-4,-1.4189286E-3,-6.07333E-3,3.1359133E-3,-8.985311E-4],"categories":[],"categories_nodes":[],"categories_segments":[],"categories_sizes":[],"default_left":[0,0,0,0,0,0,0,0,0,0,0,0,0,0,0],"id":20,"left_children":[1,3,5,7,9,11,13,-1,-1,-1,-1,-1,-1,-1,-1],"loss_changes":[2.300538E2,5.402346E1,1.2017743E2,2.3552048E1,2.497651E1,6.545029E1,2.8145824E1,0E0,0E0,0E0,0E0,0E0,0E0,0E0,0E0],"parents":[2147483647,0,0,1,1,2,2,3,3,4,4,5,5,6,6],"right_children":[2,4,6,8,10,12,14,-1,-1,-1,-1,-1,-1,-1,-1],"split_conditions":[-5.299511E-3,-2.6445985E-3,9.002686E-3,2.999878E-1,-1.5073275E-3,-1.6832352E-4,4.0188484E7,3.9543933E-3,1.7723558E-3,1.3807925E-3,-1.3899022E-4,-1.4189286E-3,-6.07333E-3,3.1359133E-3,-8.985311E-4],"split_indices":[0,4,5,13,27,7,28,0,0,0,0,0,0,0,0],"split_type":[0,0,0,0,0,0,0,0,0,0,0,0,0,0,0],"sum_hessian":[3.9128426E4,2.1481943E4,1.764648E4,7.9033696E3,1.3578574E4,3.9256812E3,1.3720799E4,2.1044626E3,5.798907E3,5.935806E3,7.642768E3,1.5617904E3,2.3638906E3,5.549186E2,1.3165881E4],"tree_param":{"num_deleted":"0","num_feature":"30","num_nodes":"15","size_leaf_vector":"1"}},{"base_weights":[-3.4867832E-3,8.2514696E-2,-7.3552676E-2,1.416349E-1,4.5550574E-2,-2.0660833E-1,-3.5873443E-2,5.375015E-3,2.2421046E-3,1.4136302E-3,6.0042847E-5,-4.4831092E-4,-5.2412073E-3,1.085636E-3,-9.838231E-4],"categories":[],"categories_nodes":[],"categories_segments":[],"categories_sizes":[],"default_left":[0,0,0,0,0,0,0,0,0,0,0,0,0,0,0],"id":21,"left_children":[1,3,5,7,9,11,13,-1,-1,-1,-1,-1,-1,-1,-1],"loss_changes":[2.3560701E2,3.8211998E1,1.0786484E2,1.5318665E1,1.5790619E1,7.833757E1,3.2866676E1,0E0,0E0,0E0,0E0,0E0,0E0,0E0,0E0],"parents":[2147483647,0,0,1,1,2,2,3,3,4,4,5,5,6,6],"right_children":[2,4,6,8,10,12,14,-1,-1,-1,-1,-1,-1,-1,-1],"split_conditions":[-6.885952E-3,-2.9636025E-3,5.0714546E-1,3.9978027E-2,-1.5462657E-2,9.9990845E-2,-1.2924075E-3,5.375015E-3,2.2421046E-3,1.4136302E-3,6.0042847E-5,-4.4831092E-4,-5.2412073E-3,1.085636E-3,-9.838231E-4],"split_indices":[0,4,1,8,6,8,4,0,0,0,0,0,0,0,0],"split_type":[0,0,0,0,0,0,0,0,0,0,0,0,0,0,0],"sum_hessian":[3.9097094E4,1.754797E4,2.1549123E4,6.741605E3,1.0806366E4,4.7497573E3,1.6799365E4,5.3052814E2,6.211077E3,5.9088154E3,4.897551E3,1.5950746E3,3.1546829E3,2.8564636E3,1.3942902E4],"tree_param":{"num_deleted":"0","num_feature":"30","num_nodes":"15","size_leaf_vector":"1"}},{"base_weights":[-1.140672E-3,7.885343E-2,-6.6256784E-2,1.0486526E-1,1.6951934E-2,-1.5218921E-1,-7.4519934E-3,2.6517736E-3,1.2964015E-3,-9.698558E-4,9.713049E-4,-2.4065492E-3,-1.1025501E-2,8.941264E-4,-5.2383926E-4],"categories":[],"categories_nodes":[],"categories_segments":[],"categories_sizes":[],"default_left":[0,0,0,0,0,0,0,0,0,0,0,0,0,0,0],"id":22,"left_children":[1,3,5,7,9,11,13,-1,-1,-1,-1,-1,-1,-1,-1],"loss_changes":[2.03347E2,2.8113815E1,1.0866501E2,1.744638E1,1.4322275E1,6.3203537E1,1.6621668E1,0E0,0E0,0E0,0E0,0E0,0E0,0E0,0E0],"parents":[2147483647,0,0,1,1,2,2,3,3,4,4,5,5,6,6],"right_children":[2,4,6,8,10,12,14,-1,-1,-1,-1,-1,-1,-1,-1],"split_conditions":[-6.885952E-3,1.1225992E0,1.27E3,-4.2169266E-3,1.9998169E-1,9.847318E1,-5.2702427E-4,2.6517736E-3,1.2964015E-3,-9.698558E-4,9.713049E-4,-2.4065492E-3,-1.1025501E-2,8.941264E-4,-5.2383926E-4],"split_indices":[0,16,11,27,5,14,7,0,0,0,0,0,0,0,0],"split_type":[0,0,0,0,0,0,0,0,0,0,0,0,0,0,0],"sum_hessian":[3.903618E4,1.7512031E4,2.1524146E4,1.232186E4,5.1901704E3,8.739022E3,1.2785125E4,4.9752427E3,7.3466177E3,1.7931014E3,3.397069E3,8.467999E3,2.710231E2,3.5319194E3,9.253205E3],"tree_param":{"num_deleted":"0","num_feature":"30","num_nodes":"15","size_leaf_vector":"1"}},{"base_weights":[-7.6852174E-4,6.665218E-2,-7.1302585E-2,1.2534694E-1,2.9017176E-2,-2.1048035E-1,-3.227808E-2,2.9095623E-3,1.5072224E-3,-1.0587569E-4,1.3489131E-3,-1.1975268E-3,-5.399196E-3,-1.598886E-3,2.9707775E-5],"categories":[],"categories_nodes":[],"categories_segments":[],"categories_sizes":[],"default_left":[0,0,0,0,0,0,0,0,0,0,0,0,0,0,0],"id":23,"left_children":[1,3,5,7,9,11,13,-1,-1,-1,-1,-1,-1,-1,-1],"loss_changes":[1.8581836E2,4.4007553E1,1.0356572E2,1.2182968E1,2.0382927E1,5.7074707E1,2.9767246E1,0E0,0E0,0E0,0E0,0E0,0E0,0E0,0E0],"parents":[2147483647,0,0,1,1,2,2,3,3,4,4,5,5,6,6],"right_children":[2,4,6,8,10,12,14,-1,-1,-1,-1,-1,-1,-1,-1],"split_conditions":[-5.856948E-3,-3.26519E-3,9.002686E-3,9.025429E-1,3.707E2,-3.1706236E1,1.209886E-3,2.9095623E-3,1.5072224E-3,-1.0587569E-4,1.3489131E-3,-1.1975268E-3,-5.399196E-3,-1.598886E-3,2.9707775E-5],"split_indices":[0,27,5,16,2,10,22,0,0,0,0,0,0,0,0],"split_type":[0,0,0,0,0,0,0,0,0,0,0,0,0,0,0],"sum_hessian":[3.9070297E4,1.997112E4,1.909918E4,7.7936724E3,1.2177446E4,4.1768613E3,1.4922318E4,3.8681511E3,3.9255212E3,7.0105522E3,5.1668945E3,1.6902312E3,2.4866301E3,5.481823E3,9.440495E3],"tree_param":{"num_deleted":"0","num_feature":"30","num_nodes":"15","size_leaf_vector":"1"}},{"base_weights":[-1.3112888E-3,5.2748214E-2,-1.0503556E-1,1.12751566E-1,1.6358182E-2,-2.2236162E-1,-2.7500378E-2,6.030385E-3,1.8181957E-3,5.077674E-4,-2.3252305E-3,-3.5452605E-3,-1.2705021E-2,-8.574645E-4,1.8086481E-3],"categories":[],"categories_nodes":[],"categories_segments":[],"categories_sizes":[],"default_left":[0,0,0,0,0,0,0,0,0,0,0,0,0,0,0],"id":24,"left_children":[1,3,5,7,9,11,13,-1,-1,-1,-1,-1,-1,-1,-1],"loss_changes":[2.1954362E2,5.609076E1,1.2186842E2,2.0630623E1,2.9695263E1,5.4691895E1,2.2342169E1,0E0,0E0,0E0,0E0,0E0,0E0,0E0,0E0],"parents":[2147483647,0,0,1,1,2,2,3,3,4,4,5,5,6,6],"right_children":[2,4,6,8,10,12,14,-1,-1,-1,-1,-1,-1,-1,-1],"split_conditions":[-6.4357207E-3,-1.8331409E-3,1.211E3,-1.11023055E5,9.130449E1,9.847318E1,9.268117E3,6.030385E-3,1.8181957E-3,5.077674E-4,-2.3252305E-3,-3.5452605E-3,-1.2705021E-2,-8.574645E-4,1.8086481E-3],"split_indices":[6,4,11,10,14,14,20,0,0,0,0,0,0,0,0],"split_type":[0,0,0,0,0,0,0,0,0,0,0,0,0,0,0],"sum_hessian":[3.914314E4,2.5728295E4,1.3414846E4,9.704242E3,1.6024054E4,5.3328374E3,8.0820083E3,3.7582504E2,9.328417E3,1.4785532E4,1.2385211E3,5.123106E3,2.0973155E2,6.9549224E3,1.127086E3],"tree_param":{"num_deleted":"0","num_feature":"30","num_nodes":"15","size_leaf_vector":"1"}},{"base_weights":[-3.0707186E-3,4.910883E-2,-1.0303205E-1,1.1426836E-1,6.046231E-3,-2.1076797E-1,-3.1654857E-2,4.480108E-3,1.7703441E-3,-1.3382392E-3,4.7303195E-4,-3.086525E-3,-9.038775E-3,1.8690119E-3,-8.6984254E-4],"categories":[],"categories_nodes":[],"categories_segments":[],"categories_sizes":[],"default_left":[0,0,0,0,0,0,0,0,0,0,0,0,0,0,0],"id":25,"left_children":[1,3,5,7,9,11,13,-1,-1,-1,-1,-1,-1,-1,-1],"loss_changes":[2.0428839E2,7.209746E1,1.0313393E2,1.9301514E1,2.6488117E1,5.6629272E1,1.9804092E1,0E0,0E0,0E0,0E0,0E0,0E0,0E0,0E0],"parents":[2147483647,0,0,1,1,2,2,3,3,4,4,5,5,6,6],"right_children":[2,4,6,8,10,12,14,-1,-1,-1,-1,-1,-1,-1,-1],"split_conditions":[-6.4357207E-3,-1.6177297E-3,1.211E3,-6.849289E-3,7.5E-1,-5.293322E-4,5.4445056E7,4.480108E-3,1.7703441E-3,-1.3382392E-3,4.7303195E-4,-3.086525E-3,-9.038775E-3,1.8690119E-3,-8.6984254E-4],"split_indices":[6,4,11,7,1,0,28,0,0,0,0,0,0,0,0],"split_type":[0,0,0,0,0,0,0,0,0,0,0,0,0,0,0],"sum_hessian":[3.915538E4,2.5722457E4,1.3432921E4,1.0227639E4,1.5494819E4,5.347768E3,8.0851523E3,8.986456E2,9.328993E3,3.1289644E3,1.23658545E4,4.7939546E3,5.5381335E2,9.18266E2,7.1668867E3],"tree_param":{"num_deleted":"0","num_feature":"30","num_nodes":"15","size_leaf_vector":"1"}},{"base_weights":[5.5302674E-4,6.0193583E-2,-8.039794E-2,1.1156877E-1,1.3354471E-2,-1.7082827E-1,2.574737E-3,3.362995E-3,1.530263E-3,-4.2841106E-4,1.0552122E-3,-4.1803013E-4,-3.8712628E-3,3.328479E-3,-1.232343E-4],"categories":[],"categories_nodes":[],"categories_segments":[],"categories_sizes":[],"default_left":[0,0,0,0,0,0,0,0,0,0,0,0,0,0,0],"id":26,"left_children":[1,3,5,7,9,11,13,-1,-1,-1,-1,-1,-1,-1,-1],"loss_changes":[1.8880139E2,5.411084E1,1.24560936E2,2.0784271E1,2.0754025E1,5.7286118E1,1.5584888E1,0E0,0E0,0E0,0E0,0E0,0E0,0E0,0E0],"parents":[2147483647,0,0,1,1,2,2,3,3,4,4,5,5,6,6],"right_children":[2,4,6,8,10,12,14,-1,-1,-1,-1,-1,-1,-1,-1],"split_conditions":[-8.064516E-3,-9.626746E-4,1.46E3,5.5681724E7,3.491E2,-5.068779E-4,1.9913058E7,3.362995E-3,1.530263E-3,-4.2841106E-4,1.0552122E-3,-4.1803013E-4,-3.8712628E-3,3.328479E-3,-1.232343E-4],"split_indices":[6,4,11,28,26,7,15,0,0,0,0,0,0,0,0],"split_type":[0,0,0,0,0,0,0,0,0,0,0,0,0,0,0],"sum_hessian":[3.910487E4,2.2521271E4,1.6583598E4,1.0732345E4,1.1788927E4,7.938164E3,8.645434E3,2.523916E3,8.20843E3,6.5102E3,5.278727E3,1.9943779E3,5.943786E3,4.2386157E2,8.221571E3],"tree_param":{"num_deleted":"0","num_feature":"30","num_nodes":"15","size_leaf_vector":"1"}},{"base_weights":[1.5252737E-3,5.1406987E-2,-9.4178446E-2,1.1705656E-1,7.950943E-3,-1.988806E-1,-2.5151104E-2,3.4230186E-3,1.6204913E-3,-1.6599714E-3,4.758308E-4,-3.1571873E-3,-1.2000983E-2,6.341306E-4,-9.6840697E-4],"categories":[],"categories_nodes":[],"categories_segments":[],"categories_sizes":[],"default_left":[0,0,0,0,0,0,0,0,0,0,0,0,0,0,0],"id":27,"left_children":[1,3,5,7,9,11,13,-1,-1,-1,-1,-1,-1,-1,-1],"loss_changes":[1.8674162E2,7.3298355E1,9.668465E1,1.9569336E1,3.0209784E1,4.913098E1,1.4800475E1,0E0,0E0,0E0,0E0,0E0,0E0,0E0,0E0],"parents":[2147483647,0,0,1,1,2,2,3,3,4,4,5,5,6,6],"right_children":[2,4,6,8,10,12,14,-1,-1,-1,-1,-1,-1,-1,-1],"split_conditions":[-6.4357207E-3,-1.6177297E-3,1.211E3,5.6080984E7,9.002686E-3,9.847318E1,6.443739E7,3.4230186E-3,1.6204913E-3,-1.6599714E-3,4.758308E-4,-3.1571873E-3,-1.2000983E-2,6.341306E-4,-9.6840697E-4],"split_indices":[6,4,11,28,5,14,28,0,0,0,0,0,0,0,0],"split_type":[0,0,0,0,0,0,0,0,0,0,0,0,0,0,0],"sum_hessian":[3.9119773E4,2.57215E4,1.3398275E4,1.0237155E4,1.5484345E4,5.318134E3,8.080142E3,2.4832026E3,7.7539526E3,2.4287527E3,1.3055592E4,5.116433E3,2.0170052E2,2.644038E3,5.436104E3],"tree_param":{"num_deleted":"0","num_feature":"30","num_nodes":"15","size_leaf_vector":"1"}},{"base_weights":[-4.281114E-3,5.2014824E-2,-8.023203E-2,1.14566095E-1,1.9023888E-2,-1.9644123E-1,-3.6426883E-2,2.1971082E-3,-1.1825574E-3,-1.5949316E-3,6.7866273E-4,-1.6861466E-3,-5.8420994E-3,2.5512862E-3,-8.167201E-4],"categories":[],"categories_nodes":[],"categories_segments":[],"categories_sizes":[],"default_left":[0,0,0,0,0,0,0,0,0,0,0,0,0,0,0],"id":28,"left_children":[1,3,5,7,9,11,13,-1,-1,-1,-1,-1,-1,-1,-1],"loss_changes":[1.6711697E2,4.6210903E1,8.454051E1,1.4569199E1,3.1492197E1,6.173726E1,2.1872892E1,0E0,0E0,0E0,0E0,0E0,0E0,0E0,0E0],"parents":[2147483647,0,0,1,1,2,2,3,3,4,4,5,5,6,6],"right_children":[2,4,6,8,10,12,14,-1,-1,-1,-1,-1,-1,-1,-1],"split_conditions":[-8.064516E-3,-3.26519E-3,5.499987E-1,4.778981E-3,9.002686E-3,3.1757355E-4,-2.4896264E-3,2.1971082E-3,-1.1825574E-3,-1.5949316E-3,6.7866273E-4,-1.6861466E-3,-5.8420994E-3,2.5512862E-3,-8.167201E-4],"split_indices":[6,27,1,4,5,7,7,0,0,0,0,0,0,0,0],"split_type":[0,0,0,0,0,0,0,0,0,0,0,0,0,0,0],"sum_hessian":[3.9076758E4,2.2437418E4,1.663934E4,7.7389116E3,1.4698506E4,4.549059E3,1.2090281E4,7.3274966E3,4.1141492E2,2.2173394E3,1.2481166E4,2.6164207E3,1.9326385E3,6.262975E2,1.1463983E4],"tree_param":{"num_deleted":"0","num_feature":"30","num_nodes":"15","size_leaf_vector":"1"}},{"base_weights":[-7.134786E-4,-1.1265025E-1,3.784715E-2,1.3901818E-1,-1.454319E-1,1.0807092E-1,4.030187E-3,5.197041E-3,1.3833926E-3,-7.981493E-4,-3.9663874E-3,3.9175507E-3,1.6475349E-3,1.0193526E-3,-2.6613788E-4],"categories":[],"categories_nodes":[],"categories_segments":[],"categories_sizes":[],"default_left":[0,0,0,0,0,0,0,0,0,0,0,0,0,0,0],"id":29,"left_children":[1,3,5,7,9,11,13,-1,-1,-1,-1,-1,-1,-1,-1],"loss_changes":[1.686804E2,8.266335E1,6.8916534E1,1.058526E1,7.076247E1,1.5346077E1,2.029133E1,0E0,0E0,0E0,0E0,0E0,0E0,0E0,0E0],"parents":[2147483647,0,0,1,1,2,2,3,3,4,4,5,5,6,6],"right_children":[2,4,6,8,10,12,14,-1,-1,-1,-1,-1,-1,-1,-1],"split_conditions":[7.4285454E-1,6.4386444E7,3.6601654E1,2.285723E-1,-2.07901E-4,1.8182828E-1,-1.2129332E-3,5.197041E-3,1.3833926E-3,-7.981493E-4,-3.9663874E-3,3.9175507E-3,1.6475349E-3,1.0193526E-3,-2.6613788E-4],"split_indices":[1,28,14,1,4,13,29,0,0,0,0,0,0,0,0],"split_type":[0,0,0,0,0,0,0,0,0,0,0,0,0,0,0],"sum_hessian":[3.9063758E4,1.0012567E4,2.905119E4,1.150792E3,8.861775E3,9.43475E3,1.961644E4,3.153831E2,8.354089E2,3.9425657E3,4.919209E3,1.0466116E3,8.388139E3,5.151591E3,1.4464849E4],"tree_param":{"num_deleted":"0","num_feature":"30","num_nodes":"15","size_leaf_vector":"1"}},{"base_weights":[-3.0843474E-3,5.353045E-2,-7.2188355E-2,1.1448091E-1,1.8769225E-2,-2.0859136E-1,-3.3331696E-2,6.325453E-3,1.8673656E-3,-2.1242641E-4,1.0397455E-3,-5.2834773E-3,-1.3225772E-3,6.109454E-4,-1.0429935E-3],"categories":[],"categories_nodes":[],"categories_segments":[],"categories_sizes":[],"default_left":[0,0,0,0,0,0,0,0,0,0,0,0,0,0,0],"id":30,"left_children":[1,3,5,7,9,11,13,-1,-1,-1,-1,-1,-1,-1,-1],"loss_changes":[1.5285544E2,4.539087E1,9.309616E1,1.55336E1,1.7050707E1,4.7391083E1,2.4221611E1,0E0,0E0,0E0,0E0,0E0,0E0,0E0,0E0],"parents":[2147483647,0,0,1,1,2,2,3,3,4,4,5,5,6,6],"right_children":[2,4,6,8,10,12,14,-1,-1,-1,-1,-1,-1,-1,-1],"split_conditions":[-5.299511E-3,-3.26519E-3,9.002686E-3,-1.1977732E-2,3.7115833E2,6.500026E-1,6.458682E7,6.325453E-3,1.8673656E-3,-2.1242641E-4,1.0397455E-3,-5.2834773E-3,-1.3225772E-3,6.109454E-4,-1.0429935E-3],"split_indices":[0,27,5,7,9,1,28,0,0,0,0,0,0,0,0],"split_type":[0,0,0,0,0,0,0,0,0,0,0,0,0,0,0],"sum_hessian":[3.9063348E4,2.1466799E4,1.759655E4,7.7877324E3,1.3679065E4,3.895571E3,1.37009795E4,2.510615E2,7.536671E3,7.7422065E3,5.9368594E3,2.3041501E3,1.5914209E3,3.774679E3,9.926301E3],"tree_param":{"num_deleted":"0","num_feature":"30","num_nodes":"15","size_leaf_vector":"1"}},{"base_weights":[-2.8458757E-3,-1.73594E-1,2.3159524E-2,-9.469792E-2,-3.815471E-1,7.2539106E-2,-3.1455096E-2,1.9620216E-4,-2.9278903E-3,-9.001107E-3,-4.5962324E-3,2.3027265E-3,7.9698727E-4,1.6375261E-3,-7.885689E-4],"categories":[],"categories_nodes":[],"categories_segments":[],"categories_sizes":[],"default_left":[0,0,0,0,0,0,0,0,0,0,0,0,0,0,0],"id":31,"left_children":[1,3,5,7,9,11,13,-1,-1,-1,-1,-1,-1,-1,-1],"loss_changes":[1.735611E2,8.437315E1,9.144862E1,2.8581459E1,2.1405563E1,2.8171844E1,2.675678E1,0E0,0E0,0E0,0E0,0E0,0E0,0E0,0E0],"parents":[2147483647,0,0,1,1,2,2,3,3,4,4,5,5,6,6],"right_children":[2,4,6,8,10,12,14,-1,-1,-1,-1,-1,-1,-1,-1],"split_conditions":[8.58E2,-1.765243E-3,-6.427584E-3,-6.079674E-4,9.002686E-3,-3.8301349E-3,5.309408E7,1.9620216E-4,-2.9278903E-3,-9.001107E-3,-4.5962324E-3,2.3027265E-3,7.9698727E-4,1.6375261E-3,-7.885689E-4],"split_indices":[11,0,0,4,5,4,28,0,0,0,0,0,0,0,0],"split_type":[0,0,0,0,0,0,0,0,0,0,0,0,0,0,0],"sum_hessian":[3.9060266E4,5.164737E3,3.389553E4,3.7485999E3,1.416137E3,1.7807154E4,1.6088376E4,1.510842E3,2.2377578E3,6.747614E2,7.413755E2,5.657321E3,1.2149834E4,1.5533673E3,1.4535009E4],"tree_param":{"num_deleted":"0","num_feature":"30","num_nodes":"15","size_leaf_vector":"1"}},{"base_weights":[2.8037573E-3,-9.260097E-2,4.223109E-2,-2.1920371E-1,-3.174006E-2,1.1771078E-1,1.679E-2,-6.572533E-4,-6.4636893E-3,1.3291106E-3,-1.7828776E-3,3.468554E-3,1.3267582E-3,9.046542E-4,-1.7068144E-4],"categories":[],"categories_nodes":[],"categories_segments":[],"categories_sizes":[],"default_left":[0,0,0,0,0,0,0,0,0,0,0,0,0,0,0],"id":32,"left_children":[1,3,5,7,9,11,13,-1,-1,-1,-1,-1,-1,-1,-1],"loss_changes":[1.4655023E2,8.75789E1,5.2863598E1,9.923595E1,5.751186E1,2.3122612E1,1.8959938E1,0E0,0E0,0E0,0E0,0E0,0E0,0E0,0E0],"parents":[2147483647,0,0,1,1,2,2,3,3,4,4,5,5,6,6],"right_children":[2,4,6,8,10,12,14,-1,-1,-1,-1,-1,-1,-1,-1],"split_conditions":[1.318E3,9.002686E-3,-3.0333996E-3,-3.1706236E1,-8.152153E-3,3.6361113E-1,8.164367E-4,-6.572533E-4,-6.4636893E-3,1.3291106E-3,-1.7828776E-3,3.468554E-3,1.3267582E-3,9.046542E-4,-1.7068144E-4],"split_indices":[11,5,4,10,6,13,29,0,0,0,0,0,0,0,0],"split_type":[0,0,0,0,0,0,0,0,0,0,0,0,0,0,0],"sum_hessian":[3.896529E4,1.1388336E4,2.7576955E4,3.6920203E3,7.696316E3,6.943354E3,2.06336E4,1.6608582E3,2.0311622E3,3.0242908E3,4.6720254E3,2.404564E3,4.53879E3,8.953561E3,1.168004E4],"tree_param":{"num_deleted":"0","num_feature":"30","num_nodes":"15","size_leaf_vector":"1"}},{"base_weights":[-2.9074864E-3,4.8635278E-2,-8.92518E-2,9.831994E-2,1.4620484E-2,-1.7931178E-1,-2.9867375E-2,3.6682717E-3,1.4011342E-3,-1.570715E-3,5.872334E-4,-2.595836E-3,-8.5483575E-3,1.1127472E-2,-5.8726047E-4],"categories":[],"categories_nodes":[],"categories_segments":[],"categories_sizes":[],"default_left":[0,0,0,0,0,0,0,0,0,0,0,0,0,0,0],"id":33,"left_children":[1,3,5,7,9,11,13,-1,-1,-1,-1,-1,-1,-1,-1],"loss_changes":[1.7383804E2,4.124268E1,7.795014E1,2.0206848E1,2.8273476E1,5.589839E1,2.0116472E1,0E0,0E0,0E0,0E0,0E0,0E0,0E0,0E0],"parents":[2147483647,0,0,1,1,2,2,3,3,4,4,5,5,6,6],"right_children":[2,4,6,8,10,12,14,-1,-1,-1,-1,-1,-1,-1,-1],"split_conditions":[-7.027372E-3,-1.6177297E-3,1.211E3,9.9990845E-2,9.002686E-3,-4.7907117E-4,1.7857143E-1,3.6682717E-3,1.4011342E-3,-1.570715E-3,5.872334E-4,-2.595836E-3,-8.5483575E-3,1.1127472E-2,-5.8726047E-4],"split_indices":[6,4,11,8,5,0,1,0,0,0,0,0,0,0,0],"split_type":[0,0,0,0,0,0,0,0,0,0,0,0,0,0,0],"sum_hessian":[3.9051E4,2.4449139E4,1.4601861E4,9.926308E3,1.4522831E4,5.796212E3,8.805649E3,1.4309456E3,8.495362E3,2.2142449E3,1.2308587E4,5.256547E3,5.3966516E2,4.3615635E1,8.762033E3],"tree_param":{"num_deleted":"0","num_feature":"30","num_nodes":"15","size_leaf_vector":"1"}},{"base_weights":[1.3157908E-3,3.799011E-2,-1.0695931E-1,9.369402E-2,5.7580518E-3,-2.1304515E-1,-1.3007899E-2,3.686445E-3,1.41266E-3,-5.803534E-4,1.0206689E-3,-5.5492655E-3,-2.424489E-3,-1.3883917E-4,-1.4309232E-2],"categories":[],"categories_nodes":[],"categories_segments":[],"categories_sizes":[],"default_left":[0,0,0,0,0,0,0,0,0,0,0,0,0,0,0],"id":34,"left_children":[1,3,5,7,9,11,13,-1,-1,-1,-1,-1,-1,-1,-1],"loss_changes":[1.5503896E2,5.2319687E1,9.8282486E1,1.6359474E1,3.74623E1,3.530974E1,2.089734E1,0E0,0E0,0E0,0E0,0E0,0E0,0E0,0E0],"parents":[2147483647,0,0,1,1,2,2,3,3,4,4,5,5,6,6],"right_children":[2,4,6,8,10,12,14,-1,-1,-1,-1,-1,-1,-1,-1],"split_conditions":[-4.8379293E-3,-2.0390935E-3,1.421E3,7.998657E-2,3.595E2,4.3571472E-1,7.248921E2,3.686445E-3,1.41266E-3,-5.803534E-4,1.0206689E-3,-5.5492655E-3,-2.424489E-3,-1.3883917E-4,-1.4309232E-2],"split_indices":[6,27,11,8,26,1,3,0,0,0,0,0,0,0,0],"split_type":[0,0,0,0,0,0,0,0,0,0,0,0,0,0,0],"sum_hessian":[3.905164E4,2.9176645E4,9.874998E3,1.0685309E4,1.8491334E4,4.6334365E3,5.241562E3,1.0997532E3,9.585556E3,1.0611271E4,7.880063E3,1.9564546E3,2.6769817E3,5.2110244E3,3.0537558E1],"tree_param":{"num_deleted":"0","num_feature":"30","num_nodes":"15","size_leaf_vector":"1"}},{"base_weights":[9.38625E-4,3.2897983E-2,-1.0377954E-1,8.991257E-2,-1.8902675E-3,-2.884834E-1,-6.2035613E-2,3.832141E-3,1.2648468E-3,-9.918254E-4,4.971699E-4,-5.7065976E-3,3.4183927E-3,-2.0391336E-3,-3.8991024E-4],"categories":[],"categories_nodes":[],"categories_segments":[],"categories_sizes":[],"default_left":[0,0,0,0,0,0,0,0,0,0,0,0,0,0,0],"id":35,"left_children":[1,3,5,7,9,11,13,-1,-1,-1,-1,-1,-1,-1,-1],"loss_changes":[1.3046573E2,5.9332954E1,6.999637E1,2.5890053E1,3.0499025E1,2.9243103E1,1.5878902E1,0E0,0E0,0E0,0E0,0E0,0E0,0E0,0E0],"parents":[2147483647,0,0,1,1,2,2,3,3,4,4,5,5,6,6],"right_children":[2,4,6,8,10,12,14,-1,-1,-1,-1,-1,-1,-1,-1],"split_conditions":[-2.636743E-3,-1.6494393E-3,3.8571602E-1,1.8182828E-1,1.5303078E-3,4.633509E-3,3.1815833E2,3.832141E-3,1.2648468E-3,-9.918254E-4,4.971699E-4,-5.7065976E-3,3.4183927E-3,-2.0391336E-3,-3.8991024E-4],"split_indices":[0,4,1,13,22,27,9,0,0,0,0,0,0,0,0],"split_type":[0,0,0,0,0,0,0,0,0,0,0,0,0,0,0],"sum_hessian":[3.8993727E4,2.988181E4,9.111918E3,1.1329871E4,1.855194E4,1.67462E3,7.4372983E3,1.3918835E3,9.937987E3,6.616265E3,1.1935674E4,1.5606973E3,1.1392271E2,3.1547437E3,4.2825547E3],"tree_param":{"num_deleted":"0","num_feature":"30","num_nodes":"15","size_leaf_vector":"1"}},{"base_weights":[6.31955E-3,6.0019214E-2,-6.6718824E-2,9.667532E-2,1.2689661E-2,-1.5492582E-1,-9.463506E-3,2.8161595E-3,1.3570416E-3,-1.5144519E-3,6.879261E-4,-7.836208E-4,-3.9305678E-3,1.6452646E-3,-5.052152E-4],"categories":[],"categories_nodes":[],"categories_segments":[],"categories_sizes":[],"default_left":[0,0,0,0,0,0,0,0,0,0,0,0,0,0,0],"id":36,"left_children":[1,3,5,7,9,11,13,-1,-1,-1,-1,-1,-1,-1,-1],"loss_changes":[1.5323729E2,3.8996162E1,8.34642E1,1.5527405E1,2.564306E1,4.9003525E1,1.9869802E1,0E0,0E0,0E0,0E0,0E0,0E0,0E0,0E0],"parents":[2147483647,0,0,1,1,2,2,3,3,4,4,5,5,6,6],"right_children":[2,4,6,8,10,12,14,-1,-1,-1,-1,-1,-1,-1,-1],"split_conditions":[-8.064516E-3,0E0,1.223E3,2.1436778E7,1.370088E-3,-3.1706236E1,-1.529038E-3,2.8161595E-3,1.3570416E-3,-1.5144519E-3,6.879261E-4,-7.836208E-4,-3.9305678E-3,1.6452646E-3,-5.052152E-4],"split_indices":[6,4,11,15,22,10,4,0,0,0,0,0,0,0,0],"split_type":[0,0,0,0,0,0,0,0,0,0,0,0,0,0,0],"sum_hessian":[3.906717E4,2.2519766E4,1.6547408E4,1.2681606E4,9.838159E3,6.507237E3,1.0040171E4,2.9768843E3,9.704723E3,2.0693354E3,7.7688237E3,2.49641E3,4.010827E3,1.5746572E3,8.465514E3],"tree_param":{"num_deleted":"0","num_feature":"30","num_nodes":"15","size_leaf_vector":"1"}},{"base_weights":[1.9065029E-3,5.5367555E-2,-7.079913E-2,9.888306E-2,1.9882808E-2,-1.6136308E-1,-1.2551334E-2,2.5720198E-3,1.3010929E-3,6.237986E-4,-1.1889308E-3,-4.5883562E-3,-1.5863811E-3,4.115495E-3,-3.7100847E-4],"categories":[],"categories_nodes":[],"categories_segments":[],"categories_sizes":[],"default_left":[0,0,0,0,0,0,0,0,0,0,0,0,0,0,0],"id":37,"left_children":[1,3,5,7,9,11,13,-1,-1,-1,-1,-1,-1,-1,-1],"loss_changes":[1.5179082E2,3.467537E1,8.714555E1,1.1743553E1,1.68863E1,4.552173E1,2.1060213E1,0E0,0E0,0E0,0E0,0E0,0E0,0E0,0E0],"parents":[2147483647,0,0,1,1,2,2,3,3,4,4,5,5,6,6],"right_children":[2,4,6,8,10,12,14,-1,-1,-1,-1,-1,-1,-1,-1],"split_conditions":[-8.064516E-3,-2.1447523E-3,1.211E3,-4.950464E-3,8.5227394E1,4.3571472E-1,1.9091196E7,2.5720198E-3,1.3010929E-3,6.237986E-4,-1.1889308E-3,-4.5883562E-3,-1.5863811E-3,4.115495E-3,-3.7100847E-4],"split_indices":[6,27,11,4,14,1,15,0,0,0,0,0,0,0,0],"split_type":[0,0,0,0,0,0,0,0,0,0,0,0,0,0,0],"sum_hessian":[3.9050594E4,2.2509225E4,1.6541367E4,1.0100349E4,1.2408877E4,6.468699E3,1.0072668E4,3.4731895E3,6.627159E3,1.0540918E4,1.867959E3,2.692976E3,3.7757231E3,3.328165E2,9.739852E3],"tree_param":{"num_deleted":"0","num_feature":"30","num_nodes":"15","size_leaf_vector":"1"}},{"base_weights":[1.4802505E-3,4.5012053E-2,-8.1832975E-2,9.703258E-2,1.3386698E-2,-1.6519274E-1,-7.3640733E-3,4.138795E-3,1.4587952E-3,-1.3977422E-3,5.403119E-4,-2.59513E-3,-1.0691581E-2,1.06956E-2,-1.8620207E-4],"categories":[],"categories_nodes":[],"categories_segments":[],"categories_sizes":[],"default_left":[0,0,0,0,0,0,0,0,0,0,0,0,0,0,0],"id":38,"left_children":[1,3,5,7,9,11,13,-1,-1,-1,-1,-1,-1,-1,-1],"loss_changes":[1.416339E2,4.2136883E1,8.3058846E1,1.8657608E1,2.565233E1,4.8766083E1,1.3635188E1,0E0,0E0,0E0,0E0,0E0,0E0,0E0,0E0],"parents":[2147483647,0,0,1,1,2,2,3,3,4,4,5,5,6,6],"right_children":[2,4,6,8,10,12,14,-1,-1,-1,-1,-1,-1,-1,-1],"split_conditions":[-6.4357207E-3,-1.8331409E-3,1.421E3,3.9978027E-2,9.002686E-3,1E2,1.7857143E-1,4.138795E-3,1.4587952E-3,-1.3977422E-3,5.403119E-4,-2.59513E-3,-1.0691581E-2,1.06956E-2,-1.8620207E-4],"split_indices":[6,4,11,8,5,14,1,0,0,0,0,0,0,0,0],"split_type":[0,0,0,0,0,0,0,0,0,0,0,0,0,0,0],"sum_hessian":[3.9055395E4,2.565798E4,1.3397415E4,9.6912705E3,1.596671E4,6.315929E3,7.081486E3,8.9087317E2,8.800397E3,2.5037483E3,1.3462962E4,6.077079E3,2.3885025E2,3.3892994E1,7.047593E3],"tree_param":{"num_deleted":"0","num_feature":"30","num_nodes":"15","size_leaf_vector":"1"}},{"base_weights":[-2.7561712E-4,3.0395737E-2,-1.0483298E-1,1.0126965E-1,4.9405023E-3,-2.704838E-1,-5.4085292E-2,1.9511593E-3,-1.9278098E-3,-5.0734665E-4,8.82008E-4,-5.7518138E-3,-9.668306E-4,7.388481E-4,-1.541017E-3],"categories":[],"categories_nodes":[],"categories_segments":[],"categories_sizes":[],"default_left":[0,0,0,0,0,0,0,0,0,0,0,0,0,0,0],"id":39,"left_children":[1,3,5,7,9,11,13,-1,-1,-1,-1,-1,-1,-1,-1],"loss_changes":[1.2523467E2,5.4368866E1,7.42205E1,1.6203209E1,3.3922314E1,2.4932617E1,2.1885418E1,0E0,0E0,0E0,0E0,0E0,0E0,0E0,0E0],"parents":[2147483647,0,0,1,1,2,2,3,3,4,4,5,5,6,6],"right_children":[2,4,6,8,10,12,14,-1,-1,-1,-1,-1,-1,-1,-1],"split_conditions":[-2.5518837E-3,-3.1842655E-3,9.002686E-3,5.5806637E-3,3.595E2,3.4076655E3,6.457131E7,1.9511593E-3,-1.9278098E-3,-5.0734665E-4,8.82008E-4,-5.7518138E-3,-9.668306E-4,7.388481E-4,-1.541017E-3],"split_indices":[0,27,5,4,26,20,28,0,0,0,0,0,0,0,0],"split_type":[0,0,0,0,0,0,0,0,0,0,0,0,0,0,0],"sum_hessian":[3.903178E4,3.0174936E4,8.856844E3,7.9652144E3,2.220972E4,2.0719297E3,6.7849146E3,7.6212153E3,3.4399918E2,1.2701704E4,9.508017E3,1.6386576E3,4.3327206E2,1.7488368E3,5.0360776E3],"tree_param":{"num_deleted":"0","num_feature":"30","num_nodes":"15","size_leaf_vector":"1"}},{"base_weights":[-1.6654882E-3,3.901229E-2,-8.564698E-2,8.030056E-2,-5.953786E-3,-2.264818E-1,-5.156182E-2,2.4287074E-3,9.864498E-4,-1.0099562E-3,9.7022305E-4,-2.4016632E-5,-5.856273E-3,-1.2185861E-3,7.6570373E-4],"categories":[],"categories_nodes":[],"categories_segments":[],"categories_sizes":[],"default_left":[0,0,0,0,0,0,0,0,0,0,0,0,0,0,0],"id":40,"left_children":[1,3,5,7,9,11,13,-1,-1,-1,-1,-1,-1,-1,-1],"loss_changes":[1.335336E2,4.8920006E1,6.1028503E1,1.9064568E1,3.9597168E1,5.9197144E1,1.7321678E1,0E0,0E0,0E0,0E0,0E0,0E0,0E0,0E0],"parents":[2147483647,0,0,1,1,2,2,3,3,4,4,5,5,6,6],"right_children":[2,4,6,8,10,12,14,-1,-1,-1,-1,-1,-1,-1,-1],"split_conditions":[-6.140997E-3,-4.0745735E-4,4.2142597E-1,-1.664289E-2,3.422E2,8.999634E-2,5.144087E3,2.4287074E-3,9.864498E-4,-1.0099562E-3,9.7022305E-4,-2.4016632E-5,-5.856273E-3,-1.2185861E-3,7.6570373E-4],"split_indices":[6,4,1,0,26,8,10,0,0,0,0,0,0,0,0],"split_type":[0,0,0,0,0,0,0,0,0,0,0,0,0,0,0],"sum_hessian":[3.907547E4,2.6319893E4,1.2755577E4,1.3728216E4,1.2591677E4,2.4795688E3,1.0276009E4,4.0470918E3,9.681124E3,6.8417275E3,5.749949E3,7.9839685E2,1.681172E3,8.669737E3,1.606271E3],"tree_param":{"num_deleted":"0","num_feature":"30","num_nodes":"15","size_leaf_vector":"1"}},{"base_weights":[-7.8465673E-4,-1.5025046E-1,1.9559404E-2,-9.798171E-3,-2.511387E-1,7.2210945E-2,-1.7802557E-2,3.407716E-3,-1.7263849E-3,-3.8260699E-3,-8.618169E-3,7.651469E-3,1.2121107E-3,-1.397161E-3,1.5507406E-4],"categories":[],"categories_nodes":[],"categories_segments":[],"categories_sizes":[],"default_left":[0,0,0,0,0,0,0,0,0,0,0,0,0,0,0],"id":41,"left_children":[1,3,5,7,9,11,13,-1,-1,-1,-1,-1,-1,-1,-1],"loss_changes":[1.18869026E2,6.618825E1,6.766856E1,3.525019E1,2.1199203E1,1.6771393E1,3.301595E1,0E0,0E0,0E0,0E0,0E0,0E0,0E0,0E0],"parents":[2147483647,0,0,1,1,2,2,3,3,4,4,5,5,6,6],"right_children":[2,4,6,8,10,12,14,-1,-1,-1,-1,-1,-1,-1,-1],"split_conditions":[8.24E2,-3.1358004E-4,-6.4006535E-4,4.9804688E-2,-4.7907117E-4,-2.951185E5,1.414466E-3,3.407716E-3,-1.7263849E-3,-3.8260699E-3,-8.618169E-3,7.651469E-3,1.2121107E-3,-1.397161E-3,1.5507406E-4],"split_indices":[11,4,27,8,0,10,22,0,0,0,0,0,0,0,0],"split_type":[0,0,0,0,0,0,0,0,0,0,0,0,0,0,0],"sum_hessian":[3.9059004E4,4.6820283E3,3.4376977E4,1.9609457E3,2.7210828E3,1.4275728E4,2.0101248E4,5.9051324E2,1.3704325E3,2.3904102E3,3.306727E2,1.25235954E2,1.4150491E4,6.0708574E3,1.4030391E4],"tree_param":{"num_deleted":"0","num_feature":"30","num_nodes":"15","size_leaf_vector":"1"}},{"base_weights":[7.7928934E-4,4.2403612E-2,-7.913864E-2,1.1377859E-1,1.5605817E-2,-1.4961135E-1,-1.4317567E-2,3.4071787E-3,1.471902E-3,-1.441E-3,5.991506E-4,-2.1171214E-3,-7.1720183E-3,9.4148E-3,-3.074183E-4],"categories":[],"categories_nodes":[],"categories_segments":[],"categories_sizes":[],"default_left":[0,0,0,0,0,0,0,0,0,0,0,0,0,0,0],"id":42,"left_children":[1,3,5,7,9,11,13,-1,-1,-1,-1,-1,-1,-1,-1],"loss_changes":[1.3019916E2,4.915262E1,6.1101425E1,1.6669853E1,3.3662838E1,4.8011063E1,1.17794695E1,0E0,0E0,0E0,0E0,0E0,0E0,0E0,0E0],"parents":[2147483647,0,0,1,1,2,2,3,3,4,4,5,5,6,6],"right_children":[2,4,6,8,10,12,14,-1,-1,-1,-1,-1,-1,-1,-1],"split_conditions":[-6.4357207E-3,-3.1125546E-3,1.447E3,2.999878E-1,9.002686E-3,-5.293322E-4,1.7857143E-1,3.4071787E-3,1.471902E-3,-1.441E-3,5.991506E-4,-2.1171214E-3,-7.1720183E-3,9.4148E-3,-3.074183E-4],"split_indices":[6,4,11,13,5,0,1,0,0,0,0,0,0,0,0],"split_type":[0,0,0,0,0,0,0,0,0,0,0,0,0,0,0],"sum_hessian":[3.9143355E4,2.5744223E4,1.3399134E4,7.01864E3,1.8725582E4,6.413461E3,6.9856733E3,1.9126715E3,5.1059688E3,2.972295E3,1.5753288E4,5.764817E3,6.4864374E2,3.682223E1,6.948851E3],"tree_param":{"num_deleted":"0","num_feature":"30","num_nodes":"15","size_leaf_vector":"1"}},{"base_weights":[1.6249585E-3,4.9541984E-2,-6.368343E-2,8.8322885E-2,1.3662148E-2,-1.4846331E-1,-1.0396766E-2,2.9982706E-3,1.1064284E-3,-1.5109575E-3,5.3339376E-4,3.7010174E-4,-3.519019E-3,2.704805E-3,-2.9550353E-4],"categories":[],"categories_nodes":[],"categories_segments":[],"categories_sizes":[],"default_left":[0,0,0,0,0,0,0,0,0,0,0,0,0,0,0],"id":43,"left_children":[1,3,5,7,9,11,13,-1,-1,-1,-1,-1,-1,-1,-1],"loss_changes":[1.2239498E2,3.1329323E1,7.4643196E1,2.2445984E1,1.942003E1,5.5891373E1,1.0591002E1,0E0,0E0,0E0,0E0,0E0,0E0,0E0,0E0],"parents":[2147483647,0,0,1,1,2,2,3,3,4,4,5,5,6,6],"right_children":[2,4,6,8,10,12,14,-1,-1,-1,-1,-1,-1,-1,-1],"split_conditions":[-8.064516E-3,-9.4115734E-4,7.142879E-1,5.5681724E7,9.002686E-3,-6.082058E-4,4.7725394E-1,2.9982706E-3,1.1064284E-3,-1.5109575E-3,5.3339376E-4,3.7010174E-4,-3.519019E-3,2.704805E-3,-2.9550353E-4],"split_indices":[6,4,1,28,5,7,16,0,0,0,0,0,0,0,0],"split_type":[0,0,0,0,0,0,0,0,0,0,0,0,0,0,0],"sum_hessian":[3.911079E4,2.2565393E4,1.6545396E4,1.0833799E4,1.1731595E4,6.3794194E3,1.0165978E4,2.553703E3,8.280096E3,1.6745281E3,1.0057066E4,1.4849509E3,4.8944683E3,3.7582428E2,9.790153E3],"tree_param":{"num_deleted":"0","num_feature":"30","num_nodes":"15","size_leaf_vector":"1"}},{"base_weights":[1.3102286E-3,-9.381324E-2,3.0206969E-2,1.5176961E-1,-1.2564047E-1,6.801629E-2,-1.27864545E-2,6.167386E-3,1.9302426E-3,-1.9408059E-3,-9.908988E-3,1.5254599E-3,3.4549693E-4,4.5066027E-4,-7.018497E-4],"categories":[],"categories_nodes":[],"categories_segments":[],"categories_sizes":[],"default_left":[0,0,0,0,0,0,0,0,0,0,0,0,0,0,0],"id":44,"left_children":[1,3,5,7,9,11,13,-1,-1,-1,-1,-1,-1,-1,-1],"loss_changes":[1.0727388E2,7.1078224E1,4.872589E1,8.3187065E0,5.342486E1,1.4340446E1,1.4592285E1,0E0,0E0,0E0,0E0,0E0,0E0,0E0,0E0],"parents":[2147483647,0,0,1,1,2,2,3,3,4,4,5,5,6,6],"right_children":[2,4,6,8,10,12,14,-1,-1,-1,-1,-1,-1,-1,-1],"split_conditions":[6.9285583E-1,6.4289784E7,6.242697E-4,1.6308457E4,9.80391E1,1.1309015E0,6.435777E7,6.167386E-3,1.9302426E-3,-1.9408059E-3,-9.908988E-3,1.5254599E-3,3.4549693E-4,4.5066027E-4,-7.018497E-4],"split_indices":[1,28,27,20,14,16,28,0,0,0,0,0,0,0,0],"split_type":[0,0,0,0,0,0,0,0,0,0,0,0,0,0,0],"sum_hessian":[3.903825E4,9.089416E3,2.9948836E4,1.0395408E3,8.049875E3,1.5943006E4,1.4005829E4,1.7626068E2,8.632801E2,7.781251E3,2.6862415E2,1.1489125E4,4.453882E3,5.784984E3,8.220846E3],"tree_param":{"num_deleted":"0","num_feature":"30","num_nodes":"15","size_leaf_vector":"1"}},{"base_weights":[-2.5268487E-4,-7.537153E-2,3.815181E-2,-9.380467E-3,-1.5249847E-1,1.0142829E-1,9.451594E-3,2.738803E-3,-8.2000234E-4,-5.614112E-3,-1.6815817E-3,1.5908304E-3,6.158455E-3,4.436275E-3,8.612812E-5],"categories":[],"categories_nodes":[],"categories_segments":[],"categories_sizes":[],"default_left":[0,0,0,0,0,0,0,0,0,0,0,0,0,0,0],"id":45,"left_children":[1,3,5,7,9,11,13,-1,-1,-1,-1,-1,-1,-1,-1],"loss_changes":[1.1282657E2,6.724139E1,4.6898056E1,4.3800488E1,5.74756E1,2.170649E1,1.951057E1,0E0,0E0,0E0,0E0,0E0,0E0,0E0,0E0],"parents":[2147483647,0,0,1,1,2,2,3,3,4,4,5,5,6,6],"right_children":[2,4,6,8,10,12,14,-1,-1,-1,-1,-1,-1,-1,-1],"split_conditions":[1.414466E-3,3.1721592E-4,-2.4903768E-3,9.9975586E-2,9.002686E-3,7.638276E-4,2.642844E-1,2.738803E-3,-8.2000234E-4,-5.614112E-3,-1.6815817E-3,1.5908304E-3,6.158455E-3,4.436275E-3,8.612812E-5],"split_indices":[22,4,27,8,5,29,1,0,0,0,0,0,0,0,0],"split_type":[0,0,0,0,0,0,0,0,0,0,0,0,0,0,0],"sum_hessian":[3.909671E4,1.3231661E4,2.5865049E4,7.136528E3,6.095134E3,8.061941E3,1.7803107E4,1.3089188E3,5.827609E3,1.5468479E3,4.5482856E3,7.725235E3,3.367058E2,3.2338712E2,1.747972E4],"tree_param":{"num_deleted":"0","num_feature":"30","num_nodes":"15","size_leaf_vector":"1"}},{"base_weights":[-3.7347497E-3,2.6830543E-2,-9.476994E-2,7.741686E-2,-5.116485E-4,-2.161439E-1,-5.3731397E-2,2.2743163E-3,9.092574E-4,-1.8341944E-3,3.5748867E-4,-1.029075E-3,-5.296834E-3,3.6554264E-3,-1.1400497E-3],"categories":[],"categories_nodes":[],"categories_segments":[],"categories_sizes":[],"default_left":[0,0,0,0,0,0,0,0,0,0,0,0,0,0,0],"id":46,"left_children":[1,3,5,7,9,11,13,-1,-1,-1,-1,-1,-1,-1,-1],"loss_changes":[1.08875694E2,4.0544476E1,4.8790092E1,1.3582409E1,4.1113808E1,3.2932343E1,2.1222668E1,0E0,0E0,0E0,0E0,0E0,0E0,0E0,0E0],"parents":[2147483647,0,0,1,1,2,2,3,3,4,4,5,5,6,6],"right_children":[2,4,6,8,10,12,14,-1,-1,-1,-1,-1,-1,-1,-1],"split_conditions":[-4.8379293E-3,-1.8695593E-3,8.92E2,3.6361113E-1,9.002686E-3,-9.459257E-5,4.0188484E7,2.2743163E-3,9.092574E-4,-1.8341944E-3,3.5748867E-4,-1.029075E-3,-5.296834E-3,3.6554264E-3,-1.1400497E-3],"split_indices":[6,4,11,13,5,7,28,0,0,0,0,0,0,0,0],"split_type":[0,0,0,0,0,0,0,0,0,0,0,0,0,0,0],"sum_hessian":[3.9108164E4,2.9273387E4,9.834775E3,1.02784795E4,1.8994906E4,2.4787993E3,7.355976E3,3.3980227E3,6.8804565E3,3.1805142E3,1.5814393E4,8.717269E2,1.6070725E3,2.9480234E2,7.061174E3],"tree_param":{"num_deleted":"0","num_feature":"30","num_nodes":"15","size_leaf_vector":"1"}},{"base_weights":[2.0596257E-3,-1.2869872E-1,2.3292711E-2,5.115724E-2,-1.8714902E-1,9.914097E-2,2.4775814E-3,3.6310283E-3,-4.4535473E-3,-8.630928E-3,-2.7808377E-3,3.0719799E-3,1.2555945E-3,6.2911666E-4,-4.3936935E-4],"categories":[],"categories_nodes":[],"categories_segments":[],"categories_sizes":[],"default_left":[0,0,0,0,0,0,0,0,0,0,0,0,0,0,0],"id":47,"left_children":[1,3,5,7,9,11,13,-1,-1,-1,-1,-1,-1,-1,-1],"loss_changes":[1.0836647E2,5.7423584E1,5.29858E1,6.3162388E1,3.5755646E1,1.4961182E1,2.4107204E1,0E0,0E0,0E0,0E0,0E0,0E0,0E0,0E0],"parents":[2147483647,0,0,1,1,2,2,3,3,4,4,5,5,6,6],"right_children":[2,4,6,8,10,12,14,-1,-1,-1,-1,-1,-1,-1,-1],"split_conditions":[8.81E2,8.999634E-2,-3.1125546E-3,1.3491352E1,2.642844E-1,2.999878E-1,7.110683E-4,3.6310283E-3,-4.4535473E-3,-8.630928E-3,-2.7808377E-3,3.0719799E-3,1.2555945E-3,6.2911666E-4,-4.3936935E-4],"split_indices":[11,8,4,10,1,13,29,0,0,0,0,0,0,0,0],"split_type":[0,0,0,0,0,0,0,0,0,0,0,0,0,0,0],"sum_hessian":[3.9053227E4,5.449863E3,3.3603363E4,1.3338995E3,4.1159634E3,7.2274087E3,2.6375955E4,8.851988E2,4.487008E2,3.5539163E2,3.7605715E3,1.9350536E3,5.292355E3,1.1933009E4,1.4442946E4],"tree_param":{"num_deleted":"0","num_feature":"30","num_nodes":"15","size_leaf_vector":"1"}},{"base_weights":[-2.8088747E-3,6.24763E-2,-4.209316E-2,1.7829221E-1,4.70336E-2,-1.790824E-1,-1.2239141E-2,7.095605E-3,2.691016E-3,2.1582127E-3,3.8644334E-4,-5.5251108E-3,-1.7933701E-3,8.414594E-4,-7.1617245E-4],"categories":[],"categories_nodes":[],"categories_segments":[],"categories_sizes":[],"default_left":[0,0,0,0,0,0,0,0,0,0,0,0,0,0,0],"id":48,"left_children":[1,3,5,7,9,11,13,-1,-1,-1,-1,-1,-1,-1,-1],"loss_changes":[1.00041954E2,2.60313E1,9.9502686E1,9.295696E0,2.442019E1,4.500052E1,3.4214153E1,0E0,0E0,0E0,0E0,0E0,0E0,0E0,0E0],"parents":[2147483647,0,0,1,1,2,2,3,3,4,4,5,5,6,6],"right_children":[2,4,6,8,10,12,14,-1,-1,-1,-1,-1,-1,-1,-1],"split_conditions":[-8.8101625E-4,1.8182828E-1,9.002686E-3,9.861626E-4,6.0156444E7,5.21419E-1,-6.2670134E-4,7.095605E-3,2.691016E-3,2.1582127E-3,3.8644334E-4,-5.5251108E-3,-1.7933701E-3,8.414594E-4,-7.1617245E-4],"split_indices":[4,13,5,22,28,1,29,0,0,0,0,0,0,0,0],"split_type":[0,0,0,0,0,0,0,0,0,0,0,0,0,0,0],"sum_hessian":[3.900913E4,1.46478545E4,2.4361273E4,1.7157649E3,1.293209E4,4.353274E3,2.0007998E4,1.6805214E2,1.5477128E3,3.2105842E3,9.721506E3,1.57807E3,2.775204E3,6.4252363E3,1.3582763E4],"tree_param":{"num_deleted":"0","num_feature":"30","num_nodes":"15","size_leaf_vector":"1"}},{"base_weights":[-1.8980191E-3,3.4627736E-2,-7.24248E-2,9.191126E-2,1.3223746E-2,-1.977009E-1,-3.71216E-2,1.6838171E-3,-8.15045E-3,-1.0568527E-4,1.275095E-3,-6.6317624E-4,-5.311096E-3,-1.4488391E-3,4.318133E-4],"categories":[],"categories_nodes":[],"categories_segments":[],"categories_sizes":[],"default_left":[0,0,0,0,0,0,0,0,0,0,0,0,0,0,0],"id":49,"left_children":[1,3,5,7,9,11,13,-1,-1,-1,-1,-1,-1,-1,-1],"loss_changes":[1.0065951E2,3.1473352E1,5.880246E1,1.4558311E1,2.1401672E1,4.853592E1,2.9077246E1,0E0,0E0,0E0,0E0,0E0,0E0,0E0,0E0],"parents":[2147483647,0,0,1,1,2,2,3,3,4,4,5,5,6,6],"right_children":[2,4,6,8,10,12,14,-1,-1,-1,-1,-1,-1,-1,-1],"split_conditions":[-6.4357207E-3,-3.1125546E-3,9.002686E-3,6.073034E0,7.142632E7,-3.1706236E1,3.78E2,1.6838171E-3,-8.15045E-3,-1.0568527E-4,1.275095E-3,-6.6317624E-4,-5.311096E-3,-1.4488391E-3,4.318133E-4],"split_indices":[6,4,5,23,28,10,26,0,0,0,0,0,0,0,0],"split_type":[0,0,0,0,0,0,0,0,0,0,0,0,0,0,0],"sum_hessian":[3.9061445E4,2.5728145E4,1.3333302E4,6.987987E3,1.8740158E4,2.9251316E3,1.040817E4,6.943337E3,4.4649883E1,1.4140746E4,4.599411E3,1.1570737E3,1.7680577E3,6.0103345E3,4.3978354E3],"tree_param":{"num_deleted":"0","num_feature":"30","num_nodes":"15","size_leaf_vector":"1"}},{"base_weights":[-5.111246E-3,-1.3285041E-1,1.4212184E-2,2.5517236E-2,-2.0023762E-1,8.556532E-2,-5.1412787E-3,1.6378145E-3,-2.574512E-3,-2.9376424E-3,-8.343698E-3,1.8491576E-3,-1.3122494E-4,4.7161203E-4,-5.8589486E-4],"categories":[],"categories_nodes":[],"categories_segments":[],"categories_sizes":[],"default_left":[0,0,0,0,0,0,0,0,0,0,0,0,0,0,0],"id":50,"left_children":[1,3,5,7,9,11,13,-1,-1,-1,-1,-1,-1,-1,-1],"loss_changes":[9.641425E1,5.4904625E1,4.6862442E1,1.7765337E1,3.22603E1,1.3226326E1,2.3987967E1,0E0,0E0,0E0,0E0,0E0,0E0,0E0,0E0],"parents":[2147483647,0,0,1,1,2,2,3,3,4,4,5,5,6,6],"right_children":[2,4,6,8,10,12,14,-1,-1,-1,-1,-1,-1,-1,-1],"split_conditions":[8.58E2,-6.593466E-4,-3.1125546E-3,8.419051E-1,9.062542E1,6.2966347E-4,-9.773813E-3,1.6378145E-3,-2.574512E-3,-2.9376424E-3,-8.343698E-3,1.8491576E-3,-1.3122494E-4,4.7161203E-4,-5.8589486E-4],"split_indices":[11,4,4,24,14,7,6,0,0,0,0,0,0,0,0],"split_type":[0,0,0,0,0,0,0,0,0,0,0,0,0,0,0],"sum_hessian":[3.902386E4,5.1307534E3,3.3893105E4,1.5288422E3,3.6019114E3,7.2376895E3,2.6655416E4,1.1008278E3,4.2801447E2,3.216916E3,3.849954E2,5.98726E3,1.2504297E3,1.2476708E4,1.4178708E4],"tree_param":{"num_deleted":"0","num_feature":"30","num_nodes":"15","size_leaf_vector":"1"}},{"base_weights":[8.582637E-4,-7.506219E-2,3.0548755E-2,-4.308206E-2,-2.2417413E-1,6.415576E-2,-9.688577E-3,1.33848E-3,-1.2173321E-3,-6.130665E-3,-1.7649308E-3,4.6843793E-3,1.0420964E-3,-3.4271057E-3,-1.35854525E-5],"categories":[],"categories_nodes":[],"categories_segments":[],"categories_sizes":[],"default_left":[0,0,0,0,0,0,0,0,0,0,0,0,0,0,0],"id":51,"left_children":[1,3,5,7,9,11,13,-1,-1,-1,-1,-1,-1,-1,-1],"loss_changes":[8.791391E1,5.207189E1,3.7973396E1,2.8105999E1,2.9360916E1,1.4969959E1,2.0925121E1,0E0,0E0,0E0,0E0,0E0,0E0,0E0,0E0],"parents":[2147483647,0,0,1,1,2,2,3,3,4,4,5,5,6,6],"right_children":[2,4,6,8,10,12,14,-1,-1,-1,-1,-1,-1,-1,-1],"split_conditions":[1.2516704E-3,8.571335E1,7.278076E-4,4.9804688E-2,3.13123E2,-1.11023055E5,9.03E2,1.33848E-3,-1.2173321E-3,-6.130665E-3,-1.7649308E-3,4.6843793E-3,1.0420964E-3,-3.4271057E-3,-1.35854525E-5],"split_indices":[22,14,27,8,25,10,11,0,0,0,0,0,0,0,0],"split_type":[0,0,0,0,0,0,0,0,0,0,0,0,0,0,0],"sum_hessian":[3.901116E4,1.095995E4,2.8051209E4,9.030262E3,1.9296887E3,1.5293571E4,1.2757638E4,1.6176642E3,7.4125977E3,9.58709E2,9.7097974E2,3.5808502E2,1.4935486E4,5.809453E2,1.2176692E4],"tree_param":{"num_deleted":"0","num_feature":"30","num_nodes":"15","size_leaf_vector":"1"}},{"base_weights":[-1.5959839E-3,2.7313627E-2,-9.107175E-2,7.432592E-2,4.5373346E-4,-1.7345732E-1,-2.244952E-2,1.2049276E-3,5.7182494E-3,-1.1032273E-3,3.8070246E-4,-4.9420833E-3,-1.988907E-3,-8.567484E-4,2.10418E-3],"categories":[],"categories_nodes":[],"categories_segments":[],"categories_sizes":[],"default_left":[0,0,0,0,0,0,0,0,0,0,0,0,0,0,0],"id":52,"left_children":[1,3,5,7,9,11,13,-1,-1,-1,-1,-1,-1,-1,-1],"loss_changes":[1.0120401E2,3.726548E1,5.3882538E1,1.5405098E1,2.5153614E1,2.782483E1,1.942488E1,0E0,0E0,0E0,0E0,0E0,0E0,0E0,0E0],"parents":[2147483647,0,0,1,1,2,2,3,3,4,4,5,5,6,6],"right_children":[2,4,6,8,10,12,14,-1,-1,-1,-1,-1,-1,-1,-1],"split_conditions":[-4.699248E-3,-2.0390935E-3,1.381E3,3.0446956E-3,7.7143204E-1,4.0008545E-2,9.118118E3,1.2049276E-3,5.7182494E-3,-1.1032273E-3,3.8070246E-4,-4.9420833E-3,-1.988907E-3,-8.567484E-4,2.10418E-3],"split_indices":[6,27,11,29,1,5,20,0,0,0,0,0,0,0,0],"split_type":[0,0,0,0,0,0,0,0,0,0,0,0,0,0,0],"sum_hessian":[3.9104035E4,2.955009E4,9.553945E3,1.0733925E4,1.8816164E4,4.3357363E3,5.2182095E3,1.0494617E4,2.3930786E2,4.7170293E3,1.4099135E4,1.5538549E3,2.7818813E3,4.409508E3,8.0870154E2],"tree_param":{"num_deleted":"0","num_feature":"30","num_nodes":"15","size_leaf_vector":"1"}},{"base_weights":[-3.521233E-3,-1.3243006E-1,1.6051117E-2,3.2154813E-2,-1.8817765E-1,4.9401455E-2,-2.0770028E-2,2.7620383E-3,-3.9018611E-3,-5.204424E-3,-1.9048029E-3,1.107995E-3,-4.414926E-4,2.2107011E-3,-5.270279E-4],"categories":[],"categories_nodes":[],"categories_segments":[],"categories_sizes":[],"default_left":[0,0,0,0,0,0,0,0,0,0,0,0,0,0,0],"id":53,"left_children":[1,3,5,7,9,11,13,-1,-1,-1,-1,-1,-1,-1,-1],"loss_changes":[9.866031E1,4.7415993E1,4.167203E1,4.13207E1,3.2812454E1,1.8038044E1,2.1611248E1,0E0,0E0,0E0,0E0,0E0,0E0,0E0,0E0],"parents":[2147483647,0,0,1,1,2,2,3,3,4,4,5,5,6,6],"right_children":[2,4,6,8,10,12,14,-1,-1,-1,-1,-1,-1,-1,-1],"split_conditions":[8.58E2,8.999634E-2,8.7170606E-4,3.1757355E-4,9.002686E-3,1E0,1.7984348E7,2.7620383E-3,-3.9018611E-3,-5.204424E-3,-1.9048029E-3,1.107995E-3,-4.414926E-4,2.2107011E-3,-5.270279E-4],"split_indices":[11,8,29,7,5,12,15,0,0,0,0,0,0,0,0],"split_type":[0,0,0,0,0,0,0,0,0,0,0,0,0,0,0],"sum_hessian":[3.9068574E4,5.153059E3,3.3915516E4,1.3009076E3,3.8521514E3,1.7805916E4,1.61096E4,8.744404E2,4.2646716E2,1.6355256E3,2.2166257E3,1.5069278E4,2.7366387E3,9.4512396E2,1.5164476E4],"tree_param":{"num_deleted":"0","num_feature":"30","num_nodes":"15","size_leaf_vector":"1"}},{"base_weights":[1.8530304E-3,2.7308363E-2,-8.520251E-2,8.418554E-2,8.387527E-3,-2.3784404E-1,-3.9276335E-2,3.0548556E-3,9.087719E-4,-4.8449787E-4,9.907201E-4,-5.572442E-4,-5.525964E-3,-1.6115012E-3,4.376469E-6],"categories":[],"categories_nodes":[],"categories_segments":[],"categories_sizes":[],"default_left":[0,0,0,0,0,0,0,0,0,0,0,0,0,0,0],"id":54,"left_children":[1,3,5,7,9,11,13,-1,-1,-1,-1,-1,-1,-1,-1],"loss_changes":[8.639726E1,3.2420914E1,6.161474E1,2.1729115E1,3.9040142E1,3.1747017E1,1.4092967E1,0E0,0E0,0E0,0E0,0E0,0E0,0E0,0E0],"parents":[2147483647,0,0,1,1,2,2,3,3,4,4,5,5,6,6],"right_children":[2,4,6,8,10,12,14,-1,-1,-1,-1,-1,-1,-1,-1],"split_conditions":[-2.5518837E-3,-3.0333996E-3,9.002686E-3,2.95464E-1,3.595E2,-1.8042326E-4,1.241033E-3,3.0548556E-3,9.087719E-4,-4.8449787E-4,9.907201E-4,-5.572442E-4,-5.525964E-3,-1.6115012E-3,4.376469E-6],"split_indices":[0,4,5,13,26,7,22,0,0,0,0,0,0,0,0],"split_type":[0,0,0,0,0,0,0,0,0,0,0,0,0,0,0],"sum_hessian":[3.9001395E4,3.01845E4,8.816894E3,7.5240537E3,2.2660447E4,2.0339525E3,6.7829404E3,1.9988636E3,5.5251904E3,1.2943766E4,9.716682E3,5.5225635E2,1.4816962E3,2.925394E3,3.8575466E3],"tree_param":{"num_deleted":"0","num_feature":"30","num_nodes":"15","size_leaf_vector":"1"}},{"base_weights":[1.1356918E-3,3.0248927E-2,-8.4811404E-2,6.276148E-2,-3.7233082E-3,-2.0482348E-1,-4.41405E-2,2.2489568E-3,8.1993605E-4,-9.077119E-4,9.936567E-4,-4.4412306E-4,-5.2413195E-3,-2.5966993E-4,-1.838863E-3],"categories":[],"categories_nodes":[],"categories_segments":[],"categories_sizes":[],"default_left":[0,0,0,0,0,0,0,0,0,0,0,0,0,0,0],"id":55,"left_children":[1,3,5,7,9,11,13,-1,-1,-1,-1,-1,-1,-1,-1],"loss_changes":[9.765976E1,3.226097E1,4.8004387E1,1.5550858E1,4.1087933E1,4.1460266E1,1.3009177E1,0E0,0E0,0E0,0E0,0E0,0E0,0E0,0E0],"parents":[2147483647,0,0,1,1,2,2,3,3,4,4,5,5,6,6],"right_children":[2,4,6,8,10,12,14,-1,-1,-1,-1,-1,-1,-1,-1],"split_conditions":[-4.8379293E-3,-4.0745735E-4,8.92E2,5.6080984E7,3.5656E2,-3.1706236E1,1.3234439E0,2.2489568E-3,8.1993605E-4,-9.077119E-4,9.936567E-4,-4.4412306E-4,-5.2413195E-3,-2.5966993E-4,-1.838863E-3],"split_indices":[6,4,11,28,19,10,24,0,0,0,0,0,0,0,0],"split_type":[0,0,0,0,0,0,0,0,0,0,0,0,0,0,0],"sum_hessian":[3.904063E4,2.9169203E4,9.871426E3,1.4914263E4,1.4254939E4,2.4923853E3,7.379041E3,2.9558018E3,1.1958462E4,7.947234E3,6.3077056E3,8.5421106E2,1.6381741E3,4.972836E3,2.4062048E3],"tree_param":{"num_deleted":"0","num_feature":"30","num_nodes":"15","size_leaf_vector":"1"}},{"base_weights":[1.1858891E-3,-7.166362E-2,3.2855287E-2,-1.8202984E-1,-3.0398477E-2,8.8218175E-2,8.983148E-3,-6.0160557E-4,-5.440916E-3,7.921803E-4,-1.0758992E-3,1.3386519E-3,3.6077767E-3,2.9153702E-5,2.8825523E-3],"categories":[],"categories_nodes":[],"categories_segments":[],"categories_sizes":[],"default_left":[0,0,0,0,0,0,0,0,0,0,0,0,0,0,0],"id":56,"left_children":[1,3,5,7,9,11,13,-1,-1,-1,-1,-1,-1,-1,-1],"loss_changes":[9.005191E1,5.3693474E1,3.5906982E1,6.0173645E1,1.9994974E1,1.1389896E1,2.1475763E1,0E0,0E0,0E0,0E0,0E0,0E0,0E0,0E0],"parents":[2147483647,0,0,1,1,2,2,3,3,4,4,5,5,6,6],"right_children":[2,4,6,8,10,12,14,-1,-1,-1,-1,-1,-1,-1,-1],"split_conditions":[1.3162994E-3,9.002686E-3,-2.5543335E-3,-3.1706236E1,-1.4025321E-3,1.03901215E-1,7.9175624E7,-6.0160557E-4,-5.440916E-3,7.921803E-4,-1.0758992E-3,1.3386519E-3,3.6077767E-3,2.9153702E-5,2.8825523E-3],"split_indices":[22,5,27,10,29,23,28,0,0,0,0,0,0,0,0],"split_type":[0,0,0,0,0,0,0,0,0,0,0,0,0,0,0],"sum_hessian":[3.904016E4,1.1821965E4,2.7218195E4,3.2109688E3,8.610996E3,8.190198E3,1.9027996E4,1.4887814E3,1.7221875E3,2.4874321E3,6.123564E3,7.427988E3,7.6221063E2,1.8174521E4,8.53476E2],"tree_param":{"num_deleted":"0","num_feature":"30","num_nodes":"15","size_leaf_vector":"1"}},{"base_weights":[8.6880656E-4,-1.22304164E-1,1.6959218E-2,-1.131587E-2,-2.0228796E-1,5.0577085E-2,-1.5739424E-2,2.6596906E-3,-1.503293E-3,-5.4615014E-3,-2.0851141E-3,4.5119715E-3,8.236503E-4,5.9208744E-3,-3.2183283E-4],"categories":[],"categories_nodes":[],"categories_segments":[],"categories_sizes":[],"default_left":[0,0,0,0,0,0,0,0,0,0,0,0,0,0,0],"id":57,"left_children":[1,3,5,7,9,11,13,-1,-1,-1,-1,-1,-1,-1,-1],"loss_changes":[7.72456E1,3.9819496E1,3.795985E1,2.2761324E1,2.330812E1,1.2956688E1,1.5520016E1,0E0,0E0,0E0,0E0,0E0,0E0,0E0,0E0],"parents":[2147483647,0,0,1,1,2,2,3,3,4,4,5,5,6,6],"right_children":[2,4,6,8,10,12,14,-1,-1,-1,-1,-1,-1,-1,-1],"split_conditions":[8.12E2,-3.1358004E-4,-6.885952E-3,4.9804688E-2,9.002686E-3,-1.1977732E-2,2.0000567E-1,2.6596906E-3,-1.503293E-3,-5.4615014E-3,-2.0851141E-3,4.5119715E-3,8.236503E-4,5.9208744E-3,-3.2183283E-4],"split_indices":[11,4,0,8,5,7,1,0,0,0,0,0,0,0,0],"split_type":[0,0,0,0,0,0,0,0,0,0,0,0,0,0,0],"sum_hessian":[3.900788E4,4.5005884E3,3.450729E4,1.8894456E3,2.6111428E3,1.702428E4,1.748301E4,5.884291E2,1.3010165E3,1.1340173E3,1.4771255E3,2.9994446E2,1.6724336E4,1.2207779E2,1.7360932E4],"tree_param":{"num_deleted":"0","num_feature":"30","num_nodes":"15","size_leaf_vector":"1"}},{"base_weights":[-2.489731E-4,-1.1376071E-1,1.8104296E-2,1.3889164E-3,-1.9720282E-1,7.8271925E-2,-1.6971682E-3,3.4382972E-3,-1.372382E-3,-5.5181775E-3,-2.0394651E-3,2.4541486E-3,9.1961486E-4,-3.6445484E-4,7.9193106E-4],"categories":[],"categories_nodes":[],"categories_segments":[],"categories_sizes":[],"default_left":[0,0,0,0,0,0,0,0,0,0,0,0,0,0,0],"id":58,"left_children":[1,3,5,7,9,11,13,-1,-1,-1,-1,-1,-1,-1,-1],"loss_changes":[8.146694E1,5.2436996E1,4.011926E1,3.5320248E1,2.9543427E1,1.3124134E1,2.245589E1,0E0,0E0,0E0,0E0,0E0,0E0,0E0,0E0],"parents":[2147483647,0,0,1,1,2,2,3,3,4,4,5,5,6,6],"right_children":[2,4,6,8,10,12,14,-1,-1,-1,-1,-1,-1,-1,-1],"split_conditions":[8.81E2,-3.1358004E-4,-2.5888681E-3,8.999634E-2,9.002686E-3,3.333164E-1,7.142632E7,3.4382972E-3,-1.372382E-3,-5.5181775E-3,-2.0394651E-3,2.4541486E-3,9.1961486E-4,-3.6445484E-4,7.9193106E-4],"split_indices":[11,4,4,8,5,13,28,0,0,0,0,0,0,0,0],"split_type":[0,0,0,0,0,0,0,0,0,0,0,0,0,0,0],"sum_hessian":[3.9069375E4,5.441568E3,3.362781E4,2.2837244E3,3.1578433E3,8.333867E3,2.5293941E4,6.6478815E2,1.6189363E3,1.2924584E3,1.865385E3,2.4741863E3,5.8596807E3,1.7986395E4,7.307546E3],"tree_param":{"num_deleted":"0","num_feature":"30","num_nodes":"15","size_leaf_vector":"1"}},{"base_weights":[-3.279536E-3,-7.428422E-2,2.9240426E-2,-5.763856E-2,-3.4007707E-1,7.892659E-2,1.2571586E-2,3.3182805E-4,-1.7606164E-3,-8.275381E-3,-3.117457E-3,2.756762E-3,6.8482757E-4,8.151029E-5,2.3954306E-3],"categories":[],"categories_nodes":[],"categories_segments":[],"categories_sizes":[],"default_left":[0,0,0,0,0,0,0,0,0,0,0,0,0,0,0],"id":59,"left_children":[1,3,5,7,9,11,13,-1,-1,-1,-1,-1,-1,-1,-1],"loss_changes":[9.025135E1,5.40224E1,2.212511E1,3.758735E1,1.469796E1,2.0757755E1,1.9596891E1,0E0,0E0,0E0,0E0,0E0,0E0,0E0,0E0],"parents":[2147483647,0,0,1,1,2,2,3,3,4,4,5,5,6,6],"right_children":[2,4,6,8,10,12,14,-1,-1,-1,-1,-1,-1,-1,-1],"split_conditions":[1.394E3,-4.7907117E-4,-3.1125546E-3,-6.7798415E-4,4.6428135E-1,3.5714442E-1,7.9175624E7,3.3182805E-4,-1.7606164E-3,-8.275381E-3,-3.117457E-3,2.756762E-3,6.8482757E-4,8.151029E-5,2.3954306E-3],"split_indices":[11,0,4,27,1,13,28,0,0,0,0,0,0,0,0],"split_type":[0,0,0,0,0,0,0,0,0,0,0,0,0,0,0],"sum_hessian":[3.9068562E4,1.2278352E4,2.679021E4,1.1559321E4,7.1903064E2,6.7178022E3,2.007241E4,4.1187646E3,7.440556E3,3.9516608E2,3.2386456E2,2.274171E3,4.4436313E3,1.8867875E4,1.204535E3],"tree_param":{"num_deleted":"0","num_feature":"30","num_nodes":"15","size_leaf_vector":"1"}},{"base_weights":[-0E0,2.6476383E-2,-8.8823594E-2,5.311124E-2,-1.529969E-2,-2.0284788E-1,-4.3428864E-2,1.6421672E-3,6.6373637E-4,1.6789673E-3,-6.4799754E-4,-2.1196632E-3,-6.104979E-3,-8.8358915E-4,6.2430557E-3],"categories":[],"categories_nodes":[],"categories_segments":[],"categories_sizes":[],"default_left":[0,0,0,0,0,0,0,0,0,0,0,0,0,0,0],"id":60,"left_children":[1,3,5,7,9,11,13,-1,-1,-1,-1,-1,-1,-1,-1],"loss_changes":[9.19312E1,3.3527946E1,4.6281235E1,1.1289196E1,2.7893627E1,2.98955E1,1.7215708E1,0E0,0E0,0E0,0E0,0E0,0E0,0E0,0E0],"parents":[2147483647,0,0,1,1,2,2,3,3,4,4,5,5,6,6],"right_children":[2,4,6,8,10,12,14,-1,-1,-1,-1,-1,-1,-1,-1],"split_conditions":[-2.5907187E-3,-9.773813E-3,9.35E2,5.6560612E7,9.9975586E-2,-1.0779296E-3,6.8314653E-3,1.6421672E-3,6.6373637E-4,1.6789673E-3,-6.4799754E-4,-2.1196632E-3,-6.104979E-3,-8.8358915E-4,6.2430557E-3],"split_indices":[0,6,11,28,8,0,22,0,0,0,0,0,0,0,0],"split_type":[0,0,0,0,0,0,0,0,0,0,0,0,0,0,0],"sum_hessian":[3.908073E4,3.0105547E4,8.975184E3,1.839404E4,1.1711509E4,2.5495254E3,6.425658E3,5.073808E3,1.332023E4,1.9003516E3,9.811157E3,1.6276849E3,9.2184033E2,6.3212217E3,1.0443645E2],"tree_param":{"num_deleted":"0","num_feature":"30","num_nodes":"15","size_leaf_vector":"1"}},{"base_weights":[2.0516934E-3,2.5891477E-2,-7.98361E-2,4.0306307E-2,-3.7091196E-2,-2.2429688E-1,-3.575161E-2,1.8827845E-3,5.225566E-4,6.3439144E-4,-1.3257622E-3,-4.6669587E-4,-5.2345777E-3,1.1825591E-3,-9.694326E-4],"categories":[],"categories_nodes":[],"categories_segments":[],"categories_sizes":[],"default_left":[0,0,0,0,0,0,0,0,0,0,0,0,0,0,0],"id":61,"left_children":[1,3,5,7,9,11,13,-1,-1,-1,-1,-1,-1,-1,-1],"loss_changes":[7.612109E1,2.744266E1,5.5786E1,1.7305405E1,1.576404E1,2.9470757E1,1.3428618E1,0E0,0E0,0E0,0E0,0E0,0E0,0E0,0E0],"parents":[2147483647,0,0,1,1,2,2,3,3,4,4,5,5,6,6],"right_children":[2,4,6,8,10,12,14,-1,-1,-1,-1,-1,-1,-1,-1],"split_conditions":[-2.5518837E-3,1.3244088E0,9.002686E-3,5.049696E7,-2.1217314E-3,-2.1237135E-4,6.158727E7,1.8827845E-3,5.225566E-4,6.3439144E-4,-1.3257622E-3,-4.6669587E-4,-5.2345777E-3,1.1825591E-3,-9.694326E-4],"split_indices":[0,16,5,28,29,7,28,0,0,0,0,0,0,0,0],"split_type":[0,0,0,0,0,0,0,0,0,0,0,0,0,0,0],"sum_hessian":[3.9007684E4,3.0219582E4,8.788103E3,2.4600748E4,5.6188325E3,2.0493347E3,6.738767E3,3.363221E3,2.1237527E4,1.9236256E3,3.6952068E3,5.5699097E2,1.4923439E3,1.0596941E3,5.679073E3],"tree_param":{"num_deleted":"0","num_feature":"30","num_nodes":"15","size_leaf_vector":"1"}},{"base_weights":[2.305032E-3,-6.665484E-2,2.8654994E-2,-1.4896664E-1,-8.275267E-3,7.375367E-2,6.4334087E-3,-1.9990958E-3,-8.181726E-3,8.872337E-4,-1.4156812E-3,3.4392895E-3,1.0571713E-3,6.0740043E-3,7.1485316E-5],"categories":[],"categories_nodes":[],"categories_segments":[],"categories_sizes":[],"default_left":[0,0,0,0,0,0,0,0,0,0,0,0,0,0,0],"id":62,"left_children":[1,3,5,7,9,11,13,-1,-1,-1,-1,-1,-1,-1,-1],"loss_changes":[7.090467E1,5.1714664E1,2.8255833E1,4.9436577E1,2.6796951E1,1.5298264E1,1.4966657E1,0E0,0E0,0E0,0E0,0E0,0E0,0E0,0E0],"parents":[2147483647,0,0,1,1,2,2,3,3,4,4,5,5,6,6],"right_children":[2,4,6,8,10,12,14,-1,-1,-1,-1,-1,-1,-1,-1],"split_conditions":[1.241033E-3,5.499987E-1,-2.0390935E-3,-4.7907117E-4,3.709793E-4,8.999634E-2,2.0000567E-1,-1.9990958E-3,-8.181726E-3,8.872337E-4,-1.4156812E-3,3.4392895E-3,1.0571713E-3,6.0740043E-3,7.1485316E-5],"split_indices":[22,1,27,0,4,8,1,0,0,0,0,0,0,0,0],"split_type":[0,0,0,0,0,0,0,0,0,0,0,0,0,0,0],"sum_hessian":[3.9031383E4,1.0782889E4,2.8248492E4,4.468252E3,6.3146367E3,9.31287E3,1.8935623E4,4.0231616E3,4.4509042E2,3.4777039E3,2.836933E3,9.3234344E2,8.380526E3,1.2763679E2,1.8807986E4],"tree_param":{"num_deleted":"0","num_feature":"30","num_nodes":"15","size_leaf_vector":"1"}},{"base_weights":[5.5872137E-3,-8.7583646E-2,2.5422608E-2,2.494066E-2,-1.9353932E-1,4.831177E-2,-1.7521976E-2,2.9980484E-3,-9.186265E-4,-6.098151E-3,-2.2833168E-3,1.1189547E-3,-4.4706246E-4,-1.2684575E-3,3.376654E-4],"categories":[],"categories_nodes":[],"categories_segments":[],"categories_sizes":[],"default_left":[0,0,0,0,0,0,0,0,0,0,0,0,0,0,0],"id":63,"left_children":[1,3,5,7,9,11,13,-1,-1,-1,-1,-1,-1,-1,-1],"loss_changes":[7.201941E1,8.165325E1,3.162917E1,3.730086E1,3.3993744E1,2.368148E1,2.2421032E1,0E0,0E0,0E0,0E0,0E0,0E0,0E0,0E0],"parents":[2147483647,0,0,1,1,2,2,3,3,4,4,5,5,6,6],"right_children":[2,4,6,8,10,12,14,-1,-1,-1,-1,-1,-1,-1,-1],"split_conditions":[9.002686E-3,-7.480167E1,-6.9541144E-3,1.9998169E-1,4.2142597E-1,1.3318822E0,1.447E3,2.9980484E-3,-9.186265E-4,-6.098151E-3,-2.2833168E-3,1.1189547E-3,-4.4706246E-4,-1.2684575E-3,3.376654E-4],"split_indices":[5,10,6,13,1,16,11,0,0,0,0,0,0,0,0],"split_type":[0,0,0,0,0,0,0,0,0,0,0,0,0,0,0],"sum_hessian":[3.898862E4,6.8362793E3,3.2152342E4,3.3129512E3,3.5233281E3,2.0983799E4,1.1168542E4,1.1504603E3,2.162491E3,1.0303984E3,2.4929297E3,1.73876E4,3.5962004E3,4.4984487E3,6.6700938E3],"tree_param":{"num_deleted":"0","num_feature":"30","num_nodes":"15","size_leaf_vector":"1"}},{"base_weights":[3.5855034E-3,-6.1338518E-2,3.2356087E-2,-7.406195E-4,-1.3949536E-1,5.750527E-2,-1.1549358E-2,2.5868097E-3,-6.168928E-4,-5.2946103E-3,-1.463736E-3,7.389144E-4,2.000134E-3,7.459066E-4,-1.1084838E-3],"categories":[],"categories_nodes":[],"categories_segments":[],"categories_sizes":[],"default_left":[0,0,0,0,0,0,0,0,0,0,0,0,0,0,0],"id":64,"left_children":[1,3,5,7,9,11,13,-1,-1,-1,-1,-1,-1,-1,-1],"loss_changes":[7.302564E1,5.6741505E1,2.9961279E1,3.425276E1,4.7281174E1,1.4906132E1,2.7396816E1,0E0,0E0,0E0,0E0,0E0,0E0,0E0,0E0],"parents":[2147483647,0,0,1,1,2,2,3,3,4,4,5,5,6,6],"right_children":[2,4,6,8,10,12,14,-1,-1,-1,-1,-1,-1,-1,-1],"split_conditions":[1.3270685E-3,3.5095215E-4,1.9273215E-3,9.9975586E-2,9.002686E-3,7.441813E7,6.435777E7,2.5868097E-3,-6.168928E-4,-5.2946103E-3,-1.463736E-3,7.389144E-4,2.000134E-3,7.459066E-4,-1.1084838E-3],"split_indices":[22,4,27,8,5,28,28,0,0,0,0,0,0,0,0],"split_type":[0,0,0,0,0,0,0,0,0,0,0,0,0,0,0],"sum_hessian":[3.9101688E4,1.1998907E4,2.7102777E4,6.7646724E3,5.2342354E3,1.7241668E4,9.86111E3,1.2701346E3,5.4945376E3,1.3480719E3,3.8861633E3,1.3524257E4,3.7174106E3,4.8077397E3,5.0533706E3],"tree_param":{"num_deleted":"0","num_feature":"30","num_nodes":"15","size_leaf_vector":"1"}},{"base_weights":[6.445304E-5,2.3657855E-2,-8.082528E-2,7.846011E-2,6.0132337E-3,-2.1855363E-1,-3.938145E-2,4.8340936E-3,1.1949926E-3,-2.5994962E-4,1.0705238E-3,-6.3802437E-3,-2.152953E-3,-4.131076E-4,-2.8939252E-3],"categories":[],"categories_nodes":[],"categories_segments":[],"categories_sizes":[],"default_left":[0,0,0,0,0,0,0,0,0,0,0,0,0,0,0],"id":65,"left_children":[1,3,5,7,9,11,13,-1,-1,-1,-1,-1,-1,-1,-1],"loss_changes":[7.444024E1,2.9162949E1,5.007133E1,1.4936508E1,2.6104313E1,2.7754395E1,1.3342014E1,0E0,0E0,0E0,0E0,0E0,0E0,0E0,0E0],"parents":[2147483647,0,0,1,1,2,2,3,3,4,4,5,5,6,6],"right_children":[2,4,6,8,10,12,14,-1,-1,-1,-1,-1,-1,-1,-1],"split_conditions":[-2.5518837E-3,-3.1125546E-3,9.002686E-3,-1.11023055E5,7.013152E7,4.0713936E-1,9.555528E-1,4.8340936E-3,1.1949926E-3,-2.5994962E-4,1.0705238E-3,-6.3802437E-3,-2.152953E-3,-4.131076E-4,-2.8939252E-3],"split_indices":[0,4,5,10,28,1,13,0,0,0,0,0,0,0,0],"split_type":[0,0,0,0,0,0,0,0,0,0,0,0,0,0,0],"sum_hessian":[3.9021973E4,3.021798E4,8.803992E3,7.3486343E3,2.2869346E4,2.030731E3,6.7732617E3,3.6867084E2,6.9799634E3,1.657458E4,6.294766E3,8.079575E2,1.2227734E3,6.016307E3,7.5695447E2],"tree_param":{"num_deleted":"0","num_feature":"30","num_nodes":"15","size_leaf_vector":"1"}},{"base_weights":[1.3619304E-3,-7.334861E-2,2.7042061E-2,6.1028156E-2,-1.2053037E-1,6.0441338E-2,-1.0743453E-2,2.8594518E-3,-1.6702947E-3,-4.0264274E-3,-1.0856724E-3,6.8989964E-3,1.016255E-3,-6.6936214E-4,7.352031E-4],"categories":[],"categories_nodes":[],"categories_segments":[],"categories_sizes":[],"default_left":[0,0,0,0,0,0,0,0,0,0,0,0,0,0,0],"id":66,"left_children":[1,3,5,7,9,11,13,-1,-1,-1,-1,-1,-1,-1,-1],"loss_changes":[7.501307E1,6.3448635E1,3.6779697E1,4.1169662E1,4.6958076E1,1.3390537E1,1.9581762E1,0E0,0E0,0E0,0E0,0E0,0E0,0E0,0E0],"parents":[2147483647,0,0,1,1,2,2,3,3,4,4,5,5,6,6],"right_children":[2,4,6,8,10,12,14,-1,-1,-1,-1,-1,-1,-1,-1],"split_conditions":[7.4285454E-1,8.999634E-2,6.242697E-4,2.645254E-4,9.002686E-3,-2.951185E5,4.401E3,2.8594518E-3,-1.6702947E-3,-4.0264274E-3,-1.0856724E-3,6.8989964E-3,1.016255E-3,-6.6936214E-4,7.352031E-4],"split_indices":[1,8,27,7,5,10,11,0,0,0,0,0,0,0,0],"split_type":[0,0,0,0,0,0,0,0,0,0,0,0,0,0,0],"sum_hessian":[3.9110914E4,9.996937E3,2.9113977E4,2.5940024E3,7.402934E3,1.5462948E4,1.3651027E4,1.573986E3,1.0200166E3,2.5991892E3,4.803745E3,1.19622055E2,1.5343326E4,8.9914375E3,4.65959E3],"tree_param":{"num_deleted":"0","num_feature":"30","num_nodes":"15","size_leaf_vector":"1"}},{"base_weights":[2.9026517E-3,2.8381152E-2,-7.605343E-2,1.0742455E-1,1.5962634E-2,-1.4871097E-1,-1.697812E-2,1.9943144E-3,-8.225702E-3,1.6435544E-4,3.3586703E-3,6.6912624E-5,-3.3694976E-3,3.6748094E-4,-1.4057313E-3],"categories":[],"categories_nodes":[],"categories_segments":[],"categories_sizes":[],"default_left":[0,0,0,0,0,0,0,0,0,0,0,0,0,0,0],"id":67,"left_children":[1,3,5,7,9,11,13,-1,-1,-1,-1,-1,-1,-1,-1],"loss_changes":[7.839001E1,2.884934E1,4.0676308E1,1.3478195E1,2.937952E1,2.7919838E1,1.2550354E1,0E0,0E0,0E0,0E0,0E0,0E0,0E0,0E0],"parents":[2147483647,0,0,1,1,2,2,3,3,4,4,5,5,6,6],"right_children":[2,4,6,8,10,12,14,-1,-1,-1,-1,-1,-1,-1,-1],"split_conditions":[-4.699248E-3,-5.390942E-3,1.368E3,6.073034E0,7.9406904E7,8.999634E-2,1.3468606E0,1.9943144E-3,-8.225702E-3,1.6435544E-4,3.3586703E-3,6.6912624E-5,-3.3694976E-3,3.6748094E-4,-1.4057313E-3],"split_indices":[6,4,11,23,28,8,24,0,0,0,0,0,0,0,0],"split_type":[0,0,0,0,0,0,0,0,0,0,0,0,0,0,0],"sum_hessian":[3.8979625E4,2.9477383E4,9.502242E3,3.9929312E3,2.5484451E4,4.254777E3,5.2474653E3,3.954863E3,3.8068226E1,2.4560816E4,9.236364E2,9.293594E2,3.3254175E3,3.2700283E3,1.9774371E3],"tree_param":{"num_deleted":"0","num_feature":"30","num_nodes":"15","size_leaf_vector":"1"}},{"base_weights":[-2.7043973E-3,2.7764903E-2,-6.067528E-2,7.730742E-2,5.9759584E-3,-1.5400903E-1,-2.2699868E-2,2.6236996E-3,8.960714E-4,3.6148028E-4,-1.2708848E-3,5.8496284E-5,-3.767514E-3,1.1393201E-3,-6.079603E-4],"categories":[],"categories_nodes":[],"categories_segments":[],"categories_sizes":[],"default_left":[0,0,0,0,0,0,0,0,0,0,0,0,0,0,0],"id":68,"left_children":[1,3,5,7,9,11,13,-1,-1,-1,-1,-1,-1,-1,-1],"loss_changes":[6.898169E1,2.7558487E1,4.757302E1,1.4633717E1,2.022862E1,3.691533E1,9.909906E0,0E0,0E0,0E0,0E0,0E0,0E0,0E0,0E0],"parents":[2147483647,0,0,1,1,2,2,3,3,4,4,5,5,6,6],"right_children":[2,4,6,8,10,12,14,-1,-1,-1,-1,-1,-1,-1,-1],"split_conditions":[-6.50409E-3,-3.26519E-3,5.499987E-1,1.2500021E0,1.4589473E0,5.999756E-2,1.652077E-4,2.6236996E-3,8.960714E-4,3.6148028E-4,-1.2708848E-3,5.8496284E-5,-3.767514E-3,1.1393201E-3,-6.079603E-4],"split_indices":[6,27,1,1,16,8,27,0,0,0,0,0,0,0,0],"split_type":[0,0,0,0,0,0,0,0,0,0,0,0,0,0,0],"sum_hessian":[3.903718E4,2.5581062E4,1.3456116E4,7.802942E3,1.7778121E4,3.8847039E3,9.571412E3,2.0865742E3,5.7163677E3,1.4994853E4,2.7832683E3,1.071513E3,2.813191E3,1.1347164E3,8.436696E3],"tree_param":{"num_deleted":"0","num_feature":"30","num_nodes":"15","size_leaf_vector":"1"}},{"base_weights":[3.4558466E-3,-6.42869E-2,2.6648026E-2,6.7474574E-2,-1.1131697E-1,5.277402E-2,-2.0302397E-3,3.1334087E-3,-8.5727137E-4,-3.6642193E-3,-1.0332101E-3,1.168992E-3,-3.447001E-4,1.0847788E-3,-3.902735E-4],"categories":[],"categories_nodes":[],"categories_segments":[],"categories_sizes":[],"default_left":[0,0,0,0,0,0,0,0,0,0,0,0,0,0,0],"id":69,"left_children":[1,3,5,7,9,11,13,-1,-1,-1,-1,-1,-1,-1,-1],"loss_changes":[6.1310753E1,6.1698467E1,2.1831112E1,3.3713303E1,3.72032E1,1.51058235E1,1.7760939E1,0E0,0E0,0E0,0E0,0E0,0E0,0E0,0E0],"parents":[2147483647,0,0,1,1,2,2,3,3,4,4,5,5,6,6],"right_children":[2,4,6,8,10,12,14,-1,-1,-1,-1,-1,-1,-1,-1],"split_conditions":[7.4285454E-1,9.9975586E-2,8.7170606E-4,0E0,9.002686E-3,1E0,-1.2100935E-3,3.1334087E-3,-8.5727137E-4,-3.6642193E-3,-1.0332101E-3,1.168992E-3,-3.447001E-4,1.0847788E-3,-3.902735E-4],"split_indices":[1,8,29,7,5,12,4,0,0,0,0,0,0,0,0],"split_type":[0,0,0,0,0,0,0,0,0,0,0,0,0,0,0],"sum_hessian":[3.9036438E4,9.947535E3,2.90889E4,2.612601E3,7.334934E3,1.5233427E4,1.3855474E4,1.3409102E3,1.2716909E3,2.5729746E3,4.7619595E3,1.2821139E4,2.4122874E3,3.3213071E3,1.0534167E4],"tree_param":{"num_deleted":"0","num_feature":"30","num_nodes":"15","size_leaf_vector":"1"}},{"base_weights":[-3.3406047E-3,4.551679E-2,-4.0860515E-2,8.567029E-2,1.3809645E-2,-8.8855885E-2,-4.454401E-3,2.3525716E-3,1.0027386E-3,4.456753E-4,-2.0972432E-3,-1.5378399E-4,-2.515716E-3,1.0255856E-2,-1.2199382E-4],"categories":[],"categories_nodes":[],"categories_segments":[],"categories_sizes":[],"default_left":[0,0,0,0,0,0,0,0,0,0,0,0,0,0,0],"id":70,"left_children":[1,3,5,7,9,11,13,-1,-1,-1,-1,-1,-1,-1,-1],"loss_changes":[7.148772E1,2.148735E1,3.8493702E1,1.0135155E1,1.4459848E1,4.1139412E1,1.790508E1,0E0,0E0,0E0,0E0,0E0,0E0,0E0,0E0],"parents":[2147483647,0,0,1,1,2,2,3,3,4,4,5,5,6,6],"right_children":[2,4,6,8,10,12,14,-1,-1,-1,-1,-1,-1,-1,-1],"split_conditions":[-1.1706857E-2,3.333349E1,1.394E3,-5.390942E-3,9.130449E1,-3.1706236E1,1.7857143E-1,2.3525716E-3,1.0027386E-3,4.456753E-4,-2.0972432E-3,-1.5378399E-4,-2.515716E-3,1.0255856E-2,-1.2199382E-4],"split_indices":[6,14,11,4,14,10,1,0,0,0,0,0,0,0,0],"split_type":[0,0,0,0,0,0,0,0,0,0,0,0,0,0,0],"sum_hessian":[3.899563E4,1.6930533E4,2.2065096E4,7.4593364E3,9.471197E3,9.508376E3,1.2556719E4,2.7765068E3,4.6828296E3,8.722333E3,7.4886487E2,3.8400938E3,5.6682827E3,4.9751E1,1.2506968E4],"tree_param":{"num_deleted":"0","num_feature":"30","num_nodes":"15","size_leaf_vector":"1"}},{"base_weights":[3.1393205E-3,-5.3954836E-2,3.1239342E-2,1.9339502E-2,-1.0773959E-1,3.283759E-1,2.8535286E-2,3.5583354E-3,-6.6753227E-4,-2.599284E-3,3.538232E-4,3.89369E-4,6.7873797E-3,9.670244E-4,-0E0],"categories":[],"categories_nodes":[],"categories_segments":[],"categories_sizes":[],"default_left":[0,0,0,0,0,0,0,0,0,0,0,0,0,0,0],"id":71,"left_children":[1,3,5,7,9,11,13,-1,-1,-1,-1,-1,-1,-1,-1],"loss_changes":[6.2593754E1,5.0774803E1,2.0757877E1,5.7130768E1,3.8064415E1,3.809637E0,1.9527563E1,0E0,0E0,0E0,0E0,0E0,0E0,0E0,0E0],"parents":[2147483647,0,0,1,1,2,2,3,3,4,4,5,5,6,6],"right_children":[2,4,6,8,10,12,14,-1,-1,-1,-1,-1,-1,-1,-1],"split_conditions":[1.447E3,0E0,2.285723E-1,1.2802124E-2,3.2499653E3,1.724E3,5.2521745E-4,3.5583354E-3,-6.6753227E-4,-2.599284E-3,3.538232E-4,3.89369E-4,6.7873797E-3,9.670244E-4,-0E0],"split_indices":[11,7,1,8,20,11,27,0,0,0,0,0,0,0,0],"split_type":[0,0,0,0,0,0,0,0,0,0,0,0,0,0,0],"sum_hessian":[3.9020863E4,1.2861848E4,2.6159016E4,5.4387666E3,7.423081E3,2.3156252E2,2.5927453E4,1.298733E3,4.1400337E3,5.657949E3,1.7651318E3,3.8851925E1,1.9271059E2,1.3450549E4,1.2476904E4],"tree_param":{"num_deleted":"0","num_feature":"30","num_nodes":"15","size_leaf_vector":"1"}},{"base_weights":[-1.7031799E-3,4.5992278E-2,-3.2026574E-2,3.3137402E-1,4.3338973E-2,-1.3057217E-1,-1.1020903E-2,7.162873E-3,-6.6290568E-3,3.2287885E-3,6.8392087E-4,4.4196428E-4,-3.6690447E-3,-4.7614577E-4,5.7654287E-4],"categories":[],"categories_nodes":[],"categories_segments":[],"categories_sizes":[],"default_left":[0,0,0,0,0,0,0,0,0,0,0,0,0,0,0],"id":72,"left_children":[1,3,5,7,9,11,13,-1,-1,-1,-1,-1,-1,-1,-1],"loss_changes":[5.6503357E1,1.1209621E1,4.9365967E1,7.6708813E0,9.251795E0,5.103363E1,1.3841085E1,0E0,0E0,0E0,0E0,0E0,0E0,0E0,0E0],"parents":[2147483647,0,0,1,1,2,2,3,3,4,4,5,5,6,6],"right_children":[2,4,6,8,10,12,14,-1,-1,-1,-1,-1,-1,-1,-1],"split_conditions":[-7.820385E-4,4.090972E1,9.002686E-3,2.1002197E-1,1.4702319E0,-8.6023026E1,7.188796E7,7.162873E-3,-6.6290568E-3,3.2287885E-3,6.8392087E-4,4.4196428E-4,-3.6690447E-3,-4.7614577E-4,5.7654287E-4],"split_indices":[27,19,5,5,14,10,28,0,0,0,0,0,0,0,0],"split_type":[0,0,0,0,0,0,0,0,0,0,0,0,0,0,0],"sum_hessian":[3.9070598E4,1.5176331E4,2.3894268E4,1.3525444E2,1.5041077E4,4.190864E3,1.9703404E4,1.237872E2,1.1467242E1,4.573017E2,1.4583775E4,1.3959525E3,2.7949111E3,1.4432468E4,5.270936E3],"tree_param":{"num_deleted":"0","num_feature":"30","num_nodes":"15","size_leaf_vector":"1"}},{"base_weights":[-5.807382E-3,-7.271978E-2,1.7059522E-2,6.398507E-2,-1.2146374E-1,1.0342737E-2,1.5133712E-1,2.449502E-3,-8.6780905E-4,-3.6166457E-3,-1.423148E-3,6.9264625E-4,-3.135925E-4,3.151432E-3,-2.2284528E-3],"categories":[],"categories_nodes":[],"categories_segments":[],"categories_sizes":[],"default_left":[0,0,0,0,0,0,0,0,0,0,0,0,0,0,0],"id":73,"left_children":[1,3,5,7,9,11,13,-1,-1,-1,-1,-1,-1,-1,-1],"loss_changes":[5.9675823E1,6.6256645E1,2.6080122E1,2.2317108E1,2.4778244E1,2.2634914E1,1.0727564E1,0E0,0E0,0E0,0E0,0E0,0E0,0E0,0E0],"parents":[2147483647,0,0,1,1,2,2,3,3,4,4,5,5,6,6],"right_children":[2,4,6,8,10,12,14,-1,-1,-1,-1,-1,-1,-1,-1],"split_conditions":[7.4285454E-1,9.9975586E-2,7.9406904E7,2.361536E-4,4.2142597E-1,2.899593E-4,7.1624755E-3,2.449502E-3,-8.6780905E-4,-3.6166457E-3,-1.423148E-3,6.9264625E-4,-3.135925E-4,3.151432E-3,-2.2284528E-3],"split_indices":[1,8,28,7,1,29,27,0,0,0,0,0,0,0,0],"split_type":[0,0,0,0,0,0,0,0,0,0,0,0,0,0,0],"sum_hessian":[3.8973473E4,9.933147E3,2.9040326E4,2.6070188E3,7.326129E3,2.7663684E4,1.3766425E3,1.5700535E3,1.0369652E3,2.3761948E3,4.949934E3,1.3635573E4,1.4028109E4,1.2544014E3,1.2224104E2],"tree_param":{"num_deleted":"0","num_feature":"30","num_nodes":"15","size_leaf_vector":"1"}},{"base_weights":[-1.9263083E-4,-6.8490274E-2,2.5747683E-2,-1.4052447E-2,-1.3230217E-1,5.969605E-2,4.26545E-3,2.3751585E-3,-8.393123E-4,-4.535108E-3,-1.5384654E-3,1.0904173E-3,-6.7917244E-3,1.2403638E-3,-2.1882265E-4],"categories":[],"categories_nodes":[],"categories_segments":[],"categories_sizes":[],"default_left":[0,0,0,0,0,0,0,0,0,0,0,0,0,0,0],"id":74,"left_children":[1,3,5,7,9,11,13,-1,-1,-1,-1,-1,-1,-1,-1],"loss_changes":[6.9182526E1,3.724525E1,2.058105E1,2.9095379E1,2.7544998E1,1.09586525E1,1.9219799E1,0E0,0E0,0E0,0E0,0E0,0E0,0E0,0E0],"parents":[2147483647,0,0,1,1,2,2,3,3,4,4,5,5,6,6],"right_children":[2,4,6,8,10,12,14,-1,-1,-1,-1,-1,-1,-1,-1],"split_conditions":[1.241033E-3,3.1721592E-4,-1.6475827E-2,2.999878E-2,9.002686E-3,6.073034E0,-1.67799E-3,2.3751585E-3,-8.393123E-4,-4.535108E-3,-1.5384654E-3,1.0904173E-3,-6.7917244E-3,1.2403638E-3,-2.1882265E-4],"split_indices":[22,4,6,8,5,23,7,0,0,0,0,0,0,0,0],"split_type":[0,0,0,0,0,0,0,0,0,0,0,0,0,0,0],"sum_hessian":[3.9029215E4,1.0749728E4,2.8279488E4,5.8079805E3,4.941747E3,1.0946128E4,1.733336E4,1.0649838E3,4.7429966E3,1.2950997E3,3.6466475E3,1.0893535E4,5.2592537E1,3.497794E3,1.3835566E4],"tree_param":{"num_deleted":"0","num_feature":"30","num_nodes":"15","size_leaf_vector":"1"}},{"base_weights":[4.4258297E-4,-5.2576955E-2,3.0457787E-2,-3.8381826E-2,-2.9587764E-1,5.4964293E-2,1.1819097E-3,7.939291E-4,-1.1642438E-3,-5.660526E-3,5.170083E-3,8.473634E-4,3.0202696E-3,6.035992E-4,-5.6434947E-4],"categories":[],"categories_nodes":[],"categories_segments":[],"categories_sizes":[],"default_left":[0,0,0,0,0,0,0,0,0,0,0,0,0,0,0],"id":75,"left_children":[1,3,5,7,9,11,13,-1,-1,-1,-1,-1,-1,-1,-1],"loss_changes":[6.2145393E1,4.8485798E1,1.7861288E1,3.0976082E1,1.2017494E1,1.0603596E1,1.2544546E1,0E0,0E0,0E0,0E0,0E0,0E0,0E0,0E0],"parents":[2147483647,0,0,1,1,2,2,3,3,4,4,5,5,6,6],"right_children":[2,4,6,8,10,12,14,-1,-1,-1,-1,-1,-1,-1,-1],"split_conditions":[1.558E3,-4.7907117E-4,8.983122E-4,9.9990845E-2,5.616653E3,7.9406904E7,6.435777E7,7.939291E-4,-1.1642438E-3,-5.660526E-3,5.170083E-3,8.473634E-4,3.0202696E-3,6.035992E-4,-5.6434947E-4],"split_indices":[11,0,27,8,20,28,28,0,0,0,0,0,0,0,0],"split_type":[0,0,0,0,0,0,0,0,0,0,0,0,0,0,0],"sum_hessian":[3.9056637E4,1.41093545E4,2.4947283E4,1.3336276E4,7.730779E2,1.3566177E4,1.1381106E4,3.3237034E3,1.0012573E4,7.425432E2,3.0534637E1,1.2827169E4,7.390072E2,5.712211E3,5.6688955E3],"tree_param":{"num_deleted":"0","num_feature":"30","num_nodes":"15","size_leaf_vector":"1"}},{"base_weights":[-1.662632E-3,1.36735635E-2,-8.947741E-2,8.583872E-2,2.5869044E-3,-2.268976E-1,-4.5441244E-2,3.1888024E-3,-8.165956E-5,-1.3047585E-3,3.543842E-4,-6.7437314E-3,-2.2715824E-3,-9.592164E-4,4.0721823E-3],"categories":[],"categories_nodes":[],"categories_segments":[],"categories_sizes":[],"default_left":[0,0,0,0,0,0,0,0,0,0,0,0,0,0,0],"id":76,"left_children":[1,3,5,7,9,11,13,-1,-1,-1,-1,-1,-1,-1,-1],"loss_changes":[5.254675E1,2.64834E1,3.4904396E1,3.819162E1,3.8728676E1,2.10251E1,1.0965011E1,0E0,0E0,0E0,0E0,0E0,0E0,0E0,0E0],"parents":[2147483647,0,0,1,1,2,2,3,3,4,4,5,5,6,6],"right_children":[2,4,6,8,10,12,14,-1,-1,-1,-1,-1,-1,-1,-1],"split_conditions":[-1.713036E-3,7.998657E-2,9.002686E-3,-3.8135052E-4,7.357112E-1,3.9286804E-1,7.994039E7,3.1888024E-3,-8.165956E-5,-1.3047585E-3,3.543842E-4,-6.7437314E-3,-2.2715824E-3,-9.592164E-4,4.0721823E-3],"split_indices":[0,8,5,7,1,1,28,0,0,0,0,0,0,0,0],"split_type":[0,0,0,0,0,0,0,0,0,0,0,0,0,0,0],"sum_hessian":[3.8975508E4,3.3175484E4,5.800024E3,4.4080664E3,2.8767416E4,1.4018755E3,4.3981484E3,2.1483472E3,2.2597192E3,5.34704E3,2.3420377E4,5.3445685E2,8.6741864E2,4.2623857E3,1.3576271E2],"tree_param":{"num_deleted":"0","num_feature":"30","num_nodes":"15","size_leaf_vector":"1"}},{"base_weights":[-4.5295458E-4,-9.496719E-2,1.5239285E-2,4.6999462E-2,-1.5402798E-1,5.7232305E-2,-3.3125666E-4,4.03509E-3,-5.379743E-4,8.550486E-4,-3.1907188E-3,1.6546282E-3,3.779062E-4,-3.7799485E-4,9.016448E-4],"categories":[],"categories_nodes":[],"categories_segments":[],"categories_sizes":[],"default_left":[0,0,0,0,0,0,0,0,0,0,0,0,0,0,0],"id":77,"left_children":[1,3,5,7,9,11,13,-1,-1,-1,-1,-1,-1,-1,-1],"loss_changes":[5.7892147E1,4.6696674E1,2.1902418E1,2.3225002E1,2.1867233E1,1.1837622E1,2.6585855E1,0E0,0E0,0E0,0E0,0E0,0E0,0E0,0E0],"parents":[2147483647,0,0,1,1,2,2,3,3,4,4,5,5,6,6],"right_children":[2,4,6,8,10,12,14,-1,-1,-1,-1,-1,-1,-1,-1],"split_conditions":[8.92E2,-7.15971E-4,-2.5543335E-3,9.979248E-3,-7.393956E-4,9.025429E-1,7.142632E7,4.03509E-3,-5.379743E-4,8.550486E-4,-3.1907188E-3,1.6546282E-3,3.779062E-4,-3.7799485E-4,9.016448E-4],"split_indices":[11,4,27,8,7,16,28,0,0,0,0,0,0,0,0],"split_type":[0,0,0,0,0,0,0,0,0,0,0,0,0,0,0],"sum_hessian":[3.8993004E4,5.5570234E3,3.343598E4,1.6293391E3,3.9276843E3,9.054692E3,2.438129E4,4.8780627E2,1.1415328E3,4.6361884E2,3.4640654E3,4.4501567E3,4.6045356E3,1.7300486E4,7.0808027E3],"tree_param":{"num_deleted":"0","num_feature":"30","num_nodes":"15","size_leaf_vector":"1"}},{"base_weights":[-4.0618816E-4,3.941877E-2,-3.307887E-2,5.9035446E-2,-7.500713E-3,-1.10214315E-1,-1.235995E-2,4.901178E-3,9.465225E-4,-1.6557031E-3,1.6084753E-4,-2.131606E-5,-3.3612729E-3,3.000486E-3,-3.3838645E-4],"categories":[],"categories_nodes":[],"categories_segments":[],"categories_sizes":[],"default_left":[0,0,0,0,0,0,0,0,0,0,0,0,0,0,0],"id":78,"left_children":[1,3,5,7,9,11,13,-1,-1,-1,-1,-1,-1,-1,-1],"loss_changes":[5.0739162E1,1.6203718E1,3.4165462E1,1.399654E1,7.5122123E0,3.9788864E1,2.1153284E1,0E0,0E0,0E0,0E0,0E0,0E0,0E0,0E0],"parents":[2147483647,0,0,1,1,2,2,3,3,4,4,5,5,6,6],"right_children":[2,4,6,8,10,12,14,-1,-1,-1,-1,-1,-1,-1,-1],"split_conditions":[-6.885952E-3,1.1225992E0,9.002686E-3,-1.1977732E-2,9.9975586E-2,-1.8042326E-4,1.9913058E7,4.901178E-3,9.465225E-4,-1.6557031E-3,1.6084753E-4,-2.131606E-5,-3.3612729E-3,3.000486E-3,-3.3838645E-4],"split_indices":[0,16,5,7,5,7,15,0,0,0,0,0,0,0,0],"split_type":[0,0,0,0,0,0,0,0,0,0,0,0,0,0,0],"sum_hessian":[3.8994E4,1.7563914E4,2.1430084E4,1.2395516E4,5.168398E3,4.528714E3,1.6901371E4,2.834116E2,1.21121045E4,8.3829175E2,4.3301064E3,1.9328086E3,2.5959053E3,6.0690137E2,