{"learner":{"attributes":{"scikit_learn":"{\"_estimator_type\": \"classifier\"}"},"feature_names":["price_vs_ema_20","stoch_k","taker_buy_sell_ratio","dayofweek_sin","resistance_50","volume_price_trend","support_20","close","vwap","resistance_20","is_shooting_star","price_vs_vwap","return_3","price_vs_resistance_20","volatility_10","hour_cos","bb_upper","volu_ma_20","taker_buy_base_asset_volume","ema_20","parkinson_vol","price_vs_resistance_50","price_vs_support_20","price_vs_ema_50","ema_12","atr_14","volatility_change_10","support_50","bb_lower","return_1"],"feature_types":["float","float","float","float","float","float","float","float","float","float","int","float","float","float","float","float","float","float","float","float","float","float","float","float","float","float","float","float","float","float"],"gradient_booster":{"model":{"gbtree_model_param":{"num_parallel_tree":"1","num_trees":"98"},"iteration_indptr":[0,1,2,3,4,5,6,7,8,9,10,11,12,13,14,15,16,17,18,19,20,21,22,23,24,25,26,27,28,29,30,31,32,33,34,35,36,37,38,39,40,41,42,43,44,45,46,47,48,49,50,51,52,53,54,55,56,57,58,59,60,61,62,63,64,65,66,67,68,69,70,71,72,73,74,75,76,77,78,79,80,81,82,83,84,85,86,87,88,89,90,91,92,93,94,95,96,97,98],"tree_info":[0,0,0,0,0,0,0,0,0,0,0,0,0,0,0,0,0,0,0,0,0,0,0,0,0,0,0,0,0,0,0,0,0,0,0,0,0,0,0,0,0,0,0,0,0,0,0,0,0,0,0,0,0,0,0,0,0,0,0,0,0,0,0,0,0,0,0,0,0,0,0,0,0,0,0,0,0,0,0,0,0,0,0,0,0,0,0,0,0,0,0,0,0,0,0,0,0,0],"trees":[{"base_weights":[4.287934E-3,1.2246555E-1,-9.9102765E-2,2.5849062E-1,8.1334524E-2,-4.6675213E-2,-1.9490376E-1,3.8527918E-1,2.1254873E-1,1.1359988E-1,-3.5010779E-3,4.8120055E-2,-8.7914504E-2,-3.0090874E-1,-1.5455186E-1,3.2182235E-1,5.6494683E-1,4.4837E-1,1.84869E-1,1.24019206E-1,-1.6675472E-1,1.3062748E-1,-2.5360689E-2,1.6700093E-1,1.0629309E-2,-3.3643194E-2,-1.4144446E-1,-1.4108208E-1,-3.7449783E-1,-1.0378624E-1,-2.2397469E-1,3.298543E-3,6.269528E-3,1.1201121E-2,5.1090615E-3,6.672533E-3,-0E0,-2.077965E-3,2.5427649E-3,1.7641033E-3,-1.7548047E-3,-1.6812535E-4,-4.0073902E-3,2.1978219E-3,-5.758986E-3,-2.0903065E-4,-5.193058E-3,3.4878198E-3,6.6004175E-4,3.5901318E-4,-2.0878336E-3,-1.1907113E-4,-1.9814176E-3,-7.2819303E-4,-2.4129574E-3,6.235367E-4,-2.7509755E-3,-7.8752066E-4,-5.2832873E-3,-1.0500716E-3,-4.2346707E-3,-4.192239E-3,-2.1102289E-3],"categories":[],"categories_nodes":[],"categories_segments":[],"categories_sizes":[],"default_left":[0,0,0,0,0,0,0,0,0,0,0,0,0,0,0,0,0,0,0,0,0,0,0,0,0,0,0,0,0,0,0,0,0,0,0,0,0,0,0,0,0,0,0,0,0,0,0,0,0,0,0,0,0,0,0,0,0,0,0,0,0,0,0],"id":0,"left_children":[1,3,5,7,9,11,13,15,17,19,21,23,25,27,29,31,33,35,37,39,41,43,45,47,49,51,53,55,57,59,61,-1,-1,-1,-1,-1,-1,-1,-1,-1,-1,-1,-1,-1,-1,-1,-1,-1,-1,-1,-1,-1,-1,-1,-1,-1,-1,-1,-1,-1,-1,-1,-1],"loss_changes":[4.4686896E2,9.4936615E1,9.752489E1,2.1964996E1,3.6091644E1,4.9381878E1,2.8654388E1,1.0221985E1,1.7896362E1,2.7755997E1,1.0391255E1,1.669932E1,2.5280365E1,2.1280106E1,1.7059593E1,7.22937E0,1.0972694E1,7.8875923E0,8.120224E0,2.4739304E1,6.64489E0,1.0020466E1,1.017498E1,9.888849E0,8.056129E0,1.2388752E1,1.5715645E1,8.081972E0,1.0598755E1,1.4413277E1,1.1811424E1,0E0,0E0,0E0,0E0,0E0,0E0,0E0,0E0,0E0,0E0,0E0,0E0,0E0,0E0,0E0,0E0,0E0,0E0,0E0,0E0,0E0,0E0,0E0,0E0,0E0,0E0,0E0,0E0,0E0,0E0,0E0,0E0],"parents":[2147483647,0,0,1,1,2,2,3,3,4,4,5,5,6,6,7,7,8,8,9,9,10,10,11,11,12,12,13,13,14,14,15,15,16,16,17,17,18,18,19,19,20,20,21,21,22,22,23,23,24,24,25,25,26,26,27,27,28,28,29,29,30,30],"right_children":[2,4,6,8,10,12,14,16,18,20,22,24,26,28,30,32,34,36,38,40,42,44,46,48,50,52,54,56,58,60,62,-1,-1,-1,-1,-1,-1,-1,-1,-1,-1,-1,-1,-1,-1,-1,-1,-1,-1,-1,-1,-1,-1,-1,-1,-1,-1,-1,-1,-1,-1,-1,-1],"split_conditions":[-1.0494807E-4,1.5301485E1,7.994829E1,4.951923E0,1.0855501E0,-6.13451E-4,-4.3388373E-1,5.137661E2,2.1188008E4,4.202485E-3,-7.818315E-1,-2.0375252E-3,-5.8018505E-3,1.6076264E-3,3.5187006E-3,3.234011E-1,5.3161156E-4,-1.1955267E-3,-2.669806E-1,6.7303696E1,6.837845E-4,4.0618205E-4,-3.5510382E-3,2.5881904E-1,-2.6851809E-3,4.7096432E2,6.127633E-4,-6.052064E-3,-1.4325711E-1,6.7480804E2,-5.0779004E-3,3.298543E-3,6.269528E-3,1.1201121E-2,5.1090615E-3,6.672533E-3,-0E0,-2.077965E-3,2.5427649E-3,1.7641033E-3,-1.7548047E-3,-1.6812535E-4,-4.0073902E-3,2.1978219E-3,-5.758986E-3,-2.0903065E-4,-5.193058E-3,3.4878198E-3,6.6004175E-4,3.5901318E-4,-2.0878336E-3,-1.1907113E-4,-1.9814176E-3,-7.2819303E-4,-2.4129574E-3,6.235367E-4,-2.7509755E-3,-7.8752066E-4,-5.2832873E-3,-1.0500716E-3,-4.2346707E-3,-4.192239E-3,-2.1102289E-3],"split_indices":[0,1,1,1,2,29,3,17,8,12,3,12,21,0,12,26,22,11,26,1,29,11,21,15,21,18,0,21,26,18,21,0,0,0,0,0,0,0,0,0,0,0,0,0,0,0,0,0,0,0,0,0,0,0,0,0,0,0,0,0,0,0,0],"split_type":[0,0,0,0,0,0,0,0,0,0,0,0,0,0,0,0,0,0,0,0,0,0,0,0,0,0,0,0,0,0,0,0,0,0,0,0,0,0,0,0,0,0,0,0,0,0,0,0,0,0,0,0,0,0,0,0,0,0,0,0,0,0,0],"sum_hessian":[3.656802E4,1.7071096E4,1.9496926E4,3.952919E3,1.3118177E4,1.2613054E4,6.883872E3,1.0398214E3,2.9130977E3,9.517418E3,3.600758E3,3.8115728E3,8.80148E3,1.8848722E3,4.999E3,7.7732886E2,2.6249246E2,2.9811227E2,2.6149854E3,9.182585E3,3.3483365E2,4.933501E2,3.107408E3,9.024822E2,2.9090906E3,4.3865405E3,4.4149404E3,6.022355E2,1.2826367E3,2.9026628E3,2.0963372E3,5.447804E2,2.3254848E2,9.416563E1,1.6832684E2,2.6196042E2,3.6151867E1,6.129382E1,2.5536914E3,8.831687E3,3.508978E2,1.6484113E2,1.6999252E2,4.6673825E2,2.6611858E1,3.0356697E3,7.173818E1,4.802731E2,4.222091E2,2.6576494E3,2.5144102E2,3.639842E3,7.466984E2,1.4738173E3,2.941123E3,1.5432835E2,4.479071E2,1.1060496E2,1.1720317E3,2.6267139E3,2.75949E2,8.219416E2,1.2743956E3],"tree_param":{"num_deleted":"0","num_feature":"30","num_nodes":"63","size_leaf_vector":"1"}},{"base_weights":[-4.574822E-3,1.3067919E-1,-9.940776E-2,1.8615207E-1,3.899056E-2,-4.807684E-2,-1.9661921E-1,3.252015E-1,1.5937585E-1,1.0199655E-1,-2.5426842E-2,1.7794881E-2,-9.233902E-2,-2.960438E-1,-1.59719E-1,-4.941927E-3,3.3297297E-1,3.2373884E-1,1.3789088E-1,2.574341E-1,5.7273157E-2,1.515658E-1,-4.6256974E-2,1.5842389E-1,-2.1307865E-2,5.3566303E-3,-1.079996E-1,-9.880607E-2,-3.519497E-1,1.157623E-1,-1.7134383E-1,6.2761838E-3,3.7592165E-3,5.288826E-3,1.7499784E-3,1.2365387E-4,2.0601826E-3,1.1520084E-3,4.274142E-3,1.039567E-3,-1.9281106E-3,3.4532516E-4,3.8169946E-3,-1.4055856E-3,1.9590789E-6,4.1210224E-4,2.7088672E-3,2.6064267E-4,-1.0164062E-3,-2.2091677E-3,6.372809E-4,1.1879659E-3,-1.5188532E-3,-3.1594845E-4,-4.796508E-3,-3.5095375E-3,-5.7969675E-3,-1.2518407E-4,5.599719E-3,-1.2703369E-3,-2.719654E-3],"categories":[],"categories_nodes":[],"categories_segments":[],"categories_sizes":[],"default_left":[0,0,0,0,0,0,0,0,0,0,0,0,0,0,0,0,0,0,0,0,0,0,0,0,0,0,0,0,0,0,0,0,0,0,0,0,0,0,0,0,0,0,0,0,0,0,0,0,0,0,0,0,0,0,0,0,0,0,0,0,0],"id":1,"left_children":[1,3,5,7,9,11,13,15,17,19,21,23,25,27,29,-1,31,33,35,37,39,41,43,45,47,49,51,53,55,57,59,-1,-1,-1,-1,-1,-1,-1,-1,-1,-1,-1,-1,-1,-1,-1,-1,-1,-1,-1,-1,-1,-1,-1,-1,-1,-1,-1,-1,-1,-1],"loss_changes":[4.7122992E2,7.6612274E1,1.0740094E2,3.422174E1,2.3337189E1,4.13862E1,2.6552979E1,8.296555E0,2.7130463E1,1.9655405E1,1.0214535E1,3.1427616E1,1.3142395E1,2.1328384E1,1.7569214E1,0E0,8.706802E0,1.2736588E1,1.6951569E1,6.7151184E0,1.0059475E1,4.505765E0,7.3176775E0,7.192398E0,1.0342861E1,8.507006E0,1.1346817E1,8.335335E0,1.0518188E1,9.09326E0,1.3508804E1,0E0,0E0,0E0,0E0,0E0,0E0,0E0,0E0,0E0,0E0,0E0,0E0,0E0,0E0,0E0,0E0,0E0,0E0,0E0,0E0,0E0,0E0,0E0,0E0,0E0,0E0,0E0,0E0,0E0,0E0],"parents":[2147483647,0,0,1,1,2,2,3,3,4,4,5,5,6,6,7,7,8,8,9,9,10,10,11,11,12,12,13,13,14,14,16,16,17,17,18,18,19,19,20,20,21,21,22,22,23,23,24,24,25,25,26,26,27,27,28,28,29,29,30,30],"right_children":[2,4,6,8,10,12,14,16,18,20,22,24,26,28,30,-1,32,34,36,38,40,42,44,46,48,50,52,54,56,58,60,-1,-1,-1,-1,-1,-1,-1,-1,-1,-1,-1,-1,-1,-1,-1,-1,-1,-1,-1,-1,-1,-1,-1,-1,-1,-1,-1,-1,-1,-1],"split_conditions":[4.4083424E1,-7.253289E-4,7.8921135E1,7.2983613E0,-1.1456058E-3,-3.002882E-4,-4.3388373E-1,4.5193834E-4,4.4791573E1,6.313477E1,1.6528881E1,-2.0375252E-3,8.154403E-1,6.675135E-4,-7.787943E-4,-4.941927E-3,-4.3388373E-1,3.0888248E1,1.224711E-3,-2.4324656E-4,4.317403E-3,5.755386E1,1.348257E-4,3.0472684E2,2.0185986E-3,-4.689836E2,-2.949758E-1,1.4002469E-1,8.8920944E1,6.1574248E-3,5.121231E-4,6.2761838E-3,3.7592165E-3,5.288826E-3,1.7499784E-3,1.2365387E-4,2.0601826E-3,1.1520084E-3,4.274142E-3,1.039567E-3,-1.9281106E-3,3.4532516E-4,3.8169946E-3,-1.4055856E-3,1.9590789E-6,4.1210224E-4,2.7088672E-3,2.6064267E-4,-1.0164062E-3,-2.2091677E-3,6.372809E-4,1.1879659E-3,-1.5188532E-3,-3.1594845E-4,-4.796508E-3,-3.5095375E-3,-5.7969675E-3,-1.2518407E-4,5.599719E-3,-1.2703369E-3,-2.719654E-3],"split_indices":[1,12,1,1,23,29,3,14,25,18,1,12,2,23,12,0,3,1,14,12,12,18,12,17,23,5,26,26,1,14,29,0,0,0,0,0,0,0,0,0,0,0,0,0,0,0,0,0,0,0,0,0,0,0,0,0,0,0,0,0,0],"split_type":[0,0,0,0,0,0,0,0,0,0,0,0,0,0,0,0,0,0,0,0,0,0,0,0,0,0,0,0,0,0,0,0,0,0,0,0,0,0,0,0,0,0,0,0,0,0,0,0,0,0,0,0,0,0,0,0,0,0,0,0,0],"sum_hessian":[3.6740566E4,1.5135747E4,2.160482E4,9.418471E3,5.7172764E3,1.4151036E4,7.4537837E3,1.5090441E3,7.909427E3,2.9028684E3,2.8144082E3,5.6725757E3,8.478461E3,2.003556E3,5.4502275E3,1.3669856E1,1.4953741E3,9.038405E2,7.0055864E3,6.393003E2,2.263568E3,2.873638E2,2.5270444E3,1.2425682E3,4.4300073E3,1.1569532E3,7.321508E3,4.4959872E2,1.5539573E3,2.1458395E2,5.2356436E3,3.5109854E2,1.1442756E3,6.309432E2,2.7289734E2,9.19638E2,6.085948E3,1.9118466E2,4.481156E2,2.0516113E3,2.1195683E2,1.5820598E2,1.2915784E2,1.1077853E3,1.419259E3,3.5088684E2,8.9168134E2,2.5396306E3,1.8903766E3,2.2229582E2,9.346575E2,2.6730997E2,7.0541978E3,3.5691977E2,9.267897E1,8.128187E2,7.4113855E2,1.4992763E2,6.465633E1,1.7199745E3,3.515669E3],"tree_param":{"num_deleted":"0","num_feature":"30","num_nodes":"61","size_leaf_vector":"1"}},{"base_weights":[-1.5560349E-3,1.1792482E-1,-1.0780518E-1,1.7717174E-1,3.2240525E-2,-5.3818945E-2,-1.9463158E-1,2.8777224E-1,1.3100779E-1,8.659031E-2,-4.169514E-2,5.7053906E-3,-8.740737E-2,-1.2096009E-1,-2.4665998E-1,2.2013062E-1,4.056738E-1,1.0401265E-1,2.0165843E-1,1.2665378E-1,2.9623918E-3,-7.330585E-2,6.1557155E-2,1.3575727E-1,-2.4977952E-2,-2.3336396E-2,-1.2644026E-1,3.765897E-2,-1.5533724E-1,-3.7405634E-1,-2.0947148E-1,4.239702E-3,1.9968732E-3,5.460523E-3,-1.5336704E-3,2.2538076E-3,8.4544905E-4,1.9279284E-3,4.406474E-3,6.5982784E-3,1.502681E-3,9.936248E-4,-8.45917E-4,-4.582962E-3,-7.937864E-4,-5.7151605E-4,2.6537878E-3,2.38914E-3,-1.7148713E-3,1.0661125E-3,-6.925486E-4,7.3528755E-4,-1.511162E-3,-3.6556637E-3,-1.3154277E-3,2.0942024E-3,-9.985007E-4,6.0485312E-5,-2.30791E-3,-5.8543324E-3,-2.7948075E-3,1.3392171E-3,-2.979529E-3],"categories":[],"categories_nodes":[],"categories_segments":[],"categories_sizes":[],"default_left":[0,0,0,0,0,0,0,0,0,0,0,0,0,0,0,0,0,0,0,0,0,0,0,0,0,0,0,0,0,0,0,0,0,0,0,0,0,0,0,0,0,0,0,0,0,0,0,0,0,0,0,0,0,0,0,0,0,0,0,0,0,0,0],"id":2,"left_children":[1,3,5,7,9,11,13,15,17,19,21,23,25,27,29,31,33,35,37,39,41,43,45,47,49,51,53,55,57,59,61,-1,-1,-1,-1,-1,-1,-1,-1,-1,-1,-1,-1,-1,-1,-1,-1,-1,-1,-1,-1,-1,-1,-1,-1,-1,-1,-1,-1,-1,-1,-1,-1],"loss_changes":[4.6657013E2,8.743733E1,9.080658E1,5.1413452E1,2.8534586E1,2.4153168E1,2.7919128E1,2.2772247E1,1.3241325E1,1.3505594E1,9.777075E0,1.7411625E1,1.9001602E1,1.7094738E1,1.9578766E1,1.2568825E1,6.497177E0,1.3656631E1,1.3674812E1,1.1489235E1,6.6026726E0,7.434618E0,1.0458406E1,1.0414005E1,1.0249244E1,2.1475065E1,1.8342346E1,7.7013006E0,8.690395E0,1.0115082E1,1.8800049E1,0E0,0E0,0E0,0E0,0E0,0E0,0E0,0E0,0E0,0E0,0E0,0E0,0E0,0E0,0E0,0E0,0E0,0E0,0E0,0E0,0E0,0E0,0E0,0E0,0E0,0E0,0E0,0E0,0E0,0E0,0E0,0E0],"parents":[2147483647,0,0,1,1,2,2,3,3,4,4,5,5,6,6,7,7,8,8,9,9,10,10,11,11,12,12,13,13,14,14,15,15,16,16,17,17,18,18,19,19,20,20,21,21,22,22,23,23,24,24,25,25,26,26,27,27,28,28,29,29,30,30],"right_children":[2,4,6,8,10,12,14,16,18,20,22,24,26,28,30,32,34,36,38,40,42,44,46,48,50,52,54,56,58,60,62,-1,-1,-1,-1,-1,-1,-1,-1,-1,-1,-1,-1,-1,-1,-1,-1,-1,-1,-1,-1,-1,-1,-1,-1,-1,-1,-1,-1,-1,-1,-1,-1],"split_conditions":[4.9477207E1,-7.253289E-4,7.8921135E1,1.8027393E-3,-6.2036293E-4,-4.364252E-4,6.0655586E3,2.9909207E2,1.06452614E-1,1.275897E-3,5.0191586E-3,-2.229154E-3,4.837566E-4,-1.9144978E-4,-4.3388373E-1,-4.3388373E-1,3.6928074E1,3.418147E4,-1.554923E-3,1.6792443E4,6.0655586E3,1.2631417E1,1.0496855E2,9.659258E-1,4.922336E-3,1.272787E2,-7.818315E-1,1.0654926E-3,-1.6481069E-1,7.0710677E-1,-4.0352345E-5,4.239702E-3,1.9968732E-3,5.460523E-3,-1.5336704E-3,2.2538076E-3,8.4544905E-4,1.9279284E-3,4.406474E-3,6.5982784E-3,1.502681E-3,9.936248E-4,-8.45917E-4,-4.582962E-3,-7.937864E-4,-5.7151605E-4,2.6537878E-3,2.38914E-3,-1.7148713E-3,1.0661125E-3,-6.925486E-4,7.3528755E-4,-1.511162E-3,-3.6556637E-3,-1.3154277E-3,2.0942024E-3,-9.985007E-4,6.0485312E-5,-2.30791E-3,-5.8543324E-3,-2.7948075E-3,1.3392171E-3,-2.979529E-3],"split_indices":[1,12,1,22,0,29,5,17,26,12,26,12,0,23,3,3,1,6,23,28,5,25,18,15,22,18,3,12,26,15,12,0,0,0,0,0,0,0,0,0,0,0,0,0,0,0,0,0,0,0,0,0,0,0,0,0,0,0,0,0,0,0,0],"split_type":[0,0,0,0,0,0,0,0,0,0,0,0,0,0,0,0,0,0,0,0,0,0,0,0,0,0,0,0,0,0,0,0,0,0,0,0,0,0,0,0,0,0,0,0,0,0,0,0,0,0,0,0,0,0,0,0,0,0,0,0,0,0,0],"sum_hessian":[3.6752246E4,1.7291639E4,1.9460605E4,1.0210951E4,7.0806885E3,1.2012289E4,7.448317E3,2.9948398E3,7.2161113E3,4.0935486E3,2.98714E3,4.3158696E3,7.696419E3,3.0974224E3,4.350894E3,1.9137897E3,1.0810502E3,5.2398193E3,1.9762922E3,2.7540266E3,1.3395219E3,2.2993772E3,6.877625E2,8.333948E2,3.4824749E3,2.930242E3,4.7661772E3,5.432054E2,2.554217E3,9.709894E2,3.3799048E3,7.492896E2,1.1645E3,1.0629803E3,1.8069853E1,1.9150255E3,3.3247937E3,1.4141995E3,5.620927E2,8.038264E1,2.673644E3,6.55922E2,6.8359985E2,9.502948E1,2.204348E3,3.8741702E2,3.0034546E2,7.1544916E2,1.1794559E2,7.098011E2,2.7726738E3,1.5624167E3,1.3678252E3,6.887819E2,4.077395E3,2.6891382E2,2.7429153E2,2.8210107E2,2.272116E3,6.621943E2,3.0879507E2,1.757724E2,3.2041323E3],"tree_param":{"num_deleted":"0","num_feature":"30","num_nodes":"63","size_leaf_vector":"1"}},{"base_weights":[-3.9123027E-3,1.1765755E-1,-1.1199224E-1,2.187674E-1,6.1408944E-2,-7.0831063E-3,-1.5532053E-1,5.225464E-1,2.0150983E-1,9.2057005E-2,-7.266844E-3,6.14843E-2,-4.1389577E-2,-1.1994155E-1,-2.5261325E-1,-6.166033E-2,5.702445E-1,3.695386E-1,1.6595359E-1,1.706E-1,6.0974687E-2,1.689972E-3,-2.4825431E-1,3.9708216E-2,2.4977642E-1,2.7996786E-2,-1.3289872E-1,-4.5381643E-2,-1.514536E-1,-3.6399254E-1,-2.1066976E-1,1.7618883E-3,-4.9047214E-3,-0E0,7.935051E-3,4.9703955E-3,-5.059825E-3,1.4349677E-3,2.8568772E-3,4.5955335E-3,1.6180829E-3,-1.3399739E-3,9.5779635E-4,5.8717895E-3,-3.614274E-5,-5.4214653E-3,-0E0,-6.76319E-4,1.371261E-3,8.454611E-3,1.8535078E-3,1.7937474E-4,3.5892248E-3,-2.1447795E-3,3.1987228E-4,1.1804906E-3,-9.793047E-4,-3.4136134E-3,-1.6651124E-3,-3.2502576E-3,-5.7944283E-3,1.786622E-4,-2.9993232E-3],"categories":[],"categories_nodes":[],"categories_segments":[],"categories_sizes":[],"default_left":[0,0,0,0,0,0,0,0,0,0,0,0,0,0,0,0,0,0,0,0,0,0,0,0,0,0,0,0,0,0,0,0,0,0,0,0,0,0,0,0,0,0,0,0,0,0,0,0,0,0,0,0,0,0,0,0,0,0,0,0,0,0,0],"id":3,"left_children":[1,3,5,7,9,11,13,15,17,19,21,23,25,27,29,31,33,35,37,39,41,43,45,47,49,51,53,55,57,59,61,-1,-1,-1,-1,-1,-1,-1,-1,-1,-1,-1,-1,-1,-1,-1,-1,-1,-1,-1,-1,-1,-1,-1,-1,-1,-1,-1,-1,-1,-1,-1,-1],"loss_changes":[4.8157437E2,9.758937E1,8.79601E1,3.0956848E1,2.348383E1,1.3343582E1,4.660138E1,9.926636E0,3.388051E1,1.8371193E1,7.7583585E0,7.2250814E0,2.4342295E1,2.3352371E1,1.6013367E1,1.8450499E0,5.830902E0,7.2354126E0,1.3566696E1,1.7552082E1,1.0796225E1,7.2295218E0,4.9546165E0,1.0115042E1,6.6196184E0,7.1069307E0,8.176033E0,1.1909725E1,1.8191635E1,7.6522064E0,1.1069E1,0E0,0E0,0E0,0E0,0E0,0E0,0E0,0E0,0E0,0E0,0E0,0E0,0E0,0E0,0E0,0E0,0E0,0E0,0E0,0E0,0E0,0E0,0E0,0E0,0E0,0E0,0E0,0E0,0E0,0E0,0E0,0E0],"parents":[2147483647,0,0,1,1,2,2,3,3,4,4,5,5,6,6,7,7,8,8,9,9,10,10,11,11,12,12,13,13,14,14,15,15,16,16,17,17,18,18,19,19,20,20,21,21,22,22,23,23,24,24,25,25,26,26,27,27,28,28,29,29,30,30],"right_children":[2,4,6,8,10,12,14,16,18,20,22,24,26,28,30,32,34,36,38,40,42,44,46,48,50,52,54,56,58,60,62,-1,-1,-1,-1,-1,-1,-1,-1,-1,-1,-1,-1,-1,-1,-1,-1,-1,-1,-1,-1,-1,-1,-1,-1,-1,-1,-1,-1,-1,-1,-1,-1],"split_conditions":[-8.2543556E-5,2.167891E1,-3.3009052E-4,1.9511361E4,6.0655586E3,-5.9919935E-3,8.779472E1,-1.6481069E-1,4.951923E0,-2.352767E-3,-5.618921E-3,2.0390964E3,1.9372741E-3,-8.532911E-3,-4.3388373E-1,1.6908E4,-2.9812692E-2,-4.334743E-4,6.585456E-2,9.14308E1,-2.0279158E-3,6.1094403E-1,-2.800455E-3,3.8406977E4,8.789694E-1,1.270872E0,9.749279E-1,-1.4043795E-1,-7.818315E-1,6.0655586E3,1.2789665E-3,1.7618883E-3,-4.9047214E-3,-0E0,7.935051E-3,4.9703955E-3,-5.059825E-3,1.4349677E-3,2.8568772E-3,4.5955335E-3,1.6180829E-3,-1.3399739E-3,9.5779635E-4,5.8717895E-3,-3.614274E-5,-5.4214653E-3,-0E0,-6.76319E-4,1.371261E-3,8.454611E-3,1.8535078E-3,1.7937474E-4,3.5892248E-3,-2.1447795E-3,3.1987228E-4,1.1804906E-3,-9.793047E-4,-3.4136134E-3,-1.6651124E-3,-3.2502576E-3,-5.7944283E-3,1.786622E-4,-2.9993232E-3],"split_indices":[0,1,29,16,5,13,1,26,1,11,21,17,0,21,3,6,13,0,26,25,11,2,26,19,2,2,3,26,3,5,0,0,0,0,0,0,0,0,0,0,0,0,0,0,0,0,0,0,0,0,0,0,0,0,0,0,0,0,0,0,0,0,0],"split_type":[0,0,0,0,0,0,0,0,0,0,0,0,0,0,0,0,0,0,0,0,0,0,0,0,0,0,0,0,0,0,0,0,0,0,0,0,0,0,0,0,0,0,0,0,0,0,0,0,0,0,0,0,0,0,0,0,0,0,0,0,0,0,0],"sum_hessian":[3.6650164E4,1.7241455E4,1.9408707E4,6.151542E3,1.1089913E4,5.68439E3,1.3724316E4,3.239237E2,5.8276187E3,7.684203E3,3.4057102E3,1.8794117E3,3.8049785E3,1.0078592E4,3.6457246E3,2.183142E1,3.020923E2,1.00802155E3,4.819597E3,2.1624226E3,5.521781E3,3.278104E3,1.2760613E2,1.6935338E3,1.8587791E2,2.1542942E3,1.6506844E3,3.0103914E3,7.0682E3,9.8443805E2,2.6612866E3,1.0550339E1,1.1281082E1,1.7724157E1,2.8436813E2,9.98409E2,9.612555E0,2.32022E3,2.499377E3,4.4176978E2,1.7206528E3,3.6935577E2,5.152425E3,3.4970154E1,3.243134E3,7.4402534E1,5.3203594E1,6.928502E2,1.0006836E3,3.570853E1,1.5016939E2,2.0429143E3,1.11379745E2,1.3906973E3,2.599872E2,5.247504E2,2.4856409E3,1.2872058E3,5.7809946E3,4.044774E2,5.799607E2,1.9035724E2,2.4709292E3],"tree_param":{"num_deleted":"0","num_feature":"30","num_nodes":"63","size_leaf_vector":"1"}},{"base_weights":[-1.2535083E-3,1.13855E-1,-1.04213886E-1,1.9293888E-1,5.882582E-2,9.74013E-3,-1.3826966E-1,3.1664526E-1,1.4508896E-1,9.371352E-2,-2.8921993E-2,1.3486952E-1,-2.9738959E-2,-7.912648E-2,-1.8509059E-1,2.536117E-1,4.672137E-1,1.7105825E-1,-3.2633373E-3,1.184267E-1,-5.68503E-2,1.2463669E-1,-5.5194855E-2,-8.321565E-4,2.3339765E-1,-8.777977E-3,-2.1242069E-1,-5.142589E-2,-2.1334016E-1,-2.722938E-1,-1.5436627E-1,4.0843E-3,1.6292396E-3,9.444735E-3,5.0407224E-3,4.211888E-3,2.0153807E-3,-4.2619887E-3,2.9166063E-4,2.530659E-3,1.1018981E-3,-7.0802313E-3,-3.7491706E-4,2.048082E-3,-5.0364686E-3,-1.5132487E-4,-2.2220323E-3,4.6357504E-4,-4.355506E-3,1.0728551E-3,3.926727E-3,1.2248306E-3,-7.6447777E-4,-4.2253095E-3,2.5748196E-3,-4.06021E-4,-2.2658368E-3,-4.936428E-3,-2.0588906E-3,-2.9916659E-3,-5.278346E-3,-4.6637084E-5,-2.336956E-3],"categories":[],"categories_nodes":[],"categories_segments":[],"categories_sizes":[],"default_left":[0,0,0,0,0,0,0,0,0,0,0,0,0,0,0,0,0,0,0,0,0,0,0,0,0,0,0,0,0,0,0,0,0,0,0,0,0,0,0,0,0,0,0,0,0,0,0,0,0,0,0,0,0,0,0,0,0,0,0,0,0,0,0],"id":4,"left_children":[1,3,5,7,9,11,13,15,17,19,21,23,25,27,29,31,33,35,37,39,41,43,45,47,49,51,53,55,57,59,61,-1,-1,-1,-1,-1,-1,-1,-1,-1,-1,-1,-1,-1,-1,-1,-1,-1,-1,-1,-1,-1,-1,-1,-1,-1,-1,-1,-1,-1,-1,-1,-1],"loss_changes":[4.346964E2,7.4909485E1,7.537923E1,4.1163605E1,3.140031E1,2.2142492E1,4.0876434E1,1.7363129E1,2.0017014E1,2.7372147E1,1.1573967E1,1.477627E1,1.254328E1,2.4133808E1,2.1529205E1,9.674431E0,9.886887E0,1.0603088E1,6.6937075E0,1.5694481E1,1.3036356E1,6.3172517E0,1.2073909E1,5.8512383E0,5.651577E0,1.52801E1,1.5455931E1,1.329974E1,9.362171E0,1.1248337E1,2.1785736E1,0E0,0E0,0E0,0E0,0E0,0E0,0E0,0E0,0E0,0E0,0E0,0E0,0E0,0E0,0E0,0E0,0E0,0E0,0E0,0E0,0E0,0E0,0E0,0E0,0E0,0E0,0E0,0E0,0E0,0E0,0E0,0E0],"parents":[2147483647,0,0,1,1,2,2,3,3,4,4,5,5,6,6,7,7,8,8,9,9,10,10,11,11,12,12,13,13,14,14,15,15,16,16,17,17,18,18,19,19,20,20,21,21,22,22,23,23,24,24,25,25,26,26,27,27,28,28,29,29,30,30],"right_children":[2,4,6,8,10,12,14,16,18,20,22,24,26,28,30,32,34,36,38,40,42,44,46,48,50,52,54,56,58,60,62,-1,-1,-1,-1,-1,-1,-1,-1,-1,-1,-1,-1,-1,-1,-1,-1,-1,-1,-1,-1,-1,-1,-1,-1,-1,-1,-1,-1,-1,-1,-1,-1],"split_conditions":[-8.2543556E-5,-1.7792583E-3,-6.13451E-4,1.8027393E-3,1.0949106E0,-1.6977787E-3,1.036644E-3,4.1991412E2,1.1182181E0,8.687491E-3,-7.818315E-1,4.0310455E2,-2.6263474E-3,-2.1549934E-3,-4.3388373E-1,-2.7885602E-3,5.3161156E-4,-7.818315E-1,1.4470089E-3,-1.973296E-3,1.3016182E-3,4.6284773E-4,-7.0307637E-4,-7.7682734E-4,-1.3273902E-2,7.7494634E-3,-7.210374E-4,4.6149014E2,-1.5038252E-4,4.6252315E-3,7.502873E1,4.0843E-3,1.6292396E-3,9.444735E-3,5.0407224E-3,4.211888E-3,2.0153807E-3,-4.2619887E-3,2.9166063E-4,2.530659E-3,1.1018981E-3,-7.0802313E-3,-3.7491706E-4,2.048082E-3,-5.0364686E-3,-1.5132487E-4,-2.2220323E-3,4.6357504E-4,-4.355506E-3,1.0728551E-3,3.926727E-3,1.2248306E-3,-7.6447777E-4,-4.2253095E-3,2.5748196E-3,-4.06021E-4,-2.2658368E-3,-4.936428E-3,-2.0588906E-3,-2.9916659E-3,-5.278346E-3,-4.6637084E-5,-2.336956E-3],"split_indices":[0,12,29,22,2,12,12,17,2,22,3,17,21,21,3,0,22,3,20,0,14,11,0,29,21,22,29,18,12,0,18,0,0,0,0,0,0,0,0,0,0,0,0,0,0,0,0,0,0,0,0,0,0,0,0,0,0,0,0,0,0,0,0],"split_type":[0,0,0,0,0,0,0,0,0,0,0,0,0,0,0,0,0,0,0,0,0,0,0,0,0,0,0,0,0,0,0,0,0,0,0,0,0,0,0,0,0,0,0,0,0,0,0,0,0,0,0,0,0,0,0,0,0,0,0,0,0,0,0],"sum_hessian":[3.6677484E4,1.7309557E4,1.9367926E4,7.0891357E3,1.022042E4,4.4454814E3,1.4922445E4,1.9660762E3,5.1230596E3,7.3262124E3,2.894208E3,1.0755477E3,3.3699336E3,6.610303E3,8.312142E3,1.3955515E3,5.705246E2,4.3691343E3,7.539255E2,6.3028047E3,1.02340753E3,4.131401E2,2.4810679E3,4.4585876E2,6.29689E2,3.0321057E3,3.3782788E2,5.490733E3,1.1195703E3,2.149553E3,6.162589E3,9.55477E2,4.4007455E2,1.3420596E2,4.3631863E2,4.4354892E2,3.9255852E3,5.9201378E1,6.947241E2,1.9766267E3,4.3261777E3,5.2359062E1,9.710485E2,3.9278418E2,2.0355917E1,1.805958E3,6.751099E2,3.9833548E2,4.752329E1,1.9902104E2,4.3066797E2,9.7856036E2,2.0535454E3,2.69709E2,6.811885E1,4.7102188E3,7.8051404E2,2.789411E2,8.406292E2,1.6151725E3,5.3438043E2,8.482664E2,5.3143228E3],"tree_param":{"num_deleted":"0","num_feature":"30","num_nodes":"63","size_leaf_vector":"1"}},{"base_weights":[5.789136E-3,1.3169833E-1,-7.898815E-2,2.1112326E-1,7.8503706E-2,-3.5249103E-2,-1.7374255E-1,5.8690625E-1,1.9589072E-1,1.0436186E-1,-7.842961E-3,1.790972E-2,-8.196419E-2,-2.7107373E-1,-1.3708808E-1,6.094803E-2,6.4389724E-1,3.0063388E-1,1.5708682E-1,1.530247E-1,6.728079E-2,-6.907559E-2,8.4522754E-2,4.6080694E-2,-1.5196267E-1,-2.2077726E-2,-1.1918927E-1,-1.1410806E-1,-3.410756E-1,-7.377081E-2,-1.9360866E-1,4.2107436E-3,-1.5298116E-3,1.2787192E-2,6.878109E-3,6.498392E-3,3.5536007E-3,3.3170867E-3,1.6742416E-3,3.4901993E-3,1.2783818E-3,9.915564E-4,-1.6299398E-3,6.771598E-4,-1.5739436E-3,1.5369785E-3,-3.2992545E-3,4.3152915E-3,4.782134E-4,-2.4105737E-3,2.9477866E-3,3.223827E-3,-4.6049978E-4,-1.2136748E-3,-3.179105E-3,6.120703E-3,-1.7985166E-3,-5.528926E-3,-3.3408466E-3,8.333205E-4,-1.4012009E-3,-3.2317636E-3,-1.1925817E-3],"categories":[],"categories_nodes":[],"categories_segments":[],"categories_sizes":[],"default_left":[0,0,0,0,0,0,0,0,0,0,0,0,0,0,0,0,0,0,0,0,0,0,0,0,0,0,0,0,0,0,0,0,0,0,0,0,0,0,0,0,0,0,0,0,0,0,0,0,0,0,0,0,0,0,0,0,0,0,0,0,0,0,0],"id":5,"left_children":[1,3,5,7,9,11,13,15,17,19,21,23,25,27,29,31,33,35,37,39,41,43,45,47,49,51,53,55,57,59,61,-1,-1,-1,-1,-1,-1,-1,-1,-1,-1,-1,-1,-1,-1,-1,-1,-1,-1,-1,-1,-1,-1,-1,-1,-1,-1,-1,-1,-1,-1,-1,-1],"loss_changes":[3.9168204E2,6.190921E1,9.0482285E1,3.243219E1,1.9940426E1,3.7375973E1,2.3942062E1,5.563736E0,2.2313065E1,1.1956825E1,1.1451131E1,3.335215E1,1.7610191E1,1.9835922E1,1.7560417E1,1.5756471E0,4.943756E0,7.4407043E0,1.1090538E1,1.7810959E1,6.1246014E0,7.678452E0,8.561686E0,1.5778022E1,1.180303E1,1.0427172E1,1.5587822E1,7.3666334E0,7.7387695E0,1.09132595E1,1.3746475E1,0E0,0E0,0E0,0E0,0E0,0E0,0E0,0E0,0E0,0E0,0E0,0E0,0E0,0E0,0E0,0E0,0E0,0E0,0E0,0E0,0E0,0E0,0E0,0E0,0E0,0E0,0E0,0E0,0E0,0E0,0E0,0E0],"parents":[2147483647,0,0,1,1,2,2,3,3,4,4,5,5,6,6,7,7,8,8,9,9,10,10,11,11,12,12,13,13,14,14,15,15,16,16,17,17,18,18,19,19,20,20,21,21,22,22,23,23,24,24,25,25,26,26,27,27,28,28,29,29,30,30],"right_children":[2,4,6,8,10,12,14,16,18,20,22,24,26,28,30,32,34,36,38,40,42,44,46,48,50,52,54,56,58,60,62,-1,-1,-1,-1,-1,-1,-1,-1,-1,-1,-1,-1,-1,-1,-1,-1,-1,-1,-1,-1,-1,-1,-1,-1,-1,-1,-1,-1,-1,-1,-1,-1],"split_conditions":[-5.387794E-4,2.167891E1,7.994829E1,1.921611E4,1.0938644E-3,-6.6172495E-3,-4.3388373E-1,-7.0212483E-3,7.2983613E0,1.0590011E2,5E-1,3.6965609E-3,5.59722E-4,1.2837182E-3,2.6202202E-3,1.69505E4,-2.610147E-3,-7.818315E-1,2.8516379E4,-1.2894634E-2,6.5593605E1,3.5520718E1,7.362962E-3,-6.4064264E-3,1.1915241E-2,-1.4961958E-3,-2.3930324E-3,-4.5210123E-4,2.5881904E-1,-1.1156842E-4,8.878174E-3,4.2107436E-3,-1.5298116E-3,1.2787192E-2,6.878109E-3,6.498392E-3,3.5536007E-3,3.3170867E-3,1.6742416E-3,3.4901993E-3,1.2783818E-3,9.915564E-4,-1.6299398E-3,6.771598E-4,-1.5739436E-3,1.5369785E-3,-3.2992545E-3,4.3152915E-3,4.782134E-4,-2.4105737E-3,2.9477866E-3,3.223827E-3,-4.6049978E-4,-1.2136748E-3,-3.179105E-3,6.120703E-3,-1.7985166E-3,-5.528926E-3,-3.3408466E-3,8.333205E-4,-1.4012009E-3,-3.2317636E-3,-1.1925817E-3],"split_indices":[0,1,1,16,12,21,3,12,1,25,15,12,0,23,12,7,12,3,24,21,1,1,12,12,11,29,21,12,15,23,0,0,0,0,0,0,0,0,0,0,0,0,0,0,0,0,0,0,0,0,0,0,0,0,0,0,0,0,0,0,0,0,0],"split_type":[0,0,0,0,0,0,0,0,0,0,0,0,0,0,0,0,0,0,0,0,0,0,0,0,0,0,0,0,0,0,0,0,0,0,0,0,0,0,0,0,0,0,0,0,0,0,0,0,0,0,0,0,0,0,0,0,0,0,0,0,0,0,0],"sum_hessian":[3.668397E4,1.4768669E4,2.19153E4,5.910199E3,8.85847E3,1.5006832E4,6.9084697E3,2.245138E2,5.6856855E3,6.831444E3,2.0270255E3,7.0031807E3,8.0036514E3,1.8758752E3,5.032594E3,2.4975178E1,1.9953862E2,1.5236276E3,4.162058E3,2.9337986E3,3.8976453E3,1.2297827E3,7.972428E2,6.015941E3,9.872399E2,3.0855156E3,4.9181357E3,5.86639E2,1.2892363E3,2.3884114E3,2.6441829E3,1.3540992E1,1.1434186E1,4.7376003E1,1.5216261E2,1.926421E2,1.3309855E3,9.6472424E2,3.1973337E3,9.5627997E2,1.9775187E3,3.7446292E3,1.5301598E2,3.5519284E2,8.745899E2,7.317502E2,6.549261E1,1.9135365E2,5.824587E3,9.1494836E2,7.229156E1,1.3636824E2,2.9491472E3,4.0546235E3,8.63512E2,1.884328E1,5.677957E2,6.562196E2,6.330167E2,4.53368E2,1.9350435E3,1.7357941E3,9.083887E2],"tree_param":{"num_deleted":"0","num_feature":"30","num_nodes":"63","size_leaf_vector":"1"}},{"base_weights":[1.3634524E-3,1.1439938E-1,-9.932016E-2,1.7739296E-1,4.895892E-2,1.7045344E-3,-1.3670544E-1,3.1172955E-1,1.2864222E-1,1.08506255E-1,1.7165627E-2,8.647908E-2,-3.8402837E-2,-6.6981144E-2,-1.678966E-1,2.4993108E-1,4.764487E-1,1.6891545E-1,5.705689E-2,1.6292237E-1,3.8627915E-2,-2.093656E-2,8.000428E-2,3.73898E-2,1.6409653E-1,1.2105268E-2,-1.3352227E-1,-2.4287673E-2,-1.4385225E-1,-8.5682906E-2,-2.131352E-1,5.299763E-3,2.4447434E-3,8.764999E-3,5.589318E-3,4.7981353E-3,1.8394341E-3,-2.296471E-5,1.6002274E-3,2.8629205E-3,2.8923393E-4,6.269735E-4,-1.1378109E-2,1.8929802E-3,-5.8315514E-4,2.083453E-3,-3.4791278E-4,3.2483097E-4,1.0416835E-2,6.504143E-4,4.309309E-3,-9.755596E-3,2.2210806E-4,-3.0687053E-3,-4.1763004E-4,1.7139441E-4,-2.6228942E-3,1.955167E-3,-2.150061E-3,-1.3849313E-3,5.5494974E-4,-4.3727662E-3,-2.1728545E-3],"categories":[],"categories_nodes":[],"categories_segments":[],"categories_sizes":[],"default_left":[0,0,0,0,0,0,0,0,0,0,0,0,0,0,0,0,0,0,0,0,0,0,0,0,0,0,0,0,0,0,0,0,0,0,0,0,0,0,0,0,0,0,0,0,0,0,0,0,0,0,0,0,0,0,0,0,0,0,0,0,0,0,0],"id":6,"left_children":[1,3,5,7,9,11,13,15,17,19,21,23,25,27,29,31,33,35,37,39,41,43,45,47,49,51,53,55,57,59,61,-1,-1,-1,-1,-1,-1,-1,-1,-1,-1,-1,-1,-1,-1,-1,-1,-1,-1,-1,-1,-1,-1,-1,-1,-1,-1,-1,-1,-1,-1,-1,-1],"loss_changes":[4.1753995E2,7.089612E1,7.347481E1,5.6845367E1,1.5874094E1,1.7857891E1,3.0416138E1,2.2428253E1,1.8258057E1,1.0836903E1,1.3404012E1,6.1117144E0,1.7191448E1,1.4151659E1,3.5835968E1,1.5658714E1,3.9754486E0,2.240982E1,9.145206E0,1.2364132E1,9.49588E0,1.3221912E1,1.7966835E1,8.680807E0,1.1455688E1,7.2042093E0,1.2192228E1,1.8953413E1,9.177715E0,8.969715E0,3.5039093E1,0E0,0E0,0E0,0E0,0E0,0E0,0E0,0E0,0E0,0E0,0E0,0E0,0E0,0E0,0E0,0E0,0E0,0E0,0E0,0E0,0E0,0E0,0E0,0E0,0E0,0E0,0E0,0E0,0E0,0E0,0E0,0E0],"parents":[2147483647,0,0,1,1,2,2,3,3,4,4,5,5,6,6,7,7,8,8,9,9,10,10,11,11,12,12,13,13,14,14,15,15,16,16,17,17,18,18,19,19,20,20,21,21,22,22,23,23,24,24,25,25,26,26,27,27,28,28,29,29,30,30],"right_children":[2,4,6,8,10,12,14,16,18,20,22,24,26,28,30,32,34,36,38,40,42,44,46,48,50,52,54,56,58,60,62,-1,-1,-1,-1,-1,-1,-1,-1,-1,-1,-1,-1,-1,-1,-1,-1,-1,-1,-1,-1,-1,-1,-1,-1,-1,-1,-1,-1,-1,-1,-1,-1],"split_conditions":[-8.2543556E-5,-2.1865184E-3,-4.364252E-4,1.8027393E-3,-4.3388373E-1,-6.2264726E-3,1.0455275E-3,4.1558252E2,3.3219993E3,-7.748604E-5,5E-1,4.2272112E-3,2.5447924E-3,1.272787E2,-3.6527892E-3,-4.3388373E-1,1.4906022E-3,8.1686386E1,6.123234E-17,1.5811815E-3,3.3103242E-3,-2.9944084E4,-8.201641E-4,2.6300445E-2,4.057485E4,-3.6275763E-2,4.8526307E-3,-2.2752676E-3,-5.256406E3,1.7178198E-2,-4.3388373E-1,5.299763E-3,2.4447434E-3,8.764999E-3,5.589318E-3,4.7981353E-3,1.8394341E-3,-2.296471E-5,1.6002274E-3,2.8629205E-3,2.8923393E-4,6.269735E-4,-1.1378109E-2,1.8929802E-3,-5.8315514E-4,2.083453E-3,-3.4791278E-4,3.2483097E-4,1.0416835E-2,6.504143E-4,4.309309E-3,-9.755596E-3,2.2210806E-4,-3.0687053E-3,-4.1763004E-4,1.7139441E-4,-2.6228942E-3,1.955167E-3,-2.150061E-3,-1.3849313E-3,5.5494974E-4,-4.3727662E-3,-2.1728545E-3],"split_indices":[0,11,29,22,3,13,0,17,5,29,15,14,0,18,13,3,20,25,15,20,23,5,0,23,9,21,11,21,5,23,3,0,0,0,0,0,0,0,0,0,0,0,0,0,0,0,0,0,0,0,0,0,0,0,0,0,0,0,0,0,0,0,0],"split_type":[0,0,0,0,0,0,0,0,0,0,0,0,0,0,0,0,0,0,0,0,0,0,0,0,0,0,0,0,0,0,0,0,0,0,0,0,0,0,0,0,0,0,0,0,0,0,0,0,0,0,0,0,0,0,0,0,0,0,0,0,0,0,0],"sum_hessian":[3.6683625E4,1.7289322E4,1.9394303E4,8.795671E3,8.493651E3,5.2269243E3,1.4167379E4,2.3315632E3,6.4641074E3,2.9375789E3,5.5560728E3,1.6914396E3,3.5354846E3,4.3961577E3,9.771222E3,1.7046254E3,6.2693787E2,4.121212E3,2.3428955E3,1.6375245E3,1.3000544E3,3.443001E3,2.1130715E3,1.0500321E3,6.4140735E2,2.298601E3,1.2368835E3,2.841008E3,1.5551495E3,3.482196E3,6.289026E3,4.8895297E2,1.2156724E3,1.21161125E2,5.0577676E2,5.158721E2,3.6053398E3,1.21654E3,1.1263555E3,1.1671997E3,4.703248E2,1.2898138E3,1.0240558E1,4.195599E2,3.0234412E3,1.2231533E3,8.899183E2,1.0359861E3,1.4046141E1,3.8470383E2,2.5670355E2,1.1406398E1,2.2871948E3,6.1365796E2,6.232256E2,2.3358674E3,5.051407E2,9.386105E1,1.4612885E3,3.0253174E3,4.5687848E2,1.7706807E3,4.518345E3],"tree_param":{"num_deleted":"0","num_feature":"30","num_nodes":"63","size_leaf_vector":"1"}},{"base_weights":[-3.5757886E-3,1.2534417E-1,-9.115133E-2,2.0726468E-1,5.551465E-2,-6.072513E-2,-2.3434101E-1,4.3832728E-1,1.8781163E-1,1.3434161E-1,2.3223419E-2,-1.1208808E-2,-1.1590642E-1,-3.4181547E-1,-1.9461393E-1,7.104328E-1,2.9078862E-1,3.699572E-1,1.7024861E-1,3.171511E-1,9.708628E-2,2.9093236E-2,-5.3769875E-1,1.741013E-2,-1.4460243E-1,-7.203306E-2,-1.614506E-1,-1.2356777E-1,-3.824213E-1,-2.2902349E-1,-6.446058E-2,1.0006687E-2,2.468192E-3,6.2303143E-3,2.1926207E-3,4.3349345E-3,1.2564856E-2,3.33221E-3,1.91354E-3,-2.0815202E-3,4.8394212E-3,1.9425619E-3,-1.4467735E-5,5.4969004E-4,-2.0538652E-3,-8.750679E-3,-0E0,-4.2498022E-4,6.3543464E-4,1.6718069E-3,-2.238157E-3,-4.6824157E-4,-1.6413544E-3,-3.099011E-3,-1.6222445E-3,-2.7302753E-3,5.0322423E-3,-1.6558174E-3,-5.396952E-3,-2.22406E-3,-3.8943938E-3,2.2365432E-3,-1.3414819E-3],"categories":[],"categories_nodes":[],"categories_segments":[],"categories_sizes":[],"default_left":[0,0,0,0,0,0,0,0,0,0,0,0,0,0,0,0,0,0,0,0,0,0,0,0,0,0,0,0,0,0,0,0,0,0,0,0,0,0,0,0,0,0,0,0,0,0,0,0,0,0,0,0,0,0,0,0,0,0,0,0,0,0,0],"id":7,"left_children":[1,3,5,7,9,11,13,15,17,19,21,23,25,27,29,31,33,35,37,39,41,43,45,47,49,51,53,55,57,59,61,-1,-1,-1,-1,-1,-1,-1,-1,-1,-1,-1,-1,-1,-1,-1,-1,-1,-1,-1,-1,-1,-1,-1,-1,-1,-1,-1,-1,-1,-1,-1,-1],"loss_changes":[4.143256E2,8.4443985E1,9.475395E1,2.9529205E1,2.0160158E1,4.9089645E1,1.536792E1,1.909903E1,1.9189667E1,1.506517E1,1.7974077E1,3.6578857E1,1.6624191E1,8.150024E0,1.2060432E1,3.175499E0,6.6992035E0,1.021357E1,1.1057373E1,9.860851E0,9.918304E0,1.3254551E1,4.5705853E0,1.2132259E1,1.2064087E1,8.1383915E0,1.1135162E1,6.9857826E0,5.382538E0,8.088409E0,5.2126083E0,0E0,0E0,0E0,0E0,0E0,0E0,0E0,0E0,0E0,0E0,0E0,0E0,0E0,0E0,0E0,0E0,0E0,0E0,0E0,0E0,0E0,0E0,0E0,0E0,0E0,0E0,0E0,0E0,0E0,0E0,0E0,0E0],"parents":[2147483647,0,0,1,1,2,2,3,3,4,4,5,5,6,6,7,7,8,8,9,9,10,10,11,11,12,12,13,13,14,14,15,15,16,16,17,17,18,18,19,19,20,20,21,21,22,22,23,23,24,24,25,25,26,26,27,27,28,28,29,29,30,30],"right_children":[2,4,6,8,10,12,14,16,18,20,22,24,26,28,30,32,34,36,38,40,42,44,46,48,50,52,54,56,58,60,62,-1,-1,-1,-1,-1,-1,-1,-1,-1,-1,-1,-1,-1,-1,-1,-1,-1,-1,-1,-1,-1,-1,-1,-1,-1,-1,-1,-1,-1,-1,-1,-1],"split_conditions":[4.334932E1,-1.6977787E-3,8.779472E1,4.9246094E1,2.2041283E1,-6.6172495E-3,-4.3388373E-1,-2.1451973E4,3.62726E0,2.3438293E4,-1.5498179E-3,3.6079884E-3,7.043101E1,1.3497183E-3,6.239031E4,1.6859683E-3,3.5213726E1,1.06688235E-2,-4.3388373E-1,-7.733202E-3,-6.904423E-4,3.6079884E-3,2.0301342E-4,3.328424E4,2.02998E4,9.291157E2,-4.3388373E-1,1.7866666E-3,8.8920944E1,1.4002469E-1,5.587852E1,1.0006687E-2,2.468192E-3,6.2303143E-3,2.1926207E-3,4.3349345E-3,1.2564856E-2,3.33221E-3,1.91354E-3,-2.0815202E-3,4.8394212E-3,1.9425619E-3,-1.4467735E-5,5.4969004E-4,-2.0538652E-3,-8.750679E-3,-0E0,-4.2498022E-4,6.3543464E-4,1.6718069E-3,-2.238157E-3,-4.6824157E-4,-1.6413544E-3,-3.099011E-3,-1.6222445E-3,-2.7302753E-3,5.0322423E-3,-1.6558174E-3,-5.396952E-3,-2.22406E-3,-3.8943938E-3,2.2365432E-3,-1.3414819E-3],"split_indices":[1,12,1,25,1,21,3,5,1,16,21,12,1,11,4,20,25,14,3,11,23,12,12,6,27,5,3,23,1,26,18,0,0,0,0,0,0,0,0,0,0,0,0,0,0,0,0,0,0,0,0,0,0,0,0,0,0,0,0,0,0,0,0],"split_type":[0,0,0,0,0,0,0,0,0,0,0,0,0,0,0,0,0,0,0,0,0,0,0,0,0,0,0,0,0,0,0,0,0,0,0,0,0,0,0,0,0,0,0,0,0,0,0,0,0,0,0,0,0,0,0,0,0,0,0,0,0,0,0],"sum_hessian":[3.6700555E4,1.4838143E4,2.1862414E4,6.816183E3,8.021959E3,1.8041703E4,3.8207114E3,5.2099176E2,6.295191E3,2.3154766E3,5.7064824E3,9.525284E3,8.516419E3,1.0178493E3,2.802862E3,1.7785721E2,3.4313455E2,5.435578E2,5.7516333E3,3.832069E2,1.9322698E3,5.6512617E3,5.522104E1,7.8333E3,1.6919841E3,4.3574995E3,4.158919E3,1.6666948E2,8.511798E2,2.206195E3,5.9666724E2,1.5838013E2,1.9477081E1,1.3135643E2,2.1177814E2,5.134384E2,3.0119345E1,1.2803099E3,4.471323E3,3.424403E1,3.489629E2,1.2825688E3,6.4970087E2,5.295642E3,3.5561942E2,4.5795906E1,9.425133E0,2.9863289E3,4.846971E3,1.4170392E2,1.5502802E3,2.6057615E3,1.7517383E3,1.380299E3,2.7786204E3,1.4615782E2,2.0511667E1,9.27041E1,7.584757E2,1.1899022E3,1.0162927E3,7.614978E1,5.2051746E2],"tree_param":{"num_deleted":"0","num_feature":"30","num_nodes":"63","size_leaf_vector":"1"}},{"base_weights":[-3.9056775E-3,1.09786E-1,-1.0516604E-1,2.482661E-1,8.186097E-2,-7.76921E-2,-2.3474845E-1,5.0504416E-1,2.2254644E-1,1.2438519E-1,1.0653128E-2,1.8971782E-2,-1.02936976E-1,-1.1713082E-1,-2.6798144E-1,-0E0,6.352031E-1,2.5182527E-1,-0E0,2.1164529E-1,9.454033E-2,5.253315E-2,-4.6841357E-2,-1.241195E-2,1.9576314E-1,-4.324889E-2,-1.3366933E-1,-1.4041397E-1,4.088978E-1,-3.1865677E-1,-1.8754236E-1,4.576269E-3,-1.2180677E-3,8.847311E-3,-4.7625104E-5,5.882147E-3,2.9137991E-3,-4.195785E-3,1.0181349E-3,3.4298673E-3,2.9337112E-4,1.8393532E-3,7.855739E-4,-7.822283E-4,1.1066812E-3,9.078676E-3,-7.153805E-4,8.6422847E-4,-9.4202976E-4,5.820999E-3,1.9051936E-3,6.4449315E-4,-1.0831642E-3,-1.3250113E-3,-2.671404E-3,1.1600713E-3,-2.3793562E-3,-1.7152627E-3,8.679166E-3,-2.5669176E-3,-5.074021E-3,-3.3317795E-3,3.1884413E-4],"categories":[],"categories_nodes":[],"categories_segments":[],"categories_sizes":[],"default_left":[0,0,0,0,0,0,0,0,0,0,0,0,0,0,0,0,0,0,0,0,0,0,0,0,0,0,0,0,0,0,0,0,0,0,0,0,0,0,0,0,0,0,0,0,0,0,0,0,0,0,0,0,0,0,0,0,0,0,0,0,0,0,0],"id":8,"left_children":[1,3,5,7,9,11,13,15,17,19,21,23,25,27,29,31,33,35,37,39,41,43,45,47,49,51,53,55,57,59,61,-1,-1,-1,-1,-1,-1,-1,-1,-1,-1,-1,-1,-1,-1,-1,-1,-1,-1,-1,-1,-1,-1,-1,-1,-1,-1,-1,-1,-1,-1,-1,-1],"loss_changes":[4.2318945E2,6.6373535E1,6.871495E1,1.7803879E1,4.3429695E1,3.9330627E1,1.2592102E1,1.619159E1,1.7080887E1,2.2944809E1,1.3028148E1,1.8685894E1,2.3087982E1,8.926599E0,9.8385315E0,2.1081748E0,6.167511E0,1.2410294E1,7.601776E0,2.1029022E1,1.031501E1,1.1267644E1,1.183902E1,1.306423E1,5.325302E0,1.5864049E1,1.8669693E1,7.0223255E0,4.9817386E0,1.237529E1,1.4909779E1,0E0,0E0,0E0,0E0,0E0,0E0,0E0,0E0,0E0,0E0,0E0,0E0,0E0,0E0,0E0,0E0,0E0,0E0,0E0,0E0,0E0,0E0,0E0,0E0,0E0,0E0,0E0,0E0,0E0,0E0,0E0,0E0],"parents":[2147483647,0,0,1,1,2,2,3,3,4,4,5,5,6,6,7,7,8,8,9,9,10,10,11,11,12,12,13,13,14,14,15,15,16,16,17,17,18,18,19,19,20,20,21,21,22,22,23,23,24,24,25,25,26,26,27,27,28,28,29,29,30,30],"right_children":[2,4,6,8,10,12,14,16,18,20,22,24,26,28,30,32,34,36,38,40,42,44,46,48,50,52,54,56,58,60,62,-1,-1,-1,-1,-1,-1,-1,-1,-1,-1,-1,-1,-1,-1,-1,-1,-1,-1,-1,-1,-1,-1,-1,-1,-1,-1,-1,-1,-1,-1,-1,-1],"split_conditions":[-8.2543556E-5,1.1762207E1,8.8920944E1,2.1340236E4,1.0093735E0,-8.586049E-4,3.8124355E3,-9.345104E-3,-8.8471174E-4,2.6844238E4,-1.3194211E-3,1.2012094E-2,1.096967E-3,3.4799504E3,8.136035E-3,1.940002E4,-1.5038252E-4,1.4431992E0,-7.253289E-4,4.768062E1,-2.5821473E-3,-2.0490255E-2,-5.4905415E-3,-7.5763464E-4,7.480102E-1,-2.0009279E-4,-2.4898965E-3,2.6571021E4,8.822969E-4,1.03649154E-1,3.6841244E-1,4.576269E-3,-1.2180677E-3,8.847311E-3,-4.7625104E-5,5.882147E-3,2.9137991E-3,-4.195785E-3,1.0181349E-3,3.4298673E-3,2.9337112E-4,1.8393532E-3,7.855739E-4,-7.822283E-4,1.1066812E-3,9.078676E-3,-7.153805E-4,8.6422847E-4,-9.4202976E-4,5.820999E-3,1.9051936E-3,6.4449315E-4,-1.0831642E-3,-1.3250113E-3,-2.671404E-3,1.1600713E-3,-2.3793562E-3,-1.7152627E-3,8.679166E-3,-2.5669176E-3,-5.074021E-3,-3.3317795E-3,3.1884413E-4],"split_indices":[0,1,1,16,2,12,5,0,12,28,0,23,23,5,23,4,12,1,12,1,11,13,12,29,2,29,13,24,14,26,26,0,0,0,0,0,0,0,0,0,0,0,0,0,0,0,0,0,0,0,0,0,0,0,0,0,0,0,0,0,0,0,0],"split_type":[0,0,0,0,0,0,0,0,0,0,0,0,0,0,0,0,0,0,0,0,0,0,0,0,0,0,0,0,0,0,0,0,0,0,0,0,0,0,0,0,0,0,0,0,0,0,0,0,0,0,0,0,0,0,0,0,0,0,0,0,0,0,0],"sum_hessian":[3.6757816E4,1.7308328E4,1.9449488E4,2.893327E3,1.4415001E4,1.6059007E4,3.390481E3,2.5583621E2,2.6374907E3,9.010343E3,5.404658E3,3.312097E3,1.274691E4,7.5885486E2,2.6316262E3,5.4359802E1,2.0147641E2,2.3289578E3,3.0853278E2,2.280703E3,6.7296396E3,3.1435E3,2.261158E3,2.8057227E3,5.063741E2,4.3514556E3,8.395454E3,7.304113E2,2.8443567E1,1.6000962E3,1.0315299E3,1.3297668E1,4.1062134E1,1.9220837E2,9.268037E0,2.968797E2,2.0320781E3,5.8495228E1,2.5003754E2,1.798604E3,4.820989E2,2.882481E3,3.8471587E3,6.831308E2,2.4603694E3,2.0122087E1,2.241036E3,1.1983734E3,1.6073494E3,7.888382E1,4.274903E2,1.2864796E3,3.064976E3,5.740007E3,2.6554473E3,1.0458427E2,6.25827E2,7.1602497E0,2.1283318E1,5.801637E2,1.0199325E3,7.910809E2,2.4044908E2],"tree_param":{"num_deleted":"0","num_feature":"30","num_nodes":"63","size_leaf_vector":"1"}},{"base_weights":[-1.8346934E-3,1.05604164E-1,-9.066485E-2,1.7482978E-1,5.3202223E-2,-3.426403E-2,-1.5293026E-1,4.090167E-1,1.6040054E-1,5.87557E-2,-4.2211282E-1,3.814738E-2,-9.287934E-2,-4.5993216E-2,-1.7583103E-1,6.735869E-1,2.6060444E-1,1.927344E-1,7.10732E-2,1.2223326E-1,2.8238457E-2,-5.156284E-1,4.6662316E-3,1.1433426E-1,1.1590293E-3,-6.277579E-2,-1.9281776E-1,4.0875703E-2,-1.1224117E-1,-2.6119E-1,-1.471159E-1,1.1118104E-2,5.113546E-4,4.558987E-3,-7.665393E-4,4.70252E-3,2.2605183E-3,1.0319401E-3,-8.60205E-3,2.0459616E-3,-5.195451E-4,6.39265E-4,-8.4018667E-4,-0E0,-8.621106E-3,1.1580631E-3,4.44592E-3,-7.818048E-5,4.480132E-3,9.542878E-4,-1.1231157E-3,-2.909849E-3,-5.593923E-4,-3.2576614E-3,9.634961E-4,-1.7972462E-3,3.8187087E-3,-1.716596E-3,-4.2489353E-3,1.247765E-4,-2.1336046E-3],"categories":[],"categories_nodes":[],"categories_segments":[],"categories_sizes":[],"default_left":[0,0,0,0,0,0,0,0,0,0,0,0,0,0,0,0,0,0,0,0,0,0,0,0,0,0,0,0,0,0,0,0,0,0,0,0,0,0,0,0,0,0,0,0,0,0,0,0,0,0,0,0,0,0,0,0,0,0,0,0,0],"id":9,"left_children":[1,3,5,7,9,11,13,15,17,19,21,23,25,27,29,31,33,35,37,39,41,43,-1,45,47,49,51,53,55,57,59,-1,-1,-1,-1,-1,-1,-1,-1,-1,-1,-1,-1,-1,-1,-1,-1,-1,-1,-1,-1,-1,-1,-1,-1,-1,-1,-1,-1,-1,-1],"loss_changes":[3.503584E2,5.9861816E1,7.029372E1,2.3128738E1,2.4420696E1,4.4934273E1,2.299472E1,1.427243E1,1.9006104E1,1.788615E1,8.168179E0,1.3095573E1,1.717178E1,9.888039E0,1.8520584E1,1.4144005E1,7.883772E0,1.5762039E1,9.05393E0,1.6683964E1,1.1966798E1,6.4887123E0,0E0,8.200743E0,8.277954E0,1.3982782E1,5.393036E0,6.5524063E0,9.507566E0,1.5213913E1,1.4554466E1,0E0,0E0,0E0,0E0,0E0,0E0,0E0,0E0,0E0,0E0,0E0,0E0,0E0,0E0,0E0,0E0,0E0,0E0,0E0,0E0,0E0,0E0,0E0,0E0,0E0,0E0,0E0,0E0,0E0,0E0],"parents":[2147483647,0,0,1,1,2,2,3,3,4,4,5,5,6,6,7,7,8,8,9,9,10,10,11,11,12,12,13,13,14,14,15,15,16,16,17,17,18,18,19,19,20,20,21,21,23,23,24,24,25,25,26,26,27,27,28,28,29,29,30,30],"right_children":[2,4,6,8,10,12,14,16,18,20,22,24,26,28,30,32,34,36,38,40,42,44,-1,46,48,50,52,54,56,58,60,-1,-1,-1,-1,-1,-1,-1,-1,-1,-1,-1,-1,-1,-1,-1,-1,-1,-1,-1,-1,-1,-1,-1,-1,-1,-1,-1,-1,-1,-1],"split_conditions":[-2.3323689E-4,-1.6977787E-3,1.152277E-3,2.02542E4,8.739352E-3,-6.5520993E-3,-4.505515E-4,1.6859683E-3,-1.7362833E-4,-2.5221892E-3,6.8013542E-3,8.480857E-1,-2.1549934E-3,3.1693263E-3,-4.3388373E-1,-3.9297455E2,-1.2660279E-2,-7.818315E-1,-4.1630296E-3,1.2148393E0,1.0271816E4,-8.386298E-3,4.6662316E-3,1.1235261E-2,2.6300445E-2,1.0577647E2,7.765791E-2,-5.092782E-3,6.967903E4,-6.871289E-3,6.1399577E-4,1.1118104E-2,5.113546E-4,4.558987E-3,-7.665393E-4,4.70252E-3,2.2605183E-3,1.0319401E-3,-8.60205E-3,2.0459616E-3,-5.195451E-4,6.39265E-4,-8.4018667E-4,-0E0,-8.621106E-3,1.1580631E-3,4.44592E-3,-7.818048E-5,4.480132E-3,9.542878E-4,-1.1231157E-3,-2.909849E-3,-5.593923E-4,-3.2576614E-3,9.634961E-4,-1.7972462E-3,3.8187087E-3,-1.716596E-3,-4.2489353E-3,1.247765E-4,-2.1336046E-3],"split_indices":[11,12,12,4,12,21,29,20,29,11,26,2,21,11,3,5,21,3,21,2,5,11,0,23,23,17,26,23,16,21,11,0,0,0,0,0,0,0,0,0,0,0,0,0,0,0,0,0,0,0,0,0,0,0,0,0,0,0,0,0,0],"split_type":[0,0,0,0,0,0,0,0,0,0,0,0,0,0,0,0,0,0,0,0,0,0,0,0,0,0,0,0,0,0,0,0,0,0,0,0,0,0,0,0,0,0,0,0,0,0,0,0,0,0,0,0,0,0,0,0,0,0,0,0,0],"sum_hessian":[3.6711004E4,1.6606729E4,2.0104277E4,7.140291E3,9.4664375E3,1.0563601E4,9.540676E3,4.061498E2,6.734141E3,9.36143E3,1.05008125E2,4.7133105E3,5.85029E3,1.695973E3,7.844703E3,1.4065343E2,2.654964E2,4.930036E3,1.804105E3,3.0208958E3,6.3405337E3,9.593542E1,9.072707E0,1.5252107E3,3.1880999E3,4.5099253E3,1.3403646E3,7.232432E2,9.727298E2,1.9581812E3,5.886522E3,1.08103714E2,3.2549713E1,2.1263594E2,5.286044E1,5.305713E2,4.399465E3,1.7886346E3,1.5470299E1,2.5085215E3,5.1237427E2,5.2035566E3,1.136977E3,2.223831E1,7.369711E1,1.3744226E3,1.5078806E2,3.11907E3,6.9029625E1,6.3953015E2,3.8703955E3,1.1140223E3,2.2634235E2,6.739733E1,6.558459E2,9.209787E2,5.1751076E1,6.453143E2,1.3128668E3,5.208691E2,5.365653E3],"tree_param":{"num_deleted":"0","num_feature":"30","num_nodes":"61","size_leaf_vector":"1"}},{"base_weights":[3.045317E-3,9.766249E-2,-9.553385E-2,1.9119784E-1,5.007939E-2,-6.326721E-2,-2.148133E-1,5.17112E-1,1.7066665E-1,1.1654634E-1,2.3877593E-2,2.5463464E-2,-8.853575E-2,-1.2315107E-1,-2.52279E-1,-5.444252E-3,5.434175E-1,2.8413555E-1,1.3015707E-1,7.3770665E-2,2.2575466E-1,4.5467425E-2,-6.6759706E-2,1.1731071E-2,2.5438872E-1,-4.1597996E-2,-1.342277E-1,-1.666876E-1,-0E0,-3.850556E-1,-2.1475077E-1,7.428064E-3,-0E0,-1.1977995E-3,4.00421E-3,1.0329507E-3,2.367672E-3,-3.5908318E-3,1.1477914E-3,3.3397824E-3,-6.8925775E-4,1.924887E-3,3.4795605E-4,5.6444126E-4,-2.3153608E-3,8.79257E-4,-4.4844515E-4,4.6750847E-3,-4.569092E-4,-4.413357E-4,-3.936639E-3,-2.5427034E-3,-1.3299641E-3,-9.850505E-4,-4.25754E-3,-1.6296033E-3,2.7565716E-3,-4.1636853E-3,-7.6301703E-3,-3.359808E-3,-1.0306448E-3],"categories":[],"categories_nodes":[],"categories_segments":[],"categories_sizes":[],"default_left":[0,0,0,0,0,0,0,0,0,0,0,0,0,0,0,0,0,0,0,0,0,0,0,0,0,0,0,0,0,0,0,0,0,0,0,0,0,0,0,0,0,0,0,0,0,0,0,0,0,0,0,0,0,0,0,0,0,0,0,0,0],"id":10,"left_children":[1,3,5,7,9,11,13,15,17,19,21,23,25,27,29,-1,31,33,35,37,39,41,43,45,47,49,51,53,55,57,59,-1,-1,-1,-1,-1,-1,-1,-1,-1,-1,-1,-1,-1,-1,-1,-1,-1,-1,-1,-1,-1,-1,-1,-1,-1,-1,-1,-1,-1,-1],"loss_changes":[3.4239392E2,8.29964E1,6.868915E1,4.097911E1,2.1420502E1,3.1844265E1,1.2451996E1,9.481705E0,2.6581223E1,1.5830032E1,1.745668E1,9.381531E0,2.336715E1,5.9877625E0,1.2354248E1,0E0,5.3756104E0,1.2647766E1,1.0915276E1,1.17549515E1,8.1461525E0,1.3586525E1,2.0764858E1,7.5574074E0,5.55258E0,1.0676351E1,1.040345E1,1.1285753E1,7.710389E0,6.084694E0,1.1322845E1,0E0,0E0,0E0,0E0,0E0,0E0,0E0,0E0,0E0,0E0,0E0,0E0,0E0,0E0,0E0,0E0,0E0,0E0,0E0,0E0,0E0,0E0,0E0,0E0,0E0,0E0,0E0,0E0,0E0,0E0],"parents":[2147483647,0,0,1,1,2,2,3,3,4,4,5,5,6,6,7,7,8,8,9,9,10,10,11,11,12,12,13,13,14,14,16,16,17,17,18,18,19,19,20,20,21,21,22,22,23,23,24,24,25,25,26,26,27,27,28,28,29,29,30,30],"right_children":[2,4,6,8,10,12,14,16,18,20,22,24,26,28,30,-1,32,34,36,38,40,42,44,46,48,50,52,54,56,58,60,-1,-1,-1,-1,-1,-1,-1,-1,-1,-1,-1,-1,-1,-1,-1,-1,-1,-1,-1,-1,-1,-1,-1,-1,-1,-1,-1,-1,-1,-1],"split_conditions":[5.3020367E1,2.167891E1,8.779472E1,1.9621951E4,-8.40627E3,8.154403E-1,5.821273E3,-3.352093E-1,7.2983613E0,4.2791956E2,-4.848022E-3,6.024987E-3,-6.6172495E-3,3.2831393E2,-4.3388373E-1,-5.444252E-3,-2.968451E-4,6.1805523E-4,6.2092602E-2,-2.7515826E-1,4.084301E4,7.671064E-1,9.429644E-1,6.694895E1,2.304463E-2,2.684683E-1,-4.3388373E-1,1.6696292E2,5.6702558E-2,-3.7609763E-4,6.09E4,7.428064E-3,-0E0,-1.1977995E-3,4.00421E-3,1.0329507E-3,2.367672E-3,-3.5908318E-3,1.1477914E-3,3.3397824E-3,-6.8925775E-4,1.924887E-3,3.4795605E-4,5.6444126E-4,-2.3153608E-3,8.79257E-4,-4.4844515E-4,4.6750847E-3,-4.569092E-4,-4.413357E-4,-3.936639E-3,-2.5427034E-3,-1.3299641E-3,-9.850505E-4,-4.25754E-3,-1.6296033E-3,2.7565716E-3,-4.1636853E-3,-7.6301703E-3,-3.359808E-3,-1.0306448E-3],"split_indices":[1,1,1,16,5,2,5,26,1,18,21,14,21,17,3,0,11,14,26,26,27,2,2,1,26,26,3,17,26,13,7,0,0,0,0,0,0,0,0,0,0,0,0,0,0,0,0,0,0,0,0,0,0,0,0,0,0,0,0,0,0],"split_type":[0,0,0,0,0,0,0,0,0,0,0,0,0,0,0,0,0,0,0,0,0,0,0,0,0,0,0,0,0,0,0,0,0,0,0,0,0,0,0,0,0,0,0,0,0,0,0,0,0,0,0,0,0,0,0,0,0,0,0,0,0],"sum_hessian":[3.67064E4,1.8738074E4,1.7968322E4,6.3055176E3,1.2432558E4,1.415466E4,3.8136628E3,3.6744492E2,5.9380723E3,3.4965427E3,8.936015E3,3.1230635E3,1.1031597E4,1.1205183E3,2.6931443E3,7.9493303E0,3.594956E2,1.5499127E3,4.3881597E3,2.5245E3,9.7204254E2,7.2319775E3,1.7040375E3,2.9541228E3,1.689405E2,5.4603115E3,5.5712847E3,8.2666003E2,2.9385837E2,5.816904E2,2.1114539E3,3.4786664E2,1.1628974E1,7.803254E1,1.4718801E3,2.1874622E3,2.2006975E3,9.056532E1,2.4339348E3,8.862866E2,8.575592E1,1.1251929E3,6.1067847E3,8.4461816E2,8.5941925E2,1.3562247E3,1.5978982E3,1.2892372E2,4.0016792E1,5.3044917E3,1.5581975E2,1.960772E3,3.610513E3,5.306151E2,2.9604486E2,1.8540869E2,1.0844966E2,4.408979E2,1.4079254E2,1.609874E3,5.0157996E2],"tree_param":{"num_deleted":"0","num_feature":"30","num_nodes":"61","size_leaf_vector":"1"}},{"base_weights":[3.7474362E-3,1.20526895E-1,-7.605436E-2,2.6306358E-1,8.712561E-2,-3.2817375E-2,-1.6414763E-1,2.878931E-1,4.939126E-2,1.07569635E-1,-1.7106704E-2,2.8630497E-2,-7.5879276E-2,9.672713E-2,-1.7609285E-1,4.6067435E-1,2.4601842E-1,1.7372052E-1,-1.1651898E-1,2.1802862E-1,9.057021E-2,-9.241729E-2,9.5753E-2,1.7731594E-1,1.690439E-3,-2.5232868E-2,-1.0546129E-1,-2.7454495E-3,2.9674026E-1,-3.180449E-1,-1.5389559E-1,9.40516E-3,4.9522277E-3,4.8806444E-3,2.754838E-3,7.603146E-3,4.902662E-4,-2.923599E-3,4.14336E-3,3.6821703E-3,1.1837732E-3,2.6439189E-3,1.019862E-3,-9.50104E-3,-1.0360809E-3,2.3184926E-3,-7.8178925E-4,9.497973E-4,3.272829E-3,7.1483315E-4,-6.0975103E-4,-1.52015855E-5,-2.572556E-3,-3.1912508E-3,-1.0875158E-3,3.267701E-3,-2.7397866E-3,5.0982955E-5,7.0880065E-3,-1.7811423E-3,-5.0784885E-3,-9.593322E-4,-2.6294931E-3],"categories":[],"categories_nodes":[],"categories_segments":[],"categories_sizes":[],"default_left":[0,0,0,0,0,0,0,0,0,0,0,0,0,0,0,0,0,0,0,0,0,0,0,0,0,0,0,0,0,0,0,0,0,0,0,0,0,0,0,0,0,0,0,0,0,0,0,0,0,0,0,0,0,0,0,0,0,0,0,0,0,0,0],"id":11,"left_children":[1,3,5,7,9,11,13,15,17,19,21,23,25,27,29,31,33,35,37,39,41,43,45,47,49,51,53,55,57,59,61,-1,-1,-1,-1,-1,-1,-1,-1,-1,-1,-1,-1,-1,-1,-1,-1,-1,-1,-1,-1,-1,-1,-1,-1,-1,-1,-1,-1,-1,-1,-1,-1],"loss_changes":[3.413852E2,7.022485E1,8.250916E1,1.4362839E1,2.5855179E1,3.8718243E1,2.2420776E1,1.6912933E1,6.3265886E0,1.8434532E1,1.6711775E1,2.3746511E1,1.2669861E1,6.6032305E0,2.0729614E1,8.189064E0,8.1981735E0,8.825787E0,5.6193666E0,1.0035889E1,1.2009155E1,8.716689E0,9.99497E0,6.3507843E0,1.2963025E1,1.2810877E1,1.6264618E1,1.0418905E1,6.782545E0,1.0591148E1,2.1813416E1,0E0,0E0,0E0,0E0,0E0,0E0,0E0,0E0,0E0,0E0,0E0,0E0,0E0,0E0,0E0,0E0,0E0,0E0,0E0,0E0,0E0,0E0,0E0,0E0,0E0,0E0,0E0,0E0,0E0,0E0,0E0,0E0],"parents":[2147483647,0,0,1,1,2,2,3,3,4,4,5,5,6,6,7,7,8,8,9,9,10,10,11,11,12,12,13,13,14,14,15,15,16,16,17,17,18,18,19,19,20,20,21,21,22,22,23,23,24,24,25,25,26,26,27,27,28,28,29,29,30,30],"right_children":[2,4,6,8,10,12,14,16,18,20,22,24,26,28,30,32,34,36,38,40,42,44,46,48,50,52,54,56,58,60,62,-1,-1,-1,-1,-1,-1,-1,-1,-1,-1,-1,-1,-1,-1,-1,-1,-1,-1,-1,-1,-1,-1,-1,-1,-1,-1,-1,-1,-1,-1,-1,-1],"split_conditions":[-5.126349E-4,1.1762207E1,7.925479E1,-8.8471174E-4,1.275897E-3,-2.4300814E-4,-5.709529E-4,6.2924248E1,7.823089E1,-7.818315E-1,5E-1,-2.5500655E-3,4.5787272E-4,2.584707E-2,-7.818315E-1,2.115462E4,-4.3388373E-1,-1.8454152E-3,3.0812456E-3,1.5127659E-4,2.0408783E4,1.7165734E4,4.910904E4,4.1145032E2,1.9021363E-3,1.1405857E3,-7.818315E-1,1.2526998E-2,-1.8369701E-16,9.6250675E-4,5.3840977E3,9.40516E-3,4.9522277E-3,4.8806444E-3,2.754838E-3,7.603146E-3,4.902662E-4,-2.923599E-3,4.14336E-3,3.6821703E-3,1.1837732E-3,2.6439189E-3,1.019862E-3,-9.50104E-3,-1.0360809E-3,2.3184926E-3,-7.8178925E-4,9.497973E-4,3.272829E-3,7.1483315E-4,-6.0975103E-4,-1.52015855E-5,-2.572556E-3,-3.1912508E-3,-1.0875158E-3,3.267701E-3,-2.7397866E-3,5.0982955E-5,7.0880065E-3,-1.7811423E-3,-5.0784885E-3,-9.593322E-4,-2.6294931E-3],"split_indices":[0,1,1,12,12,29,12,25,25,3,15,12,0,22,3,28,3,23,22,29,28,16,16,17,23,17,3,22,15,23,5,0,0,0,0,0,0,0,0,0,0,0,0,0,0,0,0,0,0,0,0,0,0,0,0,0,0,0,0,0,0,0,0],"split_type":[0,0,0,0,0,0,0,0,0,0,0,0,0,0,0,0,0,0,0,0,0,0,0,0,0,0,0,0,0,0,0,0,0,0,0,0,0,0,0,0,0,0,0,0,0,0,0,0,0,0,0,0,0,0,0,0,0,0,0,0,0,0,0],"sum_hessian":[3.662251E4,1.4874969E4,2.1747543E4,2.8132766E3,1.2061692E4,1.4601199E4,7.146343E3,2.513193E3,3.000835E2,1.0096985E4,1.9647072E3,6.0006826E3,8.600518E3,3.065588E2,6.8397837E3,4.805841E2,2.0326089E3,1.7716164E2,1.2292187E2,1.332136E3,8.764849E3,1.187213E3,7.7749414E2,9.102368E2,5.090446E3,3.192367E3,5.4081504E3,1.9994841E2,1.06610374E2,9.1303644E2,5.9267476E3,1.1103676E2,3.6954733E2,4.3984485E2,1.592764E3,4.067512E1,1.3648651E2,1.0211195E2,2.0809914E1,8.8456354E2,4.475725E2,8.939858E2,7.8708633E3,2.1046568E1,1.1661665E3,5.179531E2,2.5954102E2,3.8098105E2,5.2925574E2,2.4447207E3,2.6457249E3,2.807431E3,3.8493604E2,7.495592E2,4.6585913E3,8.630895E1,1.13639465E2,5.1942936E1,5.4667442E1,2.5819882E2,6.5483765E2,2.179998E3,3.7467493E3],"tree_param":{"num_deleted":"0","num_feature":"30","num_nodes":"63","size_leaf_vector":"1"}},{"base_weights":[-1.5965662E-3,1.0202444E-1,-9.373634E-2,2.3029742E-1,7.527883E-2,-1.9378157E-2,-1.3791062E-1,3.1433043E-1,6.027117E-2,1.0168711E-1,-1.4660648E-2,1.943288E-1,-4.53899E-2,-1.05046906E-1,-2.1513382E-1,2.516125E-1,4.934893E-1,2.146481E-1,-0E0,1.5135425E-1,5.2559637E-2,1.868428E-2,-1.2485262E-1,7.862397E-3,2.947017E-1,6.773214E-2,-7.428107E-2,-8.095738E-2,-2.2668362E-1,-2.468791E-1,-4.6518657E-2,5.7170046E-3,2.868747E-3,6.689555E-3,-0E0,3.5382174E-3,-3.742905E-3,1.8368756E-3,-1.5933223E-3,4.5274976E-3,1.789581E-3,-4.625442E-4,1.00859E-3,1.0677191E-3,-6.9267326E-4,-2.033186E-3,1.5620729E-3,-2.0788012E-3,1.8476162E-3,-3.6887664E-3,4.0536104E-3,3.5987524E-3,5.324286E-4,-2.5011774E-4,-1.662826E-3,-7.4087613E-4,-2.7409364E-3,-3.0941982E-3,1.8560521E-3,-2.3868938E-3,-4.132868E-3,-3.6396584E-3,5.8134116E-4],"categories":[],"categories_nodes":[],"categories_segments":[],"categories_sizes":[],"default_left":[0,0,0,0,0,0,0,0,0,0,0,0,0,0,0,0,0,0,0,0,0,0,0,0,0,0,0,0,0,0,0,0,0,0,0,0,0,0,0,0,0,0,0,0,0,0,0,0,0,0,0,0,0,0,0,0,0,0,0,0,0,0,0],"id":12,"left_children":[1,3,5,7,9,11,13,15,17,19,21,23,25,27,29,31,33,35,37,39,41,43,45,47,49,51,53,55,57,59,61,-1,-1,-1,-1,-1,-1,-1,-1,-1,-1,-1,-1,-1,-1,-1,-1,-1,-1,-1,-1,-1,-1,-1,-1,-1,-1,-1,-1,-1,-1,-1,-1],"loss_changes":[3.5076752E2,5.8778534E1,6.364618E1,4.1814728E1,3.414305E1,4.015467E1,3.0390121E1,2.091388E1,9.01168E0,2.6691536E1,1.2066232E1,1.4132797E1,2.1210732E1,2.458384E1,1.8902023E1,7.7877045E0,3.8375244E0,7.5853453E0,1.2240461E1,1.5069649E1,1.2003714E1,1.1137333E1,5.6855373E0,6.194017E0,4.2647705E0,6.809238E0,1.4756941E1,2.2003174E1,4.9257584E0,1.2580811E1,1.2634302E1,0E0,0E0,0E0,0E0,0E0,0E0,0E0,0E0,0E0,0E0,0E0,0E0,0E0,0E0,0E0,0E0,0E0,0E0,0E0,0E0,0E0,0E0,0E0,0E0,0E0,0E0,0E0,0E0,0E0,0E0,0E0,0E0],"parents":[2147483647,0,0,1,1,2,2,3,3,4,4,5,5,6,6,7,7,8,8,9,9,10,10,11,11,12,12,13,13,14,14,15,15,16,16,17,17,18,18,19,19,20,20,21,21,22,22,23,23,24,24,25,25,26,26,27,27,28,28,29,29,30,30],"right_children":[2,4,6,8,10,12,14,16,18,20,22,24,26,28,30,32,34,36,38,40,42,44,46,48,50,52,54,56,58,60,62,-1,-1,-1,-1,-1,-1,-1,-1,-1,-1,-1,-1,-1,-1,-1,-1,-1,-1,-1,-1,-1,-1,-1,-1,-1,-1,-1,-1,-1,-1,-1,-1],"split_conditions":[-8.2543556E-5,1.2870065E-3,-1.6888577E2,-8.8471174E-4,1.1148963E0,-2.7343035E-3,1.03649154E-1,4.1991412E2,-1.3955224E-3,-2.352767E-3,-7.0307637E-4,4.0310455E2,3.93358E-4,-2.2752676E-3,1.8823673E5,1.778383E-4,1.729992E-3,1.6748499E-3,2.708777E4,2.0220139E4,-9.228693E-3,3.7906778E2,3.001153E-3,3.480396E-3,-1.11172585E-5,1.0577647E2,-3.8958744E-3,4.6149014E2,9.8582655E-2,3.2724917E-3,8.849065E-3,5.7170046E-3,2.868747E-3,6.689555E-3,-0E0,3.5382174E-3,-3.742905E-3,1.8368756E-3,-1.5933223E-3,4.5274976E-3,1.789581E-3,-4.625442E-4,1.00859E-3,1.0677191E-3,-6.9267326E-4,-2.033186E-3,1.5620729E-3,-2.0788012E-3,1.8476162E-3,-3.6887664E-3,4.0536104E-3,3.5987524E-3,5.324286E-4,-2.5011774E-4,-1.662826E-3,-7.4087613E-4,-2.7409364E-3,-3.0941982E-3,1.8560521E-3,-2.3868938E-3,-4.132868E-3,-3.6396584E-3,5.8134116E-4],"split_indices":[0,22,5,12,2,12,26,17,23,11,0,17,23,21,5,22,23,20,16,16,13,17,20,23,0,17,13,18,26,0,23,0,0,0,0,0,0,0,0,0,0,0,0,0,0,0,0,0,0,0,0,0,0,0,0,0,0,0,0,0,0,0,0],"split_type":[0,0,0,0,0,0,0,0,0,0,0,0,0,0,0,0,0,0,0,0,0,0,0,0,0,0,0,0,0,0,0,0,0,0,0,0,0,0,0,0,0,0,0,0,0,0,0,0,0,0,0,0,0,0,0,0,0,0,0,0,0,0,0],"sum_hessian":[3.6738082E4,1.7283277E4,1.9454805E4,2.9699543E3,1.4313322E4,7.264751E3,1.2190054E4,1.980556E3,9.8939825E2,1.1078521E4,3.2348013E3,7.8071564E2,6.4840356E3,8.567651E3,3.622402E3,1.4756504E3,5.049056E2,2.7263565E2,7.1676263E2,5.491313E3,5.587208E3,2.4725652E3,7.6223596E2,2.7930804E2,5.014076E2,1.3072737E3,5.1767617E3,7.1640737E3,1.4035775E3,3.0398687E3,5.825335E2,2.1449963E2,1.2611508E3,4.8765494E2,1.7250696E1,2.4898828E2,2.3647377E1,3.364941E2,3.8026852E2,3.8390085E2,5.107412E3,1.196866E3,4.3903423E3,1.3293495E3,1.1432157E3,6.8478687E2,7.744913E1,1.1852254E2,1.6078549E2,8.869166E0,4.9253842E2,1.4373459E2,1.1635391E3,2.53806E3,2.638702E3,6.0253447E3,1.1387292E3,1.3742234E3,2.9354109E1,1.5705818E3,1.4692867E3,1.6895078E2,4.135827E2],"tree_param":{"num_deleted":"0","num_feature":"30","num_nodes":"63","size_leaf_vector":"1"}},{"base_weights":[-1.9905088E-3,1.0109321E-1,-9.4221525E-2,1.9547741E-1,5.6943428E-2,-6.7225516E-2,-2.2136165E-1,5.2347803E-1,1.811599E-1,1.0746804E-1,2.8645433E-2,-1.0646871E-2,-1.1119124E-1,-3.407692E-1,-1.7731446E-1,6.125488E-1,1.1821213E-1,2.3130982E-1,1.0288083E-1,1.6224432E-1,3.9075658E-2,8.690061E-2,-0E0,5.3857837E-2,-5.0784715E-2,-5.83332E-2,-1.4931296E-1,-7.613001E-2,-4.0675974E-1,-2.990346E-1,-1.4878726E-1,-0E0,8.447495E-3,-2.3527548E-3,8.103015E-3,3.846241E-3,1.2557984E-3,3.4555033E-4,2.1381113E-3,2.925105E-3,5.2558404E-4,2.7281542E-3,2.6722497E-4,1.3762641E-3,-1.6197944E-3,1.7439533E-4,-1.6772399E-3,3.0403605E-3,4.980691E-4,3.666691E-3,-7.8491686E-4,-3.3853488E-4,-2.1578171E-3,-3.474822E-3,-1.6080148E-3,8.0610334E-5,-7.5301197E-3,-6.0199795E-4,-5.5794017E-3,-2.44192E-3,-7.6301484E-3,1.8107089E-3,-2.1315634E-3],"categories":[],"categories_nodes":[],"categories_segments":[],"categories_sizes":[],"default_left":[0,0,0,0,0,0,0,0,0,0,0,0,0,0,0,0,0,0,0,0,0,0,0,0,0,0,0,0,0,0,0,0,0,0,0,0,0,0,0,0,0,0,0,0,0,0,0,0,0,0,0,0,0,0,0,0,0,0,0,0,0,0,0],"id":13,"left_children":[1,3,5,7,9,11,13,15,17,19,21,23,25,27,29,31,33,35,37,39,41,43,45,47,49,51,53,55,57,59,61,-1,-1,-1,-1,-1,-1,-1,-1,-1,-1,-1,-1,-1,-1,-1,-1,-1,-1,-1,-1,-1,-1,-1,-1,-1,-1,-1,-1,-1,-1,-1,-1],"loss_changes":[3.4822223E2,7.161243E1,6.5889725E1,2.4560226E1,1.6632294E1,3.951094E1,1.6843704E1,6.8318596E0,2.0129486E1,1.54426155E1,1.25699E1,1.81172E1,1.7719444E1,1.4868416E1,7.825096E0,2.6104736E0,7.533513E0,2.6176712E1,9.223585E0,1.6806763E1,5.5850554E0,9.404343E0,8.551569E0,7.0951138E0,1.2588561E1,1.27243595E1,1.537397E1,8.5371275E0,3.975441E0,1.3258663E1,7.993881E0,0E0,0E0,0E0,0E0,0E0,0E0,0E0,0E0,0E0,0E0,0E0,0E0,0E0,0E0,0E0,0E0,0E0,0E0,0E0,0E0,0E0,0E0,0E0,0E0,0E0,0E0,0E0,0E0,0E0,0E0,0E0,0E0],"parents":[2147483647,0,0,1,1,2,2,3,3,4,4,5,5,6,6,7,7,8,8,9,9,10,10,11,11,12,12,13,13,14,14,15,15,16,16,17,17,18,18,19,19,20,20,21,21,22,22,23,23,24,24,25,25,26,26,27,27,28,28,29,29,30,30],"right_children":[2,4,6,8,10,12,14,16,18,20,22,24,26,28,30,32,34,36,38,40,42,44,46,48,50,52,54,56,58,60,62,-1,-1,-1,-1,-1,-1,-1,-1,-1,-1,-1,-1,-1,-1,-1,-1,-1,-1,-1,-1,-1,-1,-1,-1,-1,-1,-1,-1,-1,-1,-1,-1],"split_conditions":[-8.2543556E-5,1.978932E1,8.8920944E1,1.921611E4,-2.352767E-3,-6.6172495E-3,-4.3388373E-1,-4.965067E-5,2.1393644E-3,2.6738644E-4,6.731041E1,-3.3009052E-4,-2.4872522E2,4.694856E1,-1.1627343E-2,-1.5104814E-2,1.7352718E1,-2.1812797E-3,5.3229805E-2,4.995E4,-7.818315E-1,6.1399577E-4,6.593366E1,4.455909E1,-3.352093E-1,-2.6263474E-3,-7.818315E-1,1.2256074E-3,2.9149805E-3,2.0261793E-1,1.21075E-3,-0E0,8.447495E-3,-2.3527548E-3,8.103015E-3,3.846241E-3,1.2557984E-3,3.4555033E-4,2.1381113E-3,2.925105E-3,5.2558404E-4,2.7281542E-3,2.6722497E-4,1.3762641E-3,-1.6197944E-3,1.7439533E-4,-1.6772399E-3,3.0403605E-3,4.980691E-4,3.666691E-3,-7.8491686E-4,-3.3853488E-4,-2.1578171E-3,-3.474822E-3,-1.6080148E-3,8.0610334E-5,-7.5301197E-3,-6.0199795E-4,-5.5794017E-3,-2.44192E-3,-7.6301484E-3,1.8107089E-3,-2.1315634E-3],"split_indices":[0,1,1,16,11,21,3,29,22,29,18,29,5,18,21,0,1,0,26,9,3,11,1,18,26,21,3,20,22,26,0,0,0,0,0,0,0,0,0,0,0,0,0,0,0,0,0,0,0,0,0,0,0,0,0,0,0,0,0,0,0,0,0],"split_type":[0,0,0,0,0,0,0,0,0,0,0,0,0,0,0,0,0,0,0,0,0,0,0,0,0,0,0,0,0,0,0,0,0,0,0,0,0,0,0,0,0,0,0,0,0,0,0,0,0,0,0,0,0,0,0,0,0,0,0,0,0,0,0],"sum_hessian":[3.6625082E4,1.7286555E4,1.933853E4,5.4961157E3,1.1790439E4,1.5963466E4,3.375063E3,2.2352652E2,5.272589E3,4.211005E3,7.579434E3,6.9973394E3,8.966127E3,8.9756305E2,2.4775E3,1.7949342E2,4.40331E1,3.199688E3,2.0729011E3,2.3241453E3,1.8868596E3,2.4871487E3,5.0922856E3,2.6681611E3,4.329178E3,3.7760664E3,5.1900605E3,1.8455681E2,7.130062E2,4.5759512E2,2.0199048E3,1.0843109E1,1.6865031E2,2.5955093E1,1.8078005E1,2.1881804E3,1.0115075E3,9.242948E2,1.1486063E3,1.5431245E3,7.810206E2,1.7838275E2,1.7084769E3,2.2987812E3,1.8836758E2,4.6200425E3,4.7224283E2,2.0922673E2,2.4589343E3,1.0970035E2,4.2194775E3,2.903068E3,8.729983E2,9.623932E2,4.2276675E3,1.5644037E2,2.8116438E1,3.9282776E1,6.7372345E2,3.323309E2,1.2526422E2,8.608102E1,1.9338237E3],"tree_param":{"num_deleted":"0","num_feature":"30","num_nodes":"63","size_leaf_vector":"1"}},{"base_weights":[2.9733768E-4,1.2484192E-1,-8.263931E-2,2.187577E-1,8.361451E-2,-3.8391758E-2,-1.5539055E-1,2.9415092E-1,1.472574E-1,1.0024154E-1,-7.047178E-2,1.92302E-2,-7.8756265E-2,-1.1465425E-1,-2.2469035E-1,3.403938E-1,1.9708706E-1,2.7984604E-1,7.863313E-2,1.18622854E-1,8.093047E-3,-3.3830743E-2,-2.4527422E-1,-1.2410915E-1,3.395588E-2,-2.6413532E-2,-1.2922727E-1,-6.1183028E-2,-1.7441985E-1,-2.683467E-1,-3.6878552E-2,5.6053366E-4,4.741459E-3,1.3203763E-2,2.3227502E-3,-5.1522474E-3,3.8645E-3,4.285696E-3,6.953792E-4,1.181761E-3,2.181869E-3,-3.4413938E-4,5.576193E-3,-7.2403485E-4,5.891164E-3,-4.473903E-3,3.158536E-4,-2.2663034E-3,1.5621586E-3,6.848139E-4,-8.6329976E-4,1.6474302E-3,-8.068539E-4,-5.3781376E-4,-2.1650982E-3,2.026584E-3,-9.835726E-4,-4.451897E-3,-1.7135926E-3,-2.777811E-3,-4.42432E-3,1.7088939E-3,-2.0348516E-3],"categories":[],"categories_nodes":[],"categories_segments":[],"categories_sizes":[],"default_left":[0,0,0,0,0,0,0,0,0,0,0,0,0,0,0,0,0,0,0,0,0,0,0,0,0,0,0,0,0,0,0,0,0,0,0,0,0,0,0,0,0,0,0,0,0,0,0,0,0,0,0,0,0,0,0,0,0,0,0,0,0,0,0],"id":14,"left_children":[1,3,5,7,9,11,13,15,17,19,21,23,25,27,29,31,33,35,37,39,41,43,45,47,49,51,53,55,57,59,61,-1,-1,-1,-1,-1,-1,-1,-1,-1,-1,-1,-1,-1,-1,-1,-1,-1,-1,-1,-1,-1,-1,-1,-1,-1,-1,-1,-1,-1,-1,-1,-1],"loss_changes":[3.7971454E2,5.6400604E1,7.0670685E1,2.3335129E1,2.6263313E1,3.2031654E1,2.2921844E1,8.762558E0,2.039162E1,1.5446854E1,5.857017E0,1.176058E1,2.1114563E1,1.6414879E1,2.4631668E1,8.405502E0,9.428017E0,7.6633453E0,9.089561E0,1.0032539E1,2.2891241E1,7.8889503E0,4.7356453E0,6.202831E0,9.308044E0,2.1173164E1,1.2613831E1,8.1843E0,1.702095E1,8.699814E0,1.1653286E1,0E0,0E0,0E0,0E0,0E0,0E0,0E0,0E0,0E0,0E0,0E0,0E0,0E0,0E0,0E0,0E0,0E0,0E0,0E0,0E0,0E0,0E0,0E0,0E0,0E0,0E0,0E0,0E0,0E0,0E0,0E0,0E0],"parents":[2147483647,0,0,1,1,2,2,3,3,4,4,5,5,6,6,7,7,8,8,9,9,10,10,11,11,12,12,13,13,14,14,15,15,16,16,17,17,18,18,19,19,20,20,21,21,22,22,23,23,24,24,25,25,26,26,27,27,28,28,29,29,30,30],"right_children":[2,4,6,8,10,12,14,16,18,20,22,24,26,28,30,32,34,36,38,40,42,44,46,48,50,52,54,56,58,60,62,-1,-1,-1,-1,-1,-1,-1,-1,-1,-1,-1,-1,-1,-1,-1,-1,-1,-1,-1,-1,-1,-1,-1,-1,-1,-1,-1,-1,-1,-1,-1,-1],"split_conditions":[-5.387794E-4,2.1393644E-3,6.3153213E3,-2.5231203E-3,1.3096908E0,-6.6172495E-3,9.360454E-2,5.815331E4,2.729093E4,1.00922E-2,4.677356E-3,-8.660254E-1,1.0138599E-3,-6.5520993E-3,1.8823673E5,-1.5104814E-2,8.626082E-4,-3.1999826E-1,4.2256948E-1,5E-1,1.096967E-3,4.4921516E-3,5.93128E4,4.9065794E-3,5.6702558E-2,-5.0481265E3,8.244654E-1,7.922103E-1,2.309678E4,4.2783017E-3,2.9809973E-3,5.6053366E-4,4.741459E-3,1.3203763E-2,2.3227502E-3,-5.1522474E-3,3.8645E-3,4.285696E-3,6.953792E-4,1.181761E-3,2.181869E-3,-3.4413938E-4,5.576193E-3,-7.2403485E-4,5.891164E-3,-4.473903E-3,3.158536E-4,-2.2663034E-3,1.5621586E-3,6.848139E-4,-8.6329976E-4,1.6474302E-3,-8.068539E-4,-5.3781376E-4,-2.1650982E-3,2.026584E-3,-9.835726E-4,-4.451897E-3,-1.7135926E-3,-2.777811E-3,-4.42432E-3,1.7088939E-3,-2.0348516E-3],"split_indices":[0,22,5,0,2,21,26,4,9,22,14,15,0,21,5,0,20,26,2,15,23,20,19,14,26,5,2,2,9,0,20,0,0,0,0,0,0,0,0,0,0,0,0,0,0,0,0,0,0,0,0,0,0,0,0,0,0,0,0,0,0,0,0],"split_type":[0,0,0,0,0,0,0,0,0,0,0,0,0,0,0,0,0,0,0,0,0,0,0,0,0,0,0,0,0,0,0,0,0,0,0,0,0,0,0,0,0,0,0,0,0,0,0,0,0,0,0,0,0,0,0,0,0,0,0,0,0,0,0],"sum_hessian":[3.675209E4,1.4698639E4,2.2053451E4,4.4705205E3,1.0228118E4,1.3728115E4,8.325336E3,2.1632676E3,2.307253E3,9.241866E3,9.862515E2,5.638637E3,8.0894775E3,5.2598853E3,3.0654507E3,1.4519895E3,7.112782E2,7.7764355E2,1.5296095E3,7.6898335E3,1.552033E3,8.2413556E2,1.6211601E2,5.1420435E2,5.124433E3,3.9878435E3,4.1016343E3,2.791736E3,2.4681492E3,2.4798357E3,5.85615E2,1.0105812E2,1.3509313E3,1.3968498E1,6.973097E2,1.3680694E1,7.639629E2,1.3611766E2,1.3934918E3,4.8333647E3,2.8564685E3,1.4312512E3,1.2078173E2,7.9337115E2,3.0764362E1,1.2389462E2,3.8221382E1,4.3438623E2,7.981813E1,4.3465815E3,7.7785156E2,7.386651E2,3.2491785E3,1.1976816E3,2.9039524E3,1.5994849E2,2.6317876E3,5.0871207E2,1.9594371E3,1.3764438E3,1.103392E3,2.3682365E2,3.4879135E2],"tree_param":{"num_deleted":"0","num_feature":"30","num_nodes":"63","size_leaf_vector":"1"}},{"base_weights":[-7.427294E-4,1.23090036E-1,-7.976339E-2,2.6025552E-1,8.966849E-2,-3.6455397E-2,-1.7071396E-1,2.8498966E-1,3.687391E-2,1.16102815E-1,3.8751157E-3,2.334903E-2,-6.769461E-2,-5.8755267E-2,-1.9961469E-1,6.104018E-1,2.6822034E-1,3.084601E-1,-4.8772078E-2,2.3520295E-1,9.182847E-2,3.3297695E-2,-1.2442497E-1,1.3871019E-1,-5.221649E-4,-8.303477E-2,3.2675866E-2,8.497195E-3,-3.538445E-1,-3.0646396E-1,-1.6024876E-1,1.962266E-3,9.060814E-3,5.9815417E-3,3.1492622E-3,9.526952E-3,5.56654E-4,-1.1400477E-2,8.806804E-5,4.1123E-3,2.0464845E-3,7.8160345E-4,1.9282731E-3,1.7041019E-4,3.513381E-3,-1.9539306E-3,3.2860877E-3,-4.40397E-3,1.9947623E-3,3.8816484E-3,-1.5892959E-4,-8.231931E-4,-2.062461E-3,9.697455E-4,-1.115137E-3,-1.0557876E-3,1.1172466E-3,-9.7218587E-4,-5.427865E-3,-3.5403902E-3,-6.0883104E-3,1.8971108E-4,-2.3115503E-3],"categories":[],"categories_nodes":[],"categories_segments":[],"categories_sizes":[],"default_left":[0,0,0,0,0,0,0,0,0,0,0,0,0,0,0,0,0,0,0,0,0,0,0,0,0,0,0,0,0,0,0,0,0,0,0,0,0,0,0,0,0,0,0,0,0,0,0,0,0,0,0,0,0,0,0,0,0,0,0,0,0,0,0],"id":15,"left_children":[1,3,5,7,9,11,13,15,17,19,21,23,25,27,29,31,33,35,37,39,41,43,45,47,49,51,53,55,57,59,61,-1,-1,-1,-1,-1,-1,-1,-1,-1,-1,-1,-1,-1,-1,-1,-1,-1,-1,-1,-1,-1,-1,-1,-1,-1,-1,-1,-1,-1,-1,-1,-1],"loss_changes":[3.587924E2,6.485559E1,8.78674E1,1.486055E1,2.5864853E1,2.844364E1,2.289862E1,1.2043549E1,7.0863523E0,2.4796638E1,1.0132065E1,1.4527534E1,1.5471569E1,3.019468E1,2.324228E1,2.839878E0,1.13675995E1,6.8432636E0,1.1135875E1,8.306969E0,1.2633911E1,1.0135996E1,4.4446573E0,5.457739E0,1.42836485E1,1.26952095E1,6.3520603E0,8.282684E0,3.8843918E0,7.479141E0,1.1945442E1,0E0,0E0,0E0,0E0,0E0,0E0,0E0,0E0,0E0,0E0,0E0,0E0,0E0,0E0,0E0,0E0,0E0,0E0,0E0,0E0,0E0,0E0,0E0,0E0,0E0,0E0,0E0,0E0,0E0,0E0,0E0,0E0],"parents":[2147483647,0,0,1,1,2,2,3,3,4,4,5,5,6,6,7,7,8,8,9,9,10,10,11,11,12,12,13,13,14,14,15,15,16,16,17,17,18,18,19,19,20,20,21,21,22,22,23,23,24,24,25,25,26,26,27,27,28,28,29,29,30,30],"right_children":[2,4,6,8,10,12,14,16,18,20,22,24,26,28,30,32,34,36,38,40,42,44,46,48,50,52,54,56,58,60,62,-1,-1,-1,-1,-1,-1,-1,-1,-1,-1,-1,-1,-1,-1,-1,-1,-1,-1,-1,-1,-1,-1,-1,-1,-1,-1,-1,-1,-1,-1,-1,-1],"split_conditions":[-6.2036293E-4,1.1762207E1,7.925479E1,-8.8471174E-4,4.334932E1,-4.5210123E-4,6.675135E-4,1.9688164E4,2.6874494E4,2.356556E4,2.935151E4,-2.7724445E4,9.749279E-1,1.5887628E-1,-4.3388373E-1,9.125441E2,1.4431992E0,-4.3388373E-1,-8.2981586E-4,-6.6891133E3,5E-1,-4.3596E-4,1E0,-4.252266E-3,1.8158123E1,2.662176E-3,3.6918304E2,2.5881904E-1,3.4799504E3,9.55875E1,2.4437904E-5,1.962266E-3,9.060814E-3,5.9815417E-3,3.1492622E-3,9.526952E-3,5.56654E-4,-1.1400477E-2,8.806804E-5,4.1123E-3,2.0464845E-3,7.8160345E-4,1.9282731E-3,1.7041019E-4,3.513381E-3,-1.9539306E-3,3.2860877E-3,-4.40397E-3,1.9947623E-3,3.8816484E-3,-1.5892959E-4,-8.231931E-4,-2.062461E-3,9.697455E-4,-1.115137E-3,-1.0557876E-3,1.1172466E-3,-9.7218587E-4,-5.427865E-3,-3.5403902E-3,-6.0883104E-3,1.8971108E-4,-2.3115503E-3],"split_indices":[0,1,1,12,1,12,23,24,19,16,5,5,3,26,3,17,1,3,12,5,15,23,15,23,1,0,18,15,5,1,12,0,0,0,0,0,0,0,0,0,0,0,0,0,0,0,0,0,0,0,0,0,0,0,0,0,0,0,0,0,0,0,0],"split_type":[0,0,0,0,0,0,0,0,0,0,0,0,0,0,0,0,0,0,0,0,0,0,0,0,0,0,0,0,0,0,0,0,0,0,0,0,0,0,0,0,0,0,0,0,0,0,0,0,0,0,0,0,0,0,0,0,0,0,0,0,0,0,0],"sum_hessian":[3.6671457E4,1.4276891E4,2.2394566E4,2.7861309E3,1.149076E4,1.518393E4,7.2106377E3,2.5015154E3,2.8461542E2,8.769304E3,2.721456E3,5.192034E3,9.9918955E3,1.4917356E3,5.7189023E3,1.1598192E2,2.3855334E3,7.217581E1,2.1243959E2,1.4717247E3,7.2975786E3,2.2248103E3,4.9664563E2,9.0108673E2,4.2909478E3,8.68157E3,1.310325E3,1.211162E3,2.8057355E2,1.5265841E3,4.192318E3,2.0672787E1,9.5309135E1,3.0173898E2,2.0837947E3,2.4979301E1,4.719651E1,1.4362007E1,1.9807759E2,7.2846027E2,7.432645E2,4.624628E3,2.672951E3,2.054939E3,1.6987144E2,4.7087357E2,2.5772036E1,2.0576464E1,8.8051025E2,1.5520935E2,4.1357383E3,6.835581E3,1.8459895E3,9.808961E2,3.294288E2,5.5064417E2,6.605179E2,5.4706398E1,2.2586716E2,1.2495331E3,2.7705103E2,3.4190674E2,3.8504114E3],"tree_param":{"num_deleted":"0","num_feature":"30","num_nodes":"63","size_leaf_vector":"1"}},{"base_weights":[-3.6270015E-3,9.261098E-2,-8.8680275E-2,5.5849638E-2,1.9055013E-1,9.165423E-3,-1.17844366E-1,7.715974E-2,-6.875773E-2,2.992872E-1,1.4861019E-1,2.7262285E-2,-2.0473608E-1,-9.1101855E-2,-1.8990318E-1,1.2344361E-1,4.6004146E-2,-4.191633E-2,-2.9100075E-1,5.9906507E-1,2.5172064E-1,1.5739636E-1,-4.596999E-1,6.539817E-2,-4.431397E-2,-2.9434314E-1,1.3489589E-1,-6.361332E-2,-1.39265E-1,-3.6628637E-1,-1.6065095E-1,2.277123E-3,6.805865E-5,-0E0,1.1224473E-3,1.7402718E-3,-9.6790335E-4,-6.1038933E-3,-6.9778145E-4,8.350048E-3,-0E0,6.9524823E-3,2.7267695E-3,2.1853E-3,-3.5301675E-3,-0E0,-1.0265252E-2,1.2393284E-3,-1.6428551E-3,-3.3137489E-3,-1.9871777E-4,-4.487811E-3,2.0763425E-3,3.8689654E-3,-3.5958644E-3,-1.5778401E-3,-4.6533157E-4,-1.099721E-3,-2.4683194E-3,3.3547156E-4,-5.1811584E-3,-1.3968784E-3,-2.5927343E-3],"categories":[],"categories_nodes":[],"categories_segments":[],"categories_sizes":[],"default_left":[0,0,0,0,0,0,0,0,0,0,0,0,0,0,0,0,0,0,0,0,0,0,0,0,0,0,0,0,0,0,0,0,0,0,0,0,0,0,0,0,0,0,0,0,0,0,0,0,0,0,0,0,0,0,0,0,0,0,0,0,0,0,0],"id":16,"left_children":[1,3,5,7,9,11,13,15,17,19,21,23,25,27,29,31,33,35,37,39,41,43,45,47,49,51,53,55,57,59,61,-1,-1,-1,-1,-1,-1,-1,-1,-1,-1,-1,-1,-1,-1,-1,-1,-1,-1,-1,-1,-1,-1,-1,-1,-1,-1,-1,-1,-1,-1,-1,-1],"loss_changes":[3.001752E2,6.1497437E1,5.575804E1,3.3256454E1,2.0563416E1,1.6980392E1,2.8460144E1,1.5146313E1,1.02817955E1,1.6853142E1,1.7701767E1,1.1284771E1,1.0680219E1,1.4183243E1,1.9955978E1,2.5092941E1,1.1817086E1,8.974313E0,6.9581776E0,4.640457E0,1.2355499E1,1.2961578E1,7.2567368E0,1.4939981E1,8.1699505E0,6.2751007E0,4.573437E0,1.0914743E1,1.0278198E1,6.9757996E0,6.4521484E0,0E0,0E0,0E0,0E0,0E0,0E0,0E0,0E0,0E0,0E0,0E0,0E0,0E0,0E0,0E0,0E0,0E0,0E0,0E0,0E0,0E0,0E0,0E0,0E0,0E0,0E0,0E0,0E0,0E0,0E0,0E0,0E0],"parents":[2147483647,0,0,1,1,2,2,3,3,4,4,5,5,6,6,7,7,8,8,9,9,10,10,11,11,12,12,13,13,14,14,15,15,16,16,17,17,18,18,19,19,20,20,21,21,22,22,23,23,24,24,25,25,26,26,27,27,28,28,29,29,30,30],"right_children":[2,4,6,8,10,12,14,16,18,20,22,24,26,28,30,32,34,36,38,40,42,44,46,48,50,52,54,56,58,60,62,-1,-1,-1,-1,-1,-1,-1,-1,-1,-1,-1,-1,-1,-1,-1,-1,-1,-1,-1,-1,-1,-1,-1,-1,-1,-1,-1,-1,-1,-1,-1,-1],"split_conditions":[-1.0494807E-4,7.982075E-2,-6.13451E-4,1.2447311E0,-4.3388373E-1,-2.6263474E-3,9.360454E-2,-2.5221892E-3,-3.2685352E-3,2.1688E4,-3.435932E-3,9.406019E-1,-7.210374E-4,2.5599468E-3,-7.818315E-1,5.9723854E-4,-1.8369701E-16,2.0969755E-3,-2.3798342E-3,8.044823E-3,3.332213E-4,2.8634196E-4,2.598641E4,9.659258E-1,-2.0009786E-1,4.0067607E-3,3.1064062E-3,4.849079E1,-3.3447265E-3,1.653683E1,1.874771E-3,2.277123E-3,6.805865E-5,-0E0,1.1224473E-3,1.7402718E-3,-9.6790335E-4,-6.1038933E-3,-6.9778145E-4,8.350048E-3,-0E0,6.9524823E-3,2.7267695E-3,2.1853E-3,-3.5301675E-3,-0E0,-1.0265252E-2,1.2393284E-3,-1.6428551E-3,-3.3137489E-3,-1.9871777E-4,-4.487811E-3,2.0763425E-3,3.8689654E-3,-3.5958644E-3,-1.5778401E-3,-4.6533157E-4,-1.099721E-3,-2.4683194E-3,3.3547156E-4,-5.1811584E-3,-1.3968784E-3,-2.5927343E-3],"split_indices":[0,26,29,2,3,21,26,11,13,27,21,2,29,11,3,29,15,22,13,22,22,11,6,15,26,14,11,25,13,25,14,0,0,0,0,0,0,0,0,0,0,0,0,0,0,0,0,0,0,0,0,0,0,0,0,0,0,0,0,0,0,0,0],"split_type":[0,0,0,0,0,0,0,0,0,0,0,0,0,0,0,0,0,0,0,0,0,0,0,0,0,0,0,0,0,0,0,0,0,0,0,0,0,0,0,0,0,0,0,0,0,0,0,0,0,0,0,0,0,0,0,0,0,0,0,0,0,0,0],"sum_hessian":[3.6670918E4,1.7195164E4,1.9475752E4,1.2515777E4,4.6793877E3,4.459286E3,1.5016466E4,1.0699529E4,1.8162476E3,1.289801E3,3.389587E3,4.119356E3,3.3992993E2,1.0970299E4,4.046167E3,4.282222E3,6.417307E3,1.6282245E3,1.88023E2,1.7024504E2,1.119556E3,3.3447495E3,4.483745E1,2.7024822E3,1.4168738E3,2.728993E2,6.703064E1,7.0074004E3,3.9628984E3,5.658857E2,3.4802812E3,2.997452E3,1.2847706E3,2.948042E3,3.4692651E3,2.4283563E2,1.3853889E3,1.03956665E2,8.406634E1,1.6217029E2,8.074753E0,1.4586603E2,9.7368994E2,3.2787427E3,6.600676E1,1.8191414E1,2.6646034E1,2.3528645E3,3.496176E2,1.6616418E2,1.2507096E3,2.5038025E2,2.2519053E1,5.127437E1,1.575627E1,2.305398E3,4.7020024E3,1.8736877E3,2.0892107E3,3.463022E1,5.3125543E2,1.431216E3,2.0490654E3],"tree_param":{"num_deleted":"0","num_feature":"30","num_nodes":"63","size_leaf_vector":"1"}},{"base_weights":[-1.3956148E-3,1.16775416E-1,-7.716155E-2,2.4815395E-1,8.514123E-2,-3.7277706E-2,-1.660899E-1,4.421499E-1,2.216824E-1,1.09574266E-1,5.606172E-3,4.874478E-2,-6.7903176E-2,-2.1045761E-1,-1.1099271E-1,1.310264E-1,5.121161E-1,4.0362525E-1,1.9571215E-1,2.0481993E-1,9.051587E-2,-2.5983907E-2,8.3810166E-2,4.4151884E-2,1.0016188E-2,8.0344535E-2,-8.107452E-2,-3.746979E-1,-1.8489379E-1,8.277158E-2,-1.3728431E-1,-1.3206556E-3,5.1763714E-3,7.0767277E-3,-5.466896E-4,6.0310923E-3,-1.423564E-3,6.4081834E-3,2.2916552E-3,3.7438865E-3,1.4101639E-3,1.453339E-3,2.1405698E-4,3.372648E-3,-4.847457E-4,1.7793066E-3,-2.273943E-3,9.317242E-3,5.269371E-4,5.83009E-4,5.622672E-3,-5.0710125E-5,-1.349182E-3,-1.8647778E-3,-6.2965713E-3,-7.128747E-4,-2.7870198E-3,3.8917216E-3,-5.8257803E-5,1.428579E-3,-2.0575922E-3],"categories":[],"categories_nodes":[],"categories_segments":[],"categories_sizes":[],"default_left":[0,0,0,0,0,0,0,0,0,0,0,0,0,0,0,0,0,0,0,0,0,0,0,0,0,0,0,0,0,0,0,0,0,0,0,0,0,0,0,0,0,0,0,0,0,0,0,0,0,0,0,0,0,0,0,0,0,0,0,0,0],"id":17,"left_children":[1,3,5,7,9,11,13,15,17,19,21,23,25,27,29,31,33,35,37,39,41,43,45,47,-1,49,51,53,55,57,59,-1,-1,-1,-1,-1,-1,-1,-1,-1,-1,-1,-1,-1,-1,-1,-1,-1,-1,-1,-1,-1,-1,-1,-1,-1,-1,-1,-1,-1,-1],"loss_changes":[3.278682E2,5.8865555E1,7.8846634E1,1.3005493E1,2.2230377E1,4.0678276E1,1.6314941E1,5.9155464E0,1.047361E1,1.5488319E1,6.8370233E0,1.1891293E1,2.225142E1,1.4982529E1,1.5875805E1,4.498047E0,4.7585373E0,9.132908E0,1.2046623E1,1.0720314E1,1.0849178E1,5.6353216E0,1.0622248E1,9.403117E0,0E0,1.0705894E1,1.7420433E1,1.1211388E1,1.1423157E1,7.253895E0,1.32539215E1,0E0,0E0,0E0,0E0,0E0,0E0,0E0,0E0,0E0,0E0,0E0,0E0,0E0,0E0,0E0,0E0,0E0,0E0,0E0,0E0,0E0,0E0,0E0,0E0,0E0,0E0,0E0,0E0,0E0,0E0],"parents":[2147483647,0,0,1,1,2,2,3,3,4,4,5,5,6,6,7,7,8,8,9,9,10,10,11,11,12,12,13,13,14,14,15,15,16,16,17,17,18,18,19,19,20,20,21,21,22,22,23,23,25,25,26,26,27,27,28,28,29,29,30,30],"right_children":[2,4,6,8,10,12,14,16,18,20,22,24,26,28,30,32,34,36,38,40,42,44,46,48,-1,50,52,54,56,58,60,-1,-1,-1,-1,-1,-1,-1,-1,-1,-1,-1,-1,-1,-1,-1,-1,-1,-1,-1,-1,-1,-1,-1,-1,-1,-1,-1,-1,-1,-1],"split_conditions":[-6.2036293E-4,1.1762207E1,7.994829E1,-8.660254E-1,9.189844E-4,8.185249E-1,4.37724E4,7.325273E1,1.4431992E0,2.304172E4,7.0710677E-1,3.2297373E-3,3.2317024E1,-7.818315E-1,-1.9144978E-4,6.303988E-1,2.481854E3,1.0043292E0,2.0220139E4,9.617126E-1,4.2994682E1,1.115056E-3,5.1971725E1,1.683153E4,1.0016188E-2,9.357083E-3,-6.3073635E-4,9.6250675E-4,-6.2942505E-5,9.310763E-1,4.67E4,-1.3206556E-3,5.1763714E-3,7.0767277E-3,-5.466896E-4,6.0310923E-3,-1.423564E-3,6.4081834E-3,2.2916552E-3,3.7438865E-3,1.4101639E-3,1.453339E-3,2.1405698E-4,3.372648E-3,-4.847457E-4,1.7793066E-3,-2.273943E-3,9.317242E-3,5.269371E-4,5.83009E-4,5.622672E-3,-5.0710125E-5,-1.349182E-3,-1.8647778E-3,-6.2965713E-3,-7.128747E-4,-2.7870198E-3,3.8917216E-3,-5.8257803E-5,1.428579E-3,-2.0575922E-3],"split_indices":[0,1,1,15,29,2,8,18,1,8,15,29,1,3,23,2,17,2,16,2,1,14,1,7,0,23,29,23,29,2,4,0,0,0,0,0,0,0,0,0,0,0,0,0,0,0,0,0,0,0,0,0,0,0,0,0,0,0,0,0,0],"split_type":[0,0,0,0,0,0,0,0,0,0,0,0,0,0,0,0,0,0,0,0,0,0,0,0,0,0,0,0,0,0,0,0,0,0,0,0,0,0,0,0,0,0,0,0,0,0,0,0,0,0,0,0,0,0,0,0,0,0,0,0,0],"sum_hessian":[3.6624816E4,1.4299646E4,2.232517E4,2.76353E3,1.1536117E4,1.5426437E4,6.8987334E3,3.2240283E2,2.4411272E3,8.808987E3,2.7271292E3,4.0359246E3,1.1390512E4,3.8033289E3,3.0954045E3,6.4048454E1,2.5835437E2,2.9512753E2,2.1459998E3,1.4527064E3,7.3562812E3,1.9280321E3,7.990971E2,4.0135388E3,2.2385721E1,9.188349E2,1.0471677E4,5.0168384E2,3.301645E3,3.621057E2,2.7332988E3,3.1114138E1,3.293432E1,2.4907544E2,9.278929E0,2.6898862E2,2.613893E1,1.3711887E2,2.0088807E3,7.846022E2,6.681042E2,5.760798E3,1.5954834E3,6.544049E1,1.8625916E3,6.708094E2,1.282877E2,2.0339762E1,3.9931992E3,8.382854E2,8.054949E1,2.319308E3,8.152369E3,1.6191023E2,3.3977362E2,5.8596497E2,2.71568E3,1.0961338E2,2.5249232E2,1.9454228E2,2.5387566E3],"tree_param":{"num_deleted":"0","num_feature":"30","num_nodes":"61","size_leaf_vector":"1"}},{"base_weights":[1.7969483E-3,9.7273335E-2,-8.2171954E-2,1.9840463E-1,6.667627E-2,-5.4617424E-2,-1.9560441E-1,3.8728574E-1,1.6917959E-1,8.679023E-2,-8.036749E-2,8.668633E-3,-8.5754916E-2,-9.2637E-2,-2.3818624E-1,4.042443E-1,-3.5689652E-3,-2.093681E-1,1.7802683E-1,7.680373E-2,2.1840493E-1,-1.5846284E-1,-3.2437336E-2,2.5607334E-2,-1.4578271E-1,-3.3980455E-2,-1.22444764E-1,-1.9035177E-1,-3.8888317E-2,-3.8176438E-1,-1.9674227E-1,9.051731E-3,4.6310415E-3,-2.1669736E-4,-7.7716154E-3,2.9313746E-3,1.3602418E-3,6.410489E-4,1.4439217E-3,3.5900522E-3,5.414498E-4,-1.2224267E-3,-4.2195255E-3,2.741973E-3,-7.4487895E-4,1.8583925E-3,6.174736E-5,1.9496442E-3,-3.0882326E-3,1.6362016E-3,-7.1123336E-4,-2.7509248E-3,-1.3353887E-3,-5.0027017E-3,-1.5023032E-3,-2.0494845E-5,-4.2845793E-3,-6.7505375E-3,-3.0782097E-3,-3.1454535E-3,-7.0585514E-4],"categories":[],"categories_nodes":[],"categories_segments":[],"categories_sizes":[],"default_left":[0,0,0,0,0,0,0,0,0,0,0,0,0,0,0,0,0,0,0,0,0,0,0,0,0,0,0,0,0,0,0,0,0,0,0,0,0,0,0,0,0,0,0,0,0,0,0,0,0,0,0,0,0,0,0,0,0,0,0,0,0],"id":18,"left_children":[1,3,5,7,9,11,13,15,17,19,21,23,25,27,29,31,-1,33,35,37,39,41,43,45,47,49,51,53,55,57,59,-1,-1,-1,-1,-1,-1,-1,-1,-1,-1,-1,-1,-1,-1,-1,-1,-1,-1,-1,-1,-1,-1,-1,-1,-1,-1,-1,-1,-1,-1],"loss_changes":[2.9398483E2,5.2671143E1,6.05271E1,2.0957642E1,3.903934E1,3.1069122E1,1.6091217E1,6.1933136E0,1.1546196E1,1.476619E1,5.58918E0,1.3310381E1,1.9763649E1,5.521723E0,1.4893692E1,5.560547E0,0E0,4.5351934E0,1.0839897E1,9.778217E0,7.367668E0,5.5405626E0,5.59381E0,1.1065905E1,1.3386772E1,1.3991517E1,1.0551659E1,4.7591896E0,7.3811994E0,1.0157883E1,1.2336739E1,0E0,0E0,0E0,0E0,0E0,0E0,0E0,0E0,0E0,0E0,0E0,0E0,0E0,0E0,0E0,0E0,0E0,0E0,0E0,0E0,0E0,0E0,0E0,0E0,0E0,0E0,0E0,0E0,0E0,0E0],"parents":[2147483647,0,0,1,1,2,2,3,3,4,4,5,5,6,6,7,7,8,8,9,9,10,10,11,11,12,12,13,13,14,14,15,15,17,17,18,18,19,19,20,20,21,21,22,22,23,23,24,24,25,25,26,26,27,27,28,28,29,29,30,30],"right_children":[2,4,6,8,10,12,14,16,18,20,22,24,26,28,30,32,-1,34,36,38,40,42,44,46,48,50,52,54,56,58,60,-1,-1,-1,-1,-1,-1,-1,-1,-1,-1,-1,-1,-1,-1,-1,-1,-1,-1,-1,-1,-1,-1,-1,-1,-1,-1,-1,-1,-1,-1],"split_conditions":[-1.0494807E-4,1.5301485E1,8.779472E1,-7.818315E-1,1.2852497E0,-4.194975E-4,6.0655586E3,8.438895E-3,-2.669806E-1,1.9123873E-1,-7.7330835E-2,-2.6851809E-3,-6.6172495E-3,5.9227543E-3,-4.3388373E-1,2.3448E4,-3.5689652E-3,-1.09846555E-2,1.8027393E-3,2.5881904E-1,5.46E4,-1.1281432E-1,1.978932E1,1.7066011E2,2.6352E4,-1.9548455E-1,2.319915E4,-2.5881904E-1,2.6001784E-1,2.5881904E-1,6.126967E4,9.051731E-3,4.6310415E-3,-2.1669736E-4,-7.7716154E-3,2.9313746E-3,1.3602418E-3,6.410489E-4,1.4439217E-3,3.5900522E-3,5.414498E-4,-1.2224267E-3,-4.2195255E-3,2.741973E-3,-7.4487895E-4,1.8583925E-3,6.174736E-5,1.9496442E-3,-3.0882326E-3,1.6362016E-3,-7.1123336E-4,-2.7509248E-3,-1.3353887E-3,-5.0027017E-3,-1.5023032E-3,-2.0494845E-5,-4.2845793E-3,-6.7505375E-3,-3.0782097E-3,-3.1454535E-3,-7.0585514E-4],"split_indices":[0,1,1,3,2,29,5,22,26,26,26,21,21,26,3,9,0,21,22,15,6,26,1,17,6,26,9,15,26,15,16,0,0,0,0,0,0,0,0,0,0,0,0,0,0,0,0,0,0,0,0,0,0,0,0,0,0,0,0,0,0],"split_type":[0,0,0,0,0,0,0,0,0,0,0,0,0,0,0,0,0,0,0,0,0,0,0,0,0,0,0,0,0,0,0,0,0,0,0,0,0,0,0,0,0,0,0,0,0,0,0,0,0,0,0,0,0,0,0,0,0,0,0,0,0],"sum_hessian":[3.666479E4,1.7165838E4,1.9498951E4,3.9733896E3,1.3192448E4,1.5700955E4,3.7979954E3,5.2317255E2,3.450217E3,1.1615202E4,1.5772455E3,5.1604854E3,1.054047E4,1.1233835E3,2.6746118E3,5.1287384E2,1.0298702E1,7.401858E1,3.3761985E3,1.0809161E4,8.0604156E2,5.8592413E2,9.9132135E2,4.6608267E3,4.9965866E2,4.390955E3,6.149515E3,3.8687137E2,7.365122E2,5.88307E2,2.086305E3,7.117523E1,4.416986E2,5.2804592E1,2.1213985E1,2.0810977E3,1.2951008E3,5.9018047E3,4.907356E3,6.0695776E2,1.9908385E2,4.2682272E2,1.5910143E2,8.3880135E1,9.074412E2,6.984622E2,3.9623645E3,1.1216275E2,3.874959E2,4.8669122E2,3.9042637E3,1.160529E3,4.988986E3,1.0263015E2,2.842412E2,6.579061E2,7.860611E1,3.0202454E2,2.8628247E2,1.5944109E3,4.91894E2],"tree_param":{"num_deleted":"0","num_feature":"30","num_nodes":"61","size_leaf_vector":"1"}},{"base_weights":[3.999279E-3,1.3514E-1,-6.100973E-2,2.2453015E-1,9.520454E-2,-2.1470148E-2,-1.5224425E-1,3.7861612E-1,2.003226E-1,1.0896756E-1,-9.344908E-2,1.9223467E-2,-7.943672E-2,-3.0091774E-1,-1.2929736E-1,1.18139416E-1,4.437679E-1,-1.05543666E-1,2.1649233E-1,1.3971968E-1,4.093497E-2,1.2084142E-2,-2.2490086E-1,5.9497245E-2,-5.315803E-2,1.5472589E-2,-1.1802392E-1,9.6024394E-2,-3.269349E-1,-6.1038863E-2,-1.7433089E-1,3.943082E-3,-2.7343044E-3,6.0703447E-3,-7.8164495E-4,-2.5977257E-3,5.1778867E-3,5.8467765E-3,2.6441077E-3,3.4613803E-3,1.283734E-3,3.286633E-4,6.5328293E-3,-1.1937368E-3,2.3644203E-3,3.3779936E-3,-3.639751E-3,3.094967E-3,6.539061E-4,-3.5356707E-3,-5.727208E-4,5.251638E-4,-1.7055756E-3,6.5574073E-4,-1.7527705E-3,-9.248711E-4,5.9887553E-3,-9.505513E-3,-3.9436747E-3,7.2714675E-4,-1.1776743E-3,2.5593021E-3,-2.417746E-3],"categories":[],"categories_nodes":[],"categories_segments":[],"categories_sizes":[],"default_left":[0,0,0,0,0,0,0,0,0,0,0,0,0,0,0,0,0,0,0,0,0,0,0,0,0,0,0,0,0,0,0,0,0,0,0,0,0,0,0,0,0,0,0,0,0,0,0,0,0,0,0,0,0,0,0,0,0,0,0,0,0,0,0],"id":19,"left_children":[1,3,5,7,9,11,13,15,17,19,21,23,25,27,29,31,33,35,37,39,41,43,45,47,49,51,53,55,57,59,61,-1,-1,-1,-1,-1,-1,-1,-1,-1,-1,-1,-1,-1,-1,-1,-1,-1,-1,-1,-1,-1,-1,-1,-1,-1,-1,-1,-1,-1,-1,-1,-1],"loss_changes":[3.1228583E2,4.2804672E1,8.799225E1,1.2908295E1,2.1867973E1,4.0405994E1,2.4453156E1,7.456726E0,1.6233414E1,1.6111015E1,8.17849E0,2.9232607E1,2.6042397E1,1.0504341E1,1.930732E1,6.524193E0,4.4239273E0,7.0812855E0,9.411942E0,2.736914E1,1.6988663E1,5.4839516E0,6.6495504E0,1.0514286E1,6.813195E0,7.1116757E0,1.3317726E1,4.090749E0,7.7401123E0,8.639463E0,1.416243E1,0E0,0E0,0E0,0E0,0E0,0E0,0E0,0E0,0E0,0E0,0E0,0E0,0E0,0E0,0E0,0E0,0E0,0E0,0E0,0E0,0E0,0E0,0E0,0E0,0E0,0E0,0E0,0E0,0E0,0E0,0E0,0E0],"parents":[2147483647,0,0,1,1,2,2,3,3,4,4,5,5,6,6,7,7,8,8,9,9,10,10,11,11,12,12,13,13,14,14,15,15,16,16,17,17,18,18,19,19,20,20,21,21,22,22,23,23,24,24,25,25,26,26,27,27,28,28,29,29,30,30],"right_children":[2,4,6,8,10,12,14,16,18,20,22,24,26,28,30,32,34,36,38,40,42,44,46,48,50,52,54,56,58,60,62,-1,-1,-1,-1,-1,-1,-1,-1,-1,-1,-1,-1,-1,-1,-1,-1,-1,-1,-1,-1,-1,-1,-1,-1,-1,-1,-1,-1,-1,-1,-1,-1],"split_conditions":[3.6577686E1,1.4435087E1,7.8921135E1,-7.818315E-1,1.4058242E0,-6.6172495E-3,-7.818315E-1,5.6482595E-1,6.735241E-4,-1.0711432E-3,4.7654547E4,1.2438297E-3,8.244654E-1,-1.1456058E-3,6.0655586E3,-7.3381566E-4,7.60784E-3,3.374119E-1,3.5966656E1,8.1686386E1,1.2012094E-2,5E-1,1.7737415E1,-6.4064264E-3,-2.8506266E-2,-2.0947296E-3,1.9797293E1,4.374511E4,-9.71965E3,-1.5236874E-4,-7.5238943E-4,3.943082E-3,-2.7343044E-3,6.0703447E-3,-7.8164495E-4,-2.5977257E-3,5.1778867E-3,5.8467765E-3,2.6441077E-3,3.4613803E-3,1.283734E-3,3.286633E-4,6.5328293E-3,-1.1937368E-3,2.3644203E-3,3.3779936E-3,-3.639751E-3,3.094967E-3,6.539061E-4,-3.5356707E-3,-5.727208E-4,5.251638E-4,-1.7055756E-3,6.5574073E-4,-1.7527705E-3,-9.248711E-4,5.9887553E-3,-9.505513E-3,-3.9436747E-3,7.2714675E-4,-1.1776743E-3,2.5593021E-3,-2.417746E-3],"split_indices":[1,1,1,3,2,21,3,2,14,0,24,12,2,23,5,23,22,26,25,25,23,15,1,12,13,21,25,4,5,23,12,0,0,0,0,0,0,0,0,0,0,0,0,0,0,0,0,0,0,0,0,0,0,0,0,0,0,0,0,0,0,0,0],"split_type":[0,0,0,0,0,0,0,0,0,0,0,0,0,0,0,0,0,0,0,0,0,0,0,0,0,0,0,0,0,0,0,0,0,0,0,0,0,0,0,0,0,0,0,0,0,0,0,0,0,0,0,0,0,0,0,0,0,0,0,0,0,0,0],"sum_hessian":[3.661403E4,1.2142812E4,2.447122E4,3.735494E3,8.407317E3,1.708579E4,7.3854326E3,4.958993E2,3.2395945E3,7.8441914E3,5.6312646E2,1.0022326E4,7.0634624E3,9.76232E2,6.4092007E3,1.04846825E2,3.910525E2,1.5727827E2,3.0823162E3,5.384893E3,2.4592986E3,3.059618E2,2.5716467E2,6.45407E3,3.568256E3,2.0295878E3,5.0338745E3,5.5998222E1,9.202338E2,2.5631152E3,3.8460852E3,7.054747E1,3.4299355E1,3.801098E2,1.0942674E1,1.3604425E2,2.1234028E1,1.8028445E2,2.9020317E3,1.3471721E3,4.0377207E3,2.381228E3,7.807044E1,1.8392957E2,1.2203223E2,2.1783949E1,2.3538074E2,3.248603E2,6.1292095E3,1.4170749E2,3.4265486E3,1.7467695E3,2.8281833E2,4.1790738E2,4.6159673E3,3.576555E1,2.0232672E1,5.1594498E1,8.686393E2,4.9560498E2,2.0675103E3,9.60582E1,3.750027E3],"tree_param":{"num_deleted":"0","num_feature":"30","num_nodes":"63","size_leaf_vector":"1"}},{"base_weights":[3.0480577E-3,9.261095E-2,-9.039542E-2,1.7723589E-1,4.9309436E-2,-3.299022E-2,-1.4890108E-1,5.0337225E-1,1.5948126E-1,8.6723894E-2,7.885506E-3,6.528851E-4,-9.781137E-2,-1.2128402E-1,-2.5218186E-1,-1.6816653E-2,5.4852575E-1,2.9971364E-1,1.302795E-1,1.08458385E-1,-9.819107E-3,7.333143E-2,-4.5936093E-2,-4.747595E-3,3.4317312E-1,1.9463466E-2,-1.8005772E-1,-2.6052237E-1,-1.01914816E-1,-4.12345E-1,-2.04451E-1,3.3679677E-3,-3.4907921E-3,8.491862E-3,3.5263395E-3,4.3595643E-3,-9.795171E-5,2.397097E-3,9.743785E-4,3.0700788E-3,1.1851595E-3,-1.072681E-3,1.0364302E-3,1.1276474E-3,-4.4666254E-3,1.0259164E-3,-9.531302E-4,-3.8532377E-4,6.816355E-4,6.8872524E-3,-4.936409E-4,7.329325E-4,-3.0058483E-3,-1.8169315E-3,-3.6954635E-3,-1.0850767E-3,-4.1712616E-3,-2.884194E-4,-1.8367204E-3,-3.2473337E-3,-6.327492E-3,4.7007976E-3,-2.802605E-3],"categories":[],"categories_nodes":[],"categories_segments":[],"categories_sizes":[],"default_left":[0,0,0,0,0,0,0,0,0,0,0,0,0,0,0,0,0,0,0,0,0,0,0,0,0,0,0,0,0,0,0,0,0,0,0,0,0,0,0,0,0,0,0,0,0,0,0,0,0,0,0,0,0,0,0,0,0,0,0,0,0,0,0],"id":20,"left_children":[1,3,5,7,9,11,13,15,17,19,21,23,25,27,29,31,33,35,37,39,41,43,45,47,49,51,53,55,57,59,61,-1,-1,-1,-1,-1,-1,-1,-1,-1,-1,-1,-1,-1,-1,-1,-1,-1,-1,-1,-1,-1,-1,-1,-1,-1,-1,-1,-1,-1,-1,-1,-1],"loss_changes":[3.070956E2,6.830751E1,5.9978226E1,3.5491608E1,1.9084291E1,1.995037E1,2.466893E1,8.436722E0,2.3869232E1,1.3805889E1,2.0877832E1,1.1579221E1,3.033622E1,1.8301773E1,1.3110756E1,1.7096514E0,6.5700836E0,1.0797363E1,1.4208061E1,1.1553642E1,7.5629163E0,1.3620414E1,1.07128525E1,8.149438E0,7.549962E0,1.1291015E1,7.0450897E0,7.95113E0,1.851815E1,3.4952087E0,7.2810135E0,0E0,0E0,0E0,0E0,0E0,0E0,0E0,0E0,0E0,0E0,0E0,0E0,0E0,0E0,0E0,0E0,0E0,0E0,0E0,0E0,0E0,0E0,0E0,0E0,0E0,0E0,0E0,0E0,0E0,0E0,0E0,0E0],"parents":[2147483647,0,0,1,1,2,2,3,3,4,4,5,5,6,6,7,7,8,8,9,9,10,10,11,11,12,12,13,13,14,14,15,15,16,16,17,17,18,18,19,19,20,20,21,21,22,22,23,23,24,24,25,25,26,26,27,27,28,28,29,29,30,30],"right_children":[2,4,6,8,10,12,14,16,18,20,22,24,26,28,30,32,34,36,38,40,42,44,46,48,50,52,54,56,58,60,62,-1,-1,-1,-1,-1,-1,-1,-1,-1,-1,-1,-1,-1,-1,-1,-1,-1,-1,-1,-1,-1,-1,-1,-1,-1,-1,-1,-1,-1,-1,-1,-1],"split_conditions":[5.3020367E1,2.167891E1,1.275897E-3,1.940801E4,-3.579855E-4,-2.274134E-3,9.2231064E1,-1.6481069E-1,4.951923E0,6.172479E4,-1.3451115E-3,2.6300445E-2,7.0904876E-4,-7.818315E-1,-4.3388373E-1,1.679824E4,-1.1955267E-3,-9.394288E-4,2.1791449E-3,5.179099E1,-4.3596E-4,8.739352E-3,-6.174844E3,7.818315E-1,-2.3892388E-2,6.811957E3,2.6151738E-3,3.5472133E-4,1.272787E2,3.710691E4,3.811873E1,3.3679677E-3,-3.4907921E-3,8.491862E-3,3.5263395E-3,4.3595643E-3,-9.795171E-5,2.397097E-3,9.743785E-4,3.0700788E-3,1.1851595E-3,-1.072681E-3,1.0364302E-3,1.1276474E-3,-4.4666254E-3,1.0259164E-3,-9.531302E-4,-3.8532377E-4,6.816355E-4,6.8872524E-3,-4.936409E-4,7.329325E-4,-3.0058483E-3,-1.8169315E-3,-3.6954635E-3,-1.0850767E-3,-4.1712616E-3,-2.884194E-4,-1.8367204E-3,-3.2473337E-3,-6.327492E-3,4.7007976E-3,-2.802605E-3],"split_indices":[1,1,12,9,12,13,1,26,1,9,23,23,23,3,3,19,11,12,22,18,23,12,5,3,26,5,11,23,18,4,18,0,0,0,0,0,0,0,0,0,0,0,0,0,0,0,0,0,0,0,0,0,0,0,0,0,0,0,0,0,0,0,0],"split_type":[0,0,0,0,0,0,0,0,0,0,0,0,0,0,0,0,0,0,0,0,0,0,0,0,0,0,0,0,0,0,0,0,0,0,0,0,0,0,0,0,0,0,0,0,0,0,0,0,0,0,0,0,0,0,0,0,0,0,0,0,0,0,0],"sum_hessian":[3.6691598E4,1.8743785E4,1.7947814E4,6.3306177E3,1.2413167E4,9.074085E3,8.873729E3,3.2059277E2,6.010025E3,6.5008203E3,5.912347E3,5.957687E3,3.116398E3,7.015863E3,1.8578658E3,2.2756088E1,2.978367E2,1.0244666E3,4.9855586E3,5.320005E3,1.1808158E3,2.6816362E3,3.230711E3,5.8615117E3,9.6175385E1,1.2767441E3,1.8396538E3,8.448448E2,6.171018E3,4.16825E2,1.4410409E3,7.696727E0,1.5059361E1,2.1479118E2,8.304551E1,9.309923E2,9.347422E1,2.5587825E3,2.4267761E3,6.581517E2,4.661853E3,6.626355E2,5.1818036E2,2.606929E3,7.470716E1,5.608758E2,2.669835E3,4.107385E3,1.7541273E3,6.774741E1,2.8427975E1,1.1201229E3,1.5662125E2,1.3187666E3,5.2088715E2,2.1380412E2,6.310407E2,2.0057542E3,4.1652637E3,1.3257999E2,2.8424503E2,1.9587116E1,1.4214537E3],"tree_param":{"num_deleted":"0","num_feature":"30","num_nodes":"63","size_leaf_vector":"1"}},{"base_weights":[-2.7898324E-3,8.625787E-2,-9.2875615E-2,1.7041081E-1,4.22125E-2,-3.7258673E-2,-1.5018569E-1,5.241728E-1,1.5409698E-1,7.545108E-2,-4.7913557E-3,-4.967954E-2,1.396023E-1,-1.10353686E-1,-2.122622E-1,5.53531E-1,-1.206459E-3,1.8403041E-1,4.466913E-2,1.0259976E-1,-0E0,1.8215479E-1,-2.3274455E-2,-0E0,-8.9336984E-2,2.390635E-1,-1.8642757E-2,1.3989532E-1,-1.2088359E-1,-4.0467948E-1,-1.9348718E-1,7.5670467E-3,-0E0,3.6652747E-3,1.9249165E-3,-1.2752153E-3,1.1151024E-3,1.7294704E-3,5.052719E-4,-1.3871951E-3,4.5615959E-4,3.2774261E-3,1.8033956E-4,-4.561696E-3,-1.7776524E-4,-1.4257524E-3,4.1057865E-4,-1.0514824E-3,-5.725098E-3,5.61214E-3,1.5232408E-3,-4.985315E-3,1.0377993E-3,9.178693E-3,1.1029753E-3,-8.0506096E-4,-1.88168E-3,-7.282669E-3,-2.9952677E-3,-4.490326E-4,-2.7588373E-3],"categories":[],"categories_nodes":[],"categories_segments":[],"categories_sizes":[],"default_left":[0,0,0,0,0,0,0,0,0,0,0,0,0,0,0,0,0,0,0,0,0,0,0,0,0,0,0,0,0,0,0,0,0,0,0,0,0,0,0,0,0,0,0,0,0,0,0,0,0,0,0,0,0,0,0,0,0,0,0,0,0],"id":21,"left_children":[1,3,5,7,9,11,13,15,17,19,21,23,25,27,29,31,-1,33,35,37,39,41,43,45,47,49,51,53,55,57,59,-1,-1,-1,-1,-1,-1,-1,-1,-1,-1,-1,-1,-1,-1,-1,-1,-1,-1,-1,-1,-1,-1,-1,-1,-1,-1,-1,-1,-1,-1],"loss_changes":[2.9434955E2,6.800368E1,5.7852737E1,3.529628E1,1.9053003E1,2.0239304E1,2.1632355E1,5.764595E0,1.9435074E1,1.4736172E1,1.702489E1,1.7042044E1,9.815778E0,1.4437111E1,1.154422E1,3.7834854E0,0E0,1.6115524E1,7.498562E0,9.548447E0,6.9857492E0,4.6011953E0,1.3789944E1,1.3178055E1,1.44879875E1,7.759159E0,8.518504E0,5.3903084E0,6.7240067E0,6.581238E0,8.12146E0,0E0,0E0,0E0,0E0,0E0,0E0,0E0,0E0,0E0,0E0,0E0,0E0,0E0,0E0,0E0,0E0,0E0,0E0,0E0,0E0,0E0,0E0,0E0,0E0,0E0,0E0,0E0,0E0,0E0,0E0],"parents":[2147483647,0,0,1,1,2,2,3,3,4,4,5,5,6,6,7,7,8,8,9,9,10,10,11,11,12,12,13,13,14,14,15,15,17,17,18,18,19,19,20,20,21,21,22,22,23,23,24,24,25,25,26,26,27,27,28,28,29,29,30,30],"right_children":[2,4,6,8,10,12,14,16,18,20,22,24,26,28,30,32,-1,34,36,38,40,42,44,46,48,50,52,54,56,58,60,-1,-1,-1,-1,-1,-1,-1,-1,-1,-1,-1,-1,-1,-1,-1,-1,-1,-1,-1,-1,-1,-1,-1,-1,-1,-1,-1,-1,-1,-1],"split_conditions":[5.2382347E1,2.167891E1,1.275897E-3,1.921611E4,-6.2036293E-4,5.3562196E-3,8.59812E1,-2.968451E-4,-9.394288E-4,1.2248435E4,-3.2406035E4,8.3397154E-4,2.2701123E3,6.4203185E-1,4.5546455E1,1.5496791E2,-1.206459E-3,6.7662992E0,7.2697166E-4,4.940579E4,1.3389587E-3,9.476869E-1,1.2631417E1,2.3680936E4,9.507637E1,6.618595E-3,3.12E4,1.3722181E-3,9.455374E-1,1.1799212E0,2.31959E4,7.5670467E-3,-0E0,3.6652747E-3,1.9249165E-3,-1.2752153E-3,1.1151024E-3,1.7294704E-3,5.052719E-4,-1.3871951E-3,4.5615959E-4,3.2774261E-3,1.8033956E-4,-4.561696E-3,-1.7776524E-4,-1.4257524E-3,4.1057865E-4,-1.0514824E-3,-5.725098E-3,5.61214E-3,1.5232408E-3,-4.985315E-3,1.0377993E-3,9.178693E-3,1.1029753E-3,-8.0506096E-4,-1.88168E-3,-7.282669E-3,-2.9952677E-3,-4.490326E-4,-2.7588373E-3],"split_indices":[1,1,12,16,0,14,1,11,12,5,5,23,5,2,25,25,0,1,14,8,29,2,25,8,1,14,4,12,2,2,27,0,0,0,0,0,0,0,0,0,0,0,0,0,0,0,0,0,0,0,0,0,0,0,0,0,0,0,0,0,0],"split_type":[0,0,0,0,0,0,0,0,0,0,0,0,0,0,0,0,0,0,0,0,0,0,0,0,0,0,0,0,0,0,0,0,0,0,0,0,0,0,0,0,0,0,0,0,0,0,0,0,0,0,0,0,0,0,0,0,0,0,0,0,0],"sum_hessian":[3.668966E4,1.8442002E4,1.8247656E4,6.322329E3,1.2119674E4,9.276026E3,8.971629E3,2.7283423E2,6.0494946E3,7.1194517E3,5.0002217E3,8.676694E3,5.9933185E2,5.4828438E3,3.4887856E3,2.630682E2,9.766018E0,4.73779E3,1.3117047E3,5.249617E3,1.8698344E3,4.4106546E2,4.5591562E3,3.8589546E3,4.81774E3,3.7405872E2,2.2527312E2,2.1457988E2,5.2682637E3,3.00473E2,3.1883125E3,2.5359059E2,9.477621E0,1.3183556E3,3.4194343E3,2.8099054E2,1.0307141E3,3.5872473E3,1.66237E3,4.726285E2,1.3972059E3,3.073499E2,1.3371555E2,1.2672215E2,4.432434E3,8.665916E2,2.9923628E3,4.699282E3,1.1845826E2,1.412924E2,2.327663E2,5.0893246E1,1.7437988E2,1.5701293E1,1.9887859E2,1.4680865E3,3.8001772E3,1.5594124E2,1.4453175E2,3.1374728E2,2.8745652E3],"tree_param":{"num_deleted":"0","num_feature":"30","num_nodes":"61","size_leaf_vector":"1"}},{"base_weights":[-2.0125862E-4,1.021794E-1,-7.834918E-2,1.8940708E-1,5.5313017E-2,-2.438161E-3,-1.393417E-1,5.1844835E-1,1.75208E-1,1.5438247E-1,3.666736E-2,4.141035E-2,-5.5085737E-2,-1.0141125E-1,-2.071518E-1,6.643214E-1,2.7801886E-1,2.9605845E-1,1.4633803E-1,1.7629166E-1,-2.1966384E-1,7.779999E-2,-1.5721897E-2,1.04072295E-1,-1.588103E-2,2.4968216E-1,-6.806761E-2,-2.2770701E-2,-1.350286E-1,3.781099E-2,-2.1680866E-1,-0E0,9.453442E-3,6.491792E-3,-4.4696193E-4,-4.6242196E-3,4.0877825E-3,2.221454E-3,-2.0606416E-5,2.4471718E-3,-4.579061E-3,-1.0988826E-2,-2.1605886E-4,1.1583376E-3,-1.9977228E-3,-3.3039783E-4,4.121025E-3,1.9725831E-3,8.92674E-5,-7.423064E-4,1.2775515E-3,-3.9521083E-3,4.3110535E-3,-8.37237E-5,-1.4628448E-3,-6.6994707E-4,1.1444754E-3,-3.8006227E-3,-1.6377264E-3,-1.9255838E-3,3.4279271E-3,-4.4681584E-3,-2.6127046E-3],"categories":[],"categories_nodes":[],"categories_segments":[],"categories_sizes":[],"default_left":[0,0,0,0,0,0,0,0,0,0,0,0,0,0,0,0,0,0,0,0,0,0,0,0,0,0,0,0,0,0,0,0,0,0,0,0,0,0,0,0,0,0,0,0,0,0,0,0,0,0,0,0,0,0,0,0,0,0,0,0,0,0,0],"id":22,"left_children":[1,3,5,7,9,11,13,15,17,19,21,23,25,27,29,31,33,35,37,39,41,43,45,47,49,51,53,55,57,59,61,-1,-1,-1,-1,-1,-1,-1,-1,-1,-1,-1,-1,-1,-1,-1,-1,-1,-1,-1,-1,-1,-1,-1,-1,-1,-1,-1,-1,-1,-1,-1,-1],"loss_changes":[2.9303134E2,6.4372635E1,9.5990265E1,2.4585236E1,1.8748362E1,2.1429333E1,2.9080444E1,6.0919113E0,1.7733704E1,1.3251675E1,1.8856617E1,1.8248276E1,1.6458431E1,1.9300713E1,1.0031433E1,5.5119476E0,6.8872366E0,1.0217926E1,1.4872856E1,8.057838E0,9.38287E0,1.171677E1,1.14267025E1,1.06442375E1,1.2021166E1,7.4479084E0,1.0693386E1,6.891655E0,7.436142E0,6.4330716E0,7.709076E0,0E0,0E0,0E0,0E0,0E0,0E0,0E0,0E0,0E0,0E0,0E0,0E0,0E0,0E0,0E0,0E0,0E0,0E0,0E0,0E0,0E0,0E0,0E0,0E0,0E0,0E0,0E0,0E0,0E0,0E0,0E0,0E0],"parents":[2147483647,0,0,1,1,2,2,3,3,4,4,5,5,6,6,7,7,8,8,9,9,10,10,11,11,12,12,13,13,14,14,15,15,16,16,17,17,18,18,19,19,20,20,21,21,22,22,23,23,24,24,25,25,26,26,27,27,28,28,29,29,30,30],"right_children":[2,4,6,8,10,12,14,16,18,20,22,24,26,28,30,32,34,36,38,40,42,44,46,48,50,52,54,56,58,60,62,-1,-1,-1,-1,-1,-1,-1,-1,-1,-1,-1,-1,-1,-1,-1,-1,-1,-1,-1,-1,-1,-1,-1,-1,-1,-1,-1,-1,-1,-1,-1,-1],"split_conditions":[-3.579855E-4,2.167891E1,6.675135E-4,1.921611E4,-4.259944E-3,1.211524E-3,8.418649E1,1.5840659E3,4.951923E0,1.2852497E0,9.525369E-1,-1.2929707E-3,6.4203185E-1,-5.7163085E-3,1.1088934E-3,3.594547E-4,-1.0409386E-2,4.3189645E-4,6.024987E-3,3.1208801E3,-6.6316323E-3,1E0,1.7178198E-2,6.3404734E-3,7.638142E1,-3.3831145E4,-3.8505932E-3,7.110814E1,5.41184E-4,1.096967E-3,4.9246094E1,-0E0,9.453442E-3,6.491792E-3,-4.4696193E-4,-4.6242196E-3,4.0877825E-3,2.221454E-3,-2.0606416E-5,2.4471718E-3,-4.579061E-3,-1.0988826E-2,-2.1605886E-4,1.1583376E-3,-1.9977228E-3,-3.3039783E-4,4.121025E-3,1.9725831E-3,8.92674E-5,-7.423064E-4,1.2775515E-3,-3.9521083E-3,4.3110535E-3,-8.37237E-5,-1.4628448E-3,-6.6994707E-4,1.1444754E-3,-3.8006227E-3,-1.6377264E-3,-1.9255838E-3,3.4279271E-3,-4.4681584E-3,-2.6127046E-3],"split_indices":[12,1,23,16,12,12,1,17,1,2,2,23,2,13,0,14,13,14,14,18,0,15,23,22,25,5,23,1,14,23,25,0,0,0,0,0,0,0,0,0,0,0,0,0,0,0,0,0,0,0,0,0,0,0,0,0,0,0,0,0,0,0,0],"split_type":[0,0,0,0,0,0,0,0,0,0,0,0,0,0,0,0,0,0,0,0,0,0,0,0,0,0,0,0,0,0,0,0,0,0,0,0,0,0,0,0,0,0,0,0,0,0,0,0,0,0,0,0,0,0,0,0,0,0,0,0,0,0,0],"sum_hessian":[3.6627883E4,1.58463955E4,2.0781488E4,5.525029E3,1.0321367E4,9.270924E3,1.1510564E4,2.2224078E2,5.3027876E3,1.6197242E3,8.701643E3,5.0412705E3,4.229654E3,7.3987725E3,4.1117925E3,1.3292441E2,8.9316376E1,1.0096896E3,4.293098E3,1.534767E3,8.4957306E1,4.8917593E3,3.8098833E3,2.4210496E3,2.620221E3,1.6686261E2,4.062791E3,2.2308157E3,5.167957E3,1.4938731E2,3.962405E3,9.476268E0,1.2344814E2,5.5445328E1,3.3871048E1,2.0590067E1,9.890995E2,3.7251968E3,5.679014E2,1.5091648E3,2.5602158E1,1.8217392E1,6.6739914E1,4.685893E3,2.05866E2,3.709418E3,1.0046531E2,1.6286927E3,7.923569E2,1.9386053E3,6.8161566E2,1.79317E1,1.4893091E2,1.6947286E3,2.3680623E3,1.7867368E3,4.4407874E2,3.080193E2,4.8599375E3,7.798834E1,7.139898E1,4.8098346E2,3.4814216E3],"tree_param":{"num_deleted":"0","num_feature":"30","num_nodes":"63","size_leaf_vector":"1"}},{"base_weights":[-8.8832655E-4,9.255472E-2,-7.233616E-2,5.1553316E-2,1.7885454E-1,-2.9893288E-2,-1.5198933E-1,1.4274363E-1,2.937402E-2,5.2540886E-1,1.6763231E-1,-1.6667267E-2,-1.7327753E-1,-1.6909194E-1,-3.6063623E-3,4.4290903E-1,1.2069095E-1,7.121332E-2,-2.1958983E-2,6.170692E-1,1.4464933E-1,1.2754524E-1,2.2781791E-1,7.2878405E-2,-3.3105772E-2,-2.6971447E-1,-3.4933303E-2,-1.8500793E-1,-3.849628E-2,1.2955837E-1,-1.4635889E-1,7.4117086E-3,-3.2422005E-3,3.0242258E-3,1.0580469E-3,1.7472598E-3,5.161374E-4,-5.0390663E-4,1.8402161E-3,9.76472E-3,2.717454E-3,5.0782557E-3,-2.3640015E-3,8.819401E-4,2.5603634E-3,5.1048608E-3,2.453161E-3,-9.373364E-4,1.9310672E-3,-2.4725322E-4,-1.8270137E-3,-0E0,-4.0843002E-3,9.81641E-4,-2.0393287E-3,-1.7195898E-3,-2.9627942E-3,-8.435379E-4,6.181616E-3,2.3789192E-3,-1.6742832E-3,-4.379551E-3,-5.518378E-4],"categories":[],"categories_nodes":[],"categories_segments":[],"categories_sizes":[],"default_left":[0,0,0,0,0,0,0,0,0,0,0,0,0,0,0,0,0,0,0,0,0,0,0,0,0,0,0,0,0,0,0,0,0,0,0,0,0,0,0,0,0,0,0,0,0,0,0,0,0,0,0,0,0,0,0,0,0,0,0,0,0,0,0],"id":23,"left_children":[1,3,5,7,9,11,13,15,17,19,21,23,25,27,29,31,33,35,37,39,41,43,45,47,49,51,53,55,57,59,61,-1,-1,-1,-1,-1,-1,-1,-1,-1,-1,-1,-1,-1,-1,-1,-1,-1,-1,-1,-1,-1,-1,-1,-1,-1,-1,-1,-1,-1,-1,-1,-1],"loss_changes":[2.448615E2,5.5817047E1,7.000555E1,2.1521273E1,1.8615753E1,2.544294E1,1.8027725E1,1.2885315E1,1.8743782E1,4.06575E0,1.1326279E1,1.8259094E1,1.4652504E1,1.3053513E1,1.4432291E1,1.2276337E1,8.080351E0,9.20116E0,1.0205159E1,4.593624E0,3.1613522E0,1.174617E1,1.1892059E1,2.0677021E1,1.5681019E1,7.5504456E0,6.4267707E0,1.20364685E1,8.756284E0,5.2524853E0,6.634734E0,0E0,0E0,0E0,0E0,0E0,0E0,0E0,0E0,0E0,0E0,0E0,0E0,0E0,0E0,0E0,0E0,0E0,0E0,0E0,0E0,0E0,0E0,0E0,0E0,0E0,0E0,0E0,0E0,0E0,0E0,0E0,0E0],"parents":[2147483647,0,0,1,1,2,2,3,3,4,4,5,5,6,6,7,7,8,8,9,9,10,10,11,11,12,12,13,13,14,14,15,15,16,16,17,17,18,18,19,19,20,20,21,21,22,22,23,23,24,24,25,25,26,26,27,27,28,28,29,29,30,30],"right_children":[2,4,6,8,10,12,14,16,18,20,22,24,26,28,30,32,34,36,38,40,42,44,46,48,50,52,54,56,58,60,62,-1,-1,-1,-1,-1,-1,-1,-1,-1,-1,-1,-1,-1,-1,-1,-1,-1,-1,-1,-1,-1,-1,-1,-1,-1,-1,-1,-1,-1,-1,-1,-1],"split_conditions":[-3.579855E-4,6.391944E-2,2.2766928E-3,-2.7724445E4,1.721972E4,1.11984976E-1,6.9947173E-3,5.7402344E1,-2.5357722E-4,-1.7201552E3,2.1524823E-1,-2.4667985E-3,6.867578E1,1.3866231E5,3.011423E2,-2.9284447E-3,-5.4905415E-3,3.061659E4,1.2012094E-2,1.5811815E-3,8.3086536E2,3.2831393E2,8.708346E1,-1.9983934E-2,2.3224266E4,1.5379325E1,1.0380207E2,-3.0007435E-3,-1.3140425E-4,-1.5144546E-3,3.72E4,7.4117086E-3,-3.2422005E-3,3.0242258E-3,1.0580469E-3,1.7472598E-3,5.161374E-4,-5.0390663E-4,1.8402161E-3,9.76472E-3,2.717454E-3,5.0782557E-3,-2.3640015E-3,8.819401E-4,2.5603634E-3,5.1048608E-3,2.453161E-3,-9.373364E-4,1.9310672E-3,-2.4725322E-4,-1.8270137E-3,-0E0,-4.0843002E-3,9.81641E-4,-2.0393287E-3,-1.7195898E-3,-2.9627942E-3,-8.435379E-4,6.181616E-3,2.3789192E-3,-1.6742832E-3,-4.379551E-3,-5.518378E-4],"split_indices":[12,26,0,5,4,26,14,25,0,5,26,11,25,5,25,13,12,16,23,20,18,17,18,13,5,25,18,13,13,13,6,0,0,0,0,0,0,0,0,0,0,0,0,0,0,0,0,0,0,0,0,0,0,0,0,0,0,0,0,0,0,0,0],"split_type":[0,0,0,0,0,0,0,0,0,0,0,0,0,0,0,0,0,0,0,0,0,0,0,0,0,0,0,0,0,0,0,0,0,0,0,0,0,0,0,0,0,0,0,0,0,0,0,0,0,0,0,0,0,0,0,0,0,0,0,0,0,0,0],"sum_hessian":[3.6679086E4,1.5883101E4,2.0795984E4,1.0781464E4,5.1016367E3,1.3581286E4,7.214698E3,2.0936697E3,8.687795E3,1.539313E2,4.947705E3,1.2445866E4,1.1354193E3,6.459028E3,7.556701E2,1.3683286E2,1.9568369E3,4.803899E3,3.8838955E3,1.200689E2,3.38624E1,2.9880283E3,1.9596768E3,1.9143596E3,1.0531507E4,6.6146985E2,4.7394952E2,5.745779E3,7.13249E2,3.850686E2,3.706015E2,1.1845411E2,1.8378746E1,5.1061905E2,1.4462179E3,1.6130913E3,3.1908079E3,3.5362356E3,3.4765997E2,8.792906E1,3.2139843E1,2.2168398E1,1.1694001E1,1.5930117E3,1.3950167E3,3.8602142E2,1.5736554E3,6.4316595E2,1.2711937E3,9.298996E3,1.2325111E3,8.730123E1,5.741686E2,2.4112228E2,2.3282726E2,2.4942961E3,3.251483E3,6.828187E2,3.0430332E1,3.2611505E2,5.8953556E1,1.26038925E2,